  0.492302368269247E-002 -0.282373777754370E+000  0.389762566522764E+001
  0.492302368269247E-002 -0.157419549008814E+000  0.790869384914519E+001
  0.492302368269247E-002 -0.703356858566018E-001  0.608367149472517E+001
  0.492302368269247E-002  0.250004492854042E+000  0.794388153820930E+001
  0.492302368269247E-002  0.502976143641690E+001  0.171327024238094E+001
  0.492302368269247E-002  0.622558243459763E+000  0.797494664380635E+001
  0.492302368269247E-002  0.852585604193917E+000  0.799364245882850E+001
  0.492302368269247E-002  0.352701730685465E+001  0.581036374932441E+001
  0.492302368269247E-002  0.101892438410996E+001  0.800694564936411E+001
  0.492302368269247E-002  0.105898750477871E+001  0.801012357663818E+001
  0.492302368269247E-002  0.291832020757638E+001  0.185202662377216E+001
  0.492302368269247E-002  0.284276117558290E+001  0.185730431548510E+001
  0.492302368269247E-002  0.227936379181507E+001  0.810254698131468E+001
  0.492302368269247E-002  0.273374747044904E+001  0.186496201183063E+001
  0.492302368269247E-002  0.311572398558886E+000  0.611012574947897E+001
  0.492302368269247E-002 -0.483729903033391E+000  0.781524708738229E+001
  0.492302368269247E-002 -0.572500756492941E+000  0.619351101871642E+001
  0.492302368269247E-002 -0.730763806604368E+000  0.779063416882523E+001
  0.492302368269247E-002 -0.831533630689686E+000  0.621962879534139E+001
  0.492302368269247E-002 -0.888882268948636E+000  0.777446977664650E+001
  0.492302368269247E-002 -0.993080002073665E+000  0.623636933165379E+001
  0.492302368269247E-002 -0.110996952014088E+001  0.624871478468685E+001
  0.492302368269247E-002 -0.111781815976269E+001  0.624955100612458E+001
  0.492302368269247E-002 -0.121451969486918E+001  0.625993145804487E+001
  0.492302368269247E-002 -0.125540414605796E+001  0.773563573499483E+001
  0.492302368269247E-002 -0.134513779118592E+001  0.627418834992754E+001
  0.492302368269247E-002 -0.138909789412785E+001  0.627904997752257E+001
  0.492302368269247E-002 -0.153996767316706E+001  0.629599022005094E+001
  0.492302368269247E-002 -0.154571303873745E+001  0.770335660356086E+001
  0.492302368269247E-002 -0.172008795806068E+001  0.768323533623558E+001
  0.492302368269247E-002 -0.173022087330687E+001  0.768204784160758E+001
  0.492302368269247E-002 -0.191318015031271E+001  0.633976082067131E+001
  0.492302368269247E-002 -0.198500147174366E+001  0.634852140289057E+001
  0.492302368269247E-002 -0.209028684840648E+001  0.636158109189528E+001
  0.492302368269247E-002 -0.209670577734935E+001  0.636238595248006E+001
  0.492302368269247E-002 -0.216720185575359E+001  0.762870684826084E+001
  0.492302368269247E-002 -0.217307544520403E+001  0.637204098323377E+001
  0.492302368269247E-002 -0.221572358282440E+001  0.637749793195625E+001
  0.492302368269247E-002 -0.221864760354713E+001  0.637787382195963E+001
  0.492302368269247E-002 -0.222524353076154E+001  0.637872257964030E+001
  0.492302368269247E-002 -0.223878832650472E+001  0.761953084324342E+001
  0.492302368269247E-002 -0.227067408320481E+001  0.761539966254288E+001
  0.492302368269247E-002 -0.230421253781983E+001  0.761102421549353E+001
  0.492302368269247E-002 -0.232171134659191E+001  0.760872882510684E+001
  0.492302368269247E-002 -0.235950637096172E+001  0.760374131763263E+001
  0.492302368269247E-002 -0.236186503057955E+001  0.760342869759229E+001
  0.492302368269247E-002 -0.243594365703334E+001  0.640647357864597E+001
  0.492302368269247E-002 -0.254876455865532E+001  0.642188040286996E+001
  0.492302368269247E-002 -0.257951677336345E+001  0.757384833730917E+001
  0.492302368269247E-002 -0.259148880642224E+001  0.642782311393845E+001
  0.492302368269247E-002 -0.262935087844483E+001  0.756685841038083E+001
  0.492302368269247E-002 -0.264610889702104E+001  0.643551158165354E+001
  0.492302368269247E-002 -0.264815175307516E+001  0.643580117203363E+001
  0.492302368269247E-002 -0.265324967709623E+001  0.756347550934824E+001
  0.492302368269247E-002 -0.266604681150079E+001  0.756165568467748E+001
  0.492302368269247E-002 -0.268071571504338E+001  0.644043759636327E+001
  0.492302368269247E-002 -0.268605781849186E+001  0.755879812724450E+001
  0.492302368269247E-002 -0.269988577141922E+001  0.644318506257143E+001
  0.492302368269247E-002 -0.272236293333034E+001  0.644642387277105E+001
  0.492302368269247E-002 -0.273134718670138E+001  0.644772375743797E+001
  0.492302368269247E-002 -0.276359810115600E+001  0.754758460696562E+001
  0.492302368269247E-002 -0.276503378133737E+001  0.754737481943973E+001
  0.492302368269247E-002 -0.277616965173250E+001  0.754574486135323E+001
  0.492302368269247E-002 -0.278881698217509E+001  0.645611225347261E+001
  0.492302368269247E-002 -0.285509333126200E+001  0.646594975426582E+001
  0.492302368269247E-002 -0.289306728638626E+001  0.752833117658231E+001
  0.492302368269247E-002 -0.290586785105404E+001  0.647361065569105E+001
  0.492302368269247E-002 -0.294732879874251E+001  0.647995001185285E+001
  0.492302368269247E-002 -0.296278639029739E+001  0.648233333551109E+001
  0.492302368269247E-002 -0.296833873399697E+001  0.648319210480959E+001
  0.492302368269247E-002 -0.300044988794703E+001  0.751181306733917E+001
  0.492302368269247E-002 -0.300326868509178E+001  0.751137227961239E+001
  0.492302368269247E-002 -0.302108659791182E+001  0.750857717438434E+001
  0.492302368269247E-002 -0.303824353084880E+001  0.750587116248591E+001
  0.492302368269247E-002 -0.305826946235926E+001  0.750269422514405E+001
  0.492302368269247E-002 -0.306571086494723E+001  0.649849141624585E+001
  0.492302368269247E-002 -0.307451408810376E+001  0.649989766659807E+001
  0.492302368269247E-002 -0.307964076569201E+001  0.650071844069710E+001
  0.492302368269247E-002 -0.308972769769814E+001  0.749766270338348E+001
  0.492302368269247E-002 -0.310142104665038E+001  0.650422058281269E+001
  0.492302368269247E-002 -0.314922491788612E+001  0.748800472447393E+001
  0.492302368269247E-002 -0.318917052300016E+001  0.651858820715459E+001
  0.492302368269247E-002 -0.322184579754732E+001  0.652404908828422E+001
  0.492302368269247E-002 -0.322804740306224E+001  0.652509262641995E+001
  0.492302368269247E-002 -0.323492204444693E+001  0.652625210200029E+001
  0.492302368269247E-002 -0.324500566072584E+001  0.652795795499286E+001
  0.492302368269247E-002 -0.325102283958683E+001  0.747102117111311E+001
  0.492302368269247E-002 -0.326251700184983E+001  0.746906489708214E+001
  0.492302368269247E-002 -0.327507709813491E+001  0.653308216754008E+001
  0.492302368269247E-002 -0.327707333745704E+001  0.653342432127518E+001
  0.492302368269247E-002 -0.328217867845493E+001  0.746569948402147E+001
  0.492302368269247E-002 -0.329120609293795E+001  0.746414612257411E+001
  0.492302368269247E-002 -0.331533180394566E+001  0.745996903084811E+001
  0.492302368269247E-002 -0.332556995300165E+001  0.745818490316726E+001
  0.492302368269247E-002 -0.333890818143214E+001  0.654414992712350E+001
  0.492302368269247E-002 -0.334208992497519E+001  0.745529134625493E+001
  0.492302368269247E-002 -0.334294144898146E+001  0.745514169896157E+001
  0.492302368269247E-002 -0.334753211897189E+001  0.654566591704435E+001
  0.492302368269247E-002 -0.334897717740818E+001  0.745407956305624E+001
  0.492302368269247E-002 -0.340490370279431E+001  0.655588289210664E+001
  0.492302368269247E-002 -0.340675141839779E+001  0.744378414913898E+001
  0.492302368269247E-002 -0.342216140233115E+001  0.655900252427290E+001
  0.492302368269247E-002 -0.342422465111525E+001  0.744062302912151E+001
  0.492302368269247E-002 -0.343812604596375E+001  0.743809180615078E+001
  0.492302368269247E-002 -0.349803103827828E+001  0.742701244928706E+001
  0.492302368269247E-002 -0.350253685808446E+001  0.742616745614505E+001
  0.492302368269247E-002 -0.350527048467997E+001  0.742565399143184E+001
  0.492302368269247E-002 -0.353234081832903E+001  0.657946454722817E+001
  0.492302368269247E-002 -0.353522908366273E+001  0.741998564806981E+001
  0.492302368269247E-002 -0.355186409711941E+001  0.741680492131397E+001
  0.492302368269247E-002 -0.355332013189666E+001  0.741652536161342E+001
  0.492302368269247E-002 -0.357832023958619E+001  0.658830428756561E+001
  0.492302368269247E-002 -0.359187753476989E+001  0.740905279904613E+001
  0.492302368269247E-002 -0.359658839866140E+001  0.740813043770935E+001
  0.492302368269247E-002 -0.360105751472874E+001  0.659274652166733E+001
  0.492302368269247E-002 -0.361585337979794E+001  0.740433656426668E+001
  0.492302368269247E-002 -0.362901529618423E+001  0.659827602687769E+001
  0.492302368269247E-002 -0.368144774363678E+001  0.660885685613989E+001
  0.492302368269247E-002 -0.369451208424508E+001  0.661153807845370E+001
  0.492302368269247E-002 -0.370699516239079E+001  0.661411741165462E+001
  0.492302368269247E-002 -0.372246980398606E+001  0.661733901514149E+001
  0.492302368269247E-002 -0.373931631974907E+001  0.737912265404590E+001
  0.492302368269247E-002 -0.375387563867466E+001  0.662396210858118E+001
  0.492302368269247E-002 -0.376508800359372E+001  0.662635509183764E+001
  0.492302368269247E-002 -0.376704033714907E+001  0.737322666574992E+001
  0.492302368269247E-002 -0.377418865545977E+001  0.662830871264302E+001
  0.492302368269247E-002 -0.377542665232116E+001  0.737142473477041E+001
  0.492302368269247E-002 -0.381778238143639E+001  0.736218699167810E+001
  0.492302368269247E-002 -0.381831938398437E+001  0.736206835892295E+001
  0.492302368269247E-002 -0.382788117093879E+001  0.664005054435317E+001
  0.492302368269247E-002 -0.384393444281279E+001  0.664363629937856E+001
  0.492302368269247E-002 -0.384878139116948E+001  0.735527394413823E+001
  0.492302368269247E-002 -0.385132564415180E+001  0.664529942922746E+001
  0.492302368269247E-002 -0.385706349068005E+001  0.735340407391801E+001
  0.492302368269247E-002 -0.385828224056142E+001  0.664687192198747E+001
  0.492302368269247E-002 -0.385889181858264E+001  0.664701004688882E+001
  0.492302368269247E-002 -0.386740037731482E+001  0.735105631684999E+001
  0.492302368269247E-002 -0.390654248689963E+001  0.665797982505894E+001
  0.492302368269247E-002 -0.391007225551936E+001  0.665880645216013E+001
  0.492302368269247E-002 -0.391231287133709E+001  0.734066778326798E+001
  0.492302368269247E-002 -0.391704893005296E+001  0.733955377948446E+001
  0.492302368269247E-002 -0.392338021709884E+001  0.666194118376407E+001
  0.492302368269247E-002 -0.392385041010026E+001  0.666205247100384E+001
  0.492302368269247E-002 -0.393441254005201E+001  0.666456208985517E+001
  0.492302368269247E-002 -0.394740317905525E+001  0.733232527638116E+001
  0.492302368269247E-002 -0.395346414921035E+001  0.666913698590353E+001
  0.492302368269247E-002 -0.397273505154439E+001  0.667382981478444E+001
  0.492302368269247E-002 -0.397633936552524E+001  0.667471504878551E+001
  0.492302368269247E-002 -0.397710464125424E+001  0.667490331381268E+001
  0.492302368269247E-002 -0.397850883598837E+001  0.667524904278430E+001
  0.492302368269247E-002 -0.399752372010750E+001  0.732003250265161E+001
  0.492302368269247E-002 -0.402967325550056E+001  0.668810758731485E+001
  0.492302368269247E-002 -0.404761307474683E+001  0.730725641736367E+001
  0.492302368269247E-002 -0.407765657475190E+001  0.729933183260447E+001
  0.492302368269247E-002 -0.408004572696306E+001  0.729869262069319E+001
  0.492302368269247E-002 -0.408744269563313E+001  0.729670484773484E+001
  0.492302368269247E-002 -0.409763136483641E+001  0.670605514191123E+001
  0.492302368269247E-002 -0.409781248447663E+001  0.670610443954630E+001
  0.492302368269247E-002 -0.410277125762203E+001  0.670745735908909E+001
  0.492302368269247E-002 -0.411592143816227E+001  0.671107584409626E+001
  0.492302368269247E-002 -0.412159358536433E+001  0.671265069286257E+001
  0.492302368269247E-002 -0.412443580943822E+001  0.728655692010583E+001
  0.492302368269247E-002 -0.413464463643202E+001  0.728369253804344E+001
  0.492302368269247E-002 -0.414348361457787E+001  0.728118893939520E+001
  0.492302368269247E-002 -0.415619036958725E+001  0.727755024560734E+001
  0.492302368269247E-002 -0.415983835310473E+001  0.672350323424333E+001
  0.492302368269247E-002 -0.415993947166786E+001  0.727646750713926E+001
  0.492302368269247E-002 -0.416023372640399E+001  0.672361765297687E+001
  0.492302368269247E-002 -0.416190456991758E+001  0.727589829065045E+001
  0.492302368269247E-002 -0.416598546341352E+001  0.727471243842333E+001
  0.492302368269247E-002 -0.417097062644058E+001  0.672674316524529E+001
  0.492302368269247E-002 -0.417341560909958E+001  0.672745991026141E+001
  0.492302368269247E-002 -0.417477885500312E+001  0.727213963542666E+001
  0.492302368269247E-002 -0.417724407136986E+001  0.727141397633776E+001
  0.492302368269247E-002 -0.418024567749402E+001  0.672947220185051E+001
  0.492302368269247E-002 -0.420763386157521E+001  0.726230360294632E+001
  0.492302368269247E-002 -0.421386125342815E+001  0.726039738366994E+001
  0.492302368269247E-002 -0.421926375177404E+001  0.725873228960995E+001
  0.492302368269247E-002 -0.422222452902758E+001  0.674218480780559E+001
  0.492302368269247E-002 -0.423153596823138E+001  0.725490948011723E+001
  0.492302368269247E-002 -0.423167745803572E+001  0.725486507152794E+001
  0.492302368269247E-002 -0.423487232290642E+001  0.674613975044204E+001
  0.492302368269247E-002 -0.424412850055677E+001  0.674907364052063E+001
  0.492302368269247E-002 -0.424600581632492E+001  0.674967287929857E+001
  0.492302368269247E-002 -0.424875868936079E+001  0.675055419892705E+001
  0.492302368269247E-002 -0.425107089948802E+001  0.724870314443644E+001
  0.492302368269247E-002 -0.425121121772616E+001  0.724865800436437E+001
  0.492302368269247E-002 -0.428243855828633E+001  0.723839972450664E+001
  0.492302368269247E-002 -0.428293493082766E+001  0.676176690188341E+001
  0.492302368269247E-002 -0.428821725992597E+001  0.676354739083170E+001
  0.492302368269247E-002 -0.429180211148273E+001  0.676476339542194E+001
  0.492302368269247E-002 -0.429416975395441E+001  0.676556997347194E+001
  0.492302368269247E-002 -0.429885717483094E+001  0.676717506577322E+001
  0.492302368269247E-002 -0.430040352358771E+001  0.676770700786158E+001
  0.492302368269247E-002 -0.430237637292723E+001  0.676838743923894E+001
  0.492302368269247E-002 -0.431255018125982E+001  0.722807141199432E+001
  0.492302368269247E-002 -0.431386623453408E+001  0.677239068462560E+001
  0.492302368269247E-002 -0.431630949996730E+001  0.722674893158709E+001
  0.492302368269247E-002 -0.431804655236763E+001  0.722613524623958E+001
  0.492302368269247E-002 -0.431869678398991E+001  0.722590509629548E+001
  0.492302368269247E-002 -0.431941537578600E+001  0.722565047716523E+001
  0.492302368269247E-002 -0.432095535945223E+001  0.677489615627827E+001
  0.492302368269247E-002 -0.434124628699967E+001  0.721777325834617E+001
  0.492302368269247E-002 -0.434438397578159E+001  0.721661754740925E+001
  0.492302368269247E-002 -0.435153304806143E+001  0.721396100177562E+001
  0.492302368269247E-002 -0.435300066134921E+001  0.721341155581360E+001
  0.492302368269247E-002 -0.435751933483002E+001  0.721171089815560E+001
  0.492302368269247E-002 -0.436657018328140E+001  0.679173726054421E+001
  0.492302368269247E-002 -0.436783403381847E+001  0.679222331083661E+001
  0.492302368269247E-002 -0.436985346815555E+001  0.679300231144825E+001
  0.492302368269247E-002 -0.438112289942360E+001  0.679740450631152E+001
  0.492302368269247E-002 -0.438438986516151E+001  0.679869868469180E+001
  0.492302368269247E-002 -0.438532067989479E+001  0.679906894419357E+001
  0.492302368269247E-002 -0.438883808660462E+001  0.719952569787853E+001
  0.492302368269247E-002 -0.439045336440835E+001  0.719887699632013E+001
  0.492302368269247E-002 -0.439199372215224E+001  0.719825640576358E+001
  0.492302368269247E-002 -0.439873558976450E+001  0.680448298383943E+001
  0.492302368269247E-002 -0.440414998261218E+001  0.719328890488775E+001
  0.492302368269247E-002 -0.441658054995541E+001  0.718807368231039E+001
  0.492302368269247E-002 -0.442496379435377E+001  0.681552672043341E+001
  0.492302368269247E-002 -0.442632949917911E+001  0.718388006444962E+001
  0.492302368269247E-002 -0.442994383604715E+001  0.718230080691843E+001
  0.492302368269247E-002 -0.443176984791769E+001  0.681850228016908E+001
  0.492302368269247E-002 -0.444182059178063E+001  0.717701215575704E+001
  0.492302368269247E-002 -0.444208873874845E+001  0.682310907380280E+001
  0.492302368269247E-002 -0.444732909240731E+001  0.682549514853310E+001
  0.492302368269247E-002 -0.445914610177920E+001  0.683099934412558E+001
  0.492302368269247E-002 -0.446118789133703E+001  0.683196864769713E+001
  0.492302368269247E-002 -0.446500324107222E+001  0.716620493193374E+001
  0.492302368269247E-002 -0.446701089002757E+001  0.716523575752919E+001
  0.492302368269247E-002 -0.446922716146138E+001  0.683584077200220E+001
  0.492302368269247E-002 -0.447307552917057E+001  0.716227295924880E+001
  0.492302368269247E-002 -0.447695959935261E+001  0.683965330663142E+001
  0.492302368269247E-002 -0.449476845566483E+001  0.684879932187890E+001
  0.492302368269247E-002 -0.449541009736165E+001  0.715086080469357E+001
  0.492302368269247E-002 -0.449712205699907E+001  0.714995022124293E+001
  0.492302368269247E-002 -0.450292795234799E+001  0.685317995506411E+001
  0.492302368269247E-002 -0.450469757684297E+001  0.714585261628020E+001
  0.492302368269247E-002 -0.450717708756298E+001  0.714448620681774E+001
  0.492302368269247E-002 -0.451479142862317E+001  0.714020688068332E+001
  0.492302368269247E-002 -0.452234819431261E+001  0.713582667956126E+001
  0.492302368269247E-002 -0.452383651341126E+001  0.686505276651649E+001
  0.492302368269247E-002 -0.452717980704924E+001  0.713295047515062E+001
  0.492302368269247E-002 -0.452786759423816E+001  0.686746403170253E+001
  0.492302368269247E-002 -0.453411632302143E+001  0.712870892077562E+001
  0.492302368269247E-002 -0.453489310618699E+001  0.687177480364321E+001
  0.492302368269247E-002 -0.453642419256228E+001  0.687273363696291E+001
  0.492302368269247E-002 -0.453918236093677E+001  0.687447940320102E+001
  0.492302368269247E-002 -0.453984076153466E+001  0.687489973571128E+001
  0.492302368269247E-002 -0.454240901349338E+001  0.712344697570906E+001
  0.492302368269247E-002 -0.454397502848656E+001  0.687757208891431E+001
  0.492302368269247E-002 -0.455491457714442E+001  0.688494233781470E+001
  0.492302368269247E-002 -0.456077835311533E+001  0.688909435779816E+001
  0.492302368269247E-002 -0.456561803669589E+001  0.689264213070616E+001
  0.492302368269247E-002 -0.456754223335848E+001  0.710591430797252E+001
  0.492302368269247E-002 -0.456954042709260E+001  0.710439410728503E+001
  0.492302368269247E-002 -0.456987416510876E+001  0.689586195914436E+001
  0.492302368269247E-002 -0.457103958131796E+001  0.689676112670229E+001
  0.492302368269247E-002 -0.457186793486401E+001  0.689740502745060E+001
  0.492302368269247E-002 -0.457202143734385E+001  0.689752479326374E+001
  0.492302368269247E-002 -0.457789049704131E+001  0.709778608512485E+001
  0.492302368269247E-002 -0.457973047416692E+001  0.690373099094752E+001
  0.492302368269247E-002 -0.457978807053711E+001  0.690377886570656E+001
  0.492302368269247E-002 -0.458064765199878E+001  0.690449621132725E+001
  0.492302368269247E-002 -0.458185107531753E+001  0.690550965171062E+001
  0.492302368269247E-002 -0.458191681488875E+001  0.709443467365568E+001
  0.492302368269247E-002 -0.458630904898041E+001  0.690936253460192E+001
  0.492302368269247E-002 -0.458739984972948E+001  0.708966951552193E+001
  0.492302368269247E-002 -0.459181194613499E+001  0.708564278480442E+001
  0.492302368269247E-002 -0.459423525649260E+001  0.708334840689442E+001
  0.492302368269247E-002 -0.459590712516243E+001  0.691827204918349E+001
  0.492302368269247E-002 -0.459611563307833E+001  0.691847640416345E+001
  0.492302368269247E-002 -0.459681688997098E+001  0.708083251558190E+001
  0.492302368269247E-002 -0.460196998686421E+001  0.707556057220786E+001
  0.492302368269247E-002 -0.460417118363784E+001  0.707319295450109E+001
  0.492302368269247E-002 -0.460458024897516E+001  0.692725552849440E+001
  0.492302368269247E-002 -0.460482646051303E+001  0.707247319703566E+001
  0.492302368269247E-002 -0.460501146044536E+001  0.692773130484506E+001
  0.492302368269247E-002 -0.460956634218589E+001  0.693296282209914E+001
  0.492302368269247E-002 -0.461104006238653E+001  0.706525479284167E+001
  0.492302368269247E-002 -0.461117649381089E+001  0.706508731797295E+001
  0.492302368269247E-002 -0.461226158347541E+001  0.706373966280573E+001
  0.492302368269247E-002 -0.461381206187524E+001  0.693823700079646E+001
  0.492302368269247E-002 -0.461383356733767E+001  0.706173513745532E+001
  0.492302368269247E-002 -0.461725227860924E+001  0.694286653000933E+001
  0.492302368269247E-002 -0.461801395603679E+001  0.705605680159238E+001
  0.492302368269247E-002 -0.461881637602464E+001  0.705489970679987E+001
  0.492302368269247E-002 -0.461902293607942E+001  0.694540212277070E+001
  0.492302368269247E-002 -0.461971568656860E+001  0.694642679662669E+001
  0.492302368269247E-002 -0.462103685694458E+001  0.705156259166801E+001
  0.492302368269247E-002 -0.462230791781350E+001  0.704955129786891E+001
  0.492302368269247E-002 -0.462233229779828E+001  0.704951192101838E+001
  0.492302368269247E-002 -0.462370827440579E+001  0.695276363619278E+001
  0.492302368269247E-002 -0.462402076869270E+001  0.695329587834225E+001
  0.492302368269247E-002 -0.412211803202939E+001  0.697137832543675E+001
  0.492302368269247E-002 -0.412304543065220E+001  0.697409987499730E+001
  0.492302368269247E-002 -0.412445532669304E+001  0.697889945240944E+001
  0.492302368269247E-002 -0.412532151658466E+001  0.701751121714681E+001
  0.492302368269247E-002 -0.412551172343185E+001  0.698338044433772E+001
