  0.307801199577980E-001  0.155166475078607E+001  0.389762566522764E+001
  0.307801199577980E-001  0.167661897953163E+001  0.790869384914519E+001
  0.307801199577980E-001  0.176370284268384E+001  0.608367149472517E+001
  0.307801199577980E-001  0.208404302139448E+001  0.794388153820930E+001
  0.307801199577980E-001  0.686379996495734E+001  0.171327024238094E+001
  0.307801199577980E-001  0.245659677200020E+001  0.797494664380635E+001
  0.307801199577980E-001  0.268662413273436E+001  0.799364245882850E+001
  0.307801199577980E-001  0.536105583539509E+001  0.581036374932441E+001
  0.307801199577980E-001  0.285296291265040E+001  0.800694564936411E+001
  0.307801199577980E-001  0.289302603331915E+001  0.801012357663818E+001
  0.307801199577980E-001  0.475235873611682E+001  0.185202662377216E+001
  0.307801199577980E-001  0.467679970412334E+001  0.185730431548510E+001
  0.307801199577980E-001  0.411340232035551E+001  0.810254698131468E+001
  0.307801199577980E-001  0.456778599898948E+001  0.186496201183063E+001
  0.307801199577980E-001  0.214561092709933E+001  0.611012574947897E+001
  0.307801199577980E-001  0.135030862550705E+001  0.781524708738229E+001
  0.307801199577980E-001  0.126153777204750E+001  0.619351101871642E+001
  0.307801199577980E-001  0.110327472193607E+001  0.779063416882523E+001
  0.307801199577980E-001  0.100250489785075E+001  0.621962879534139E+001
  0.307801199577980E-001  0.945156259591803E+000  0.777446977664650E+001
  0.307801199577980E-001  0.840958526466775E+000  0.623636933165379E+001
  0.307801199577980E-001  0.724069008399564E+000  0.624871478468685E+001
  0.307801199577980E-001  0.716220368777749E+000  0.624955100612458E+001
  0.307801199577980E-001  0.619518833671263E+000  0.625993145804487E+001
  0.307801199577980E-001  0.578634382482480E+000  0.773563573499483E+001
  0.307801199577980E-001  0.488900737354523E+000  0.627418834992754E+001
  0.307801199577980E-001  0.444940634412592E+000  0.627904997752257E+001
  0.307801199577980E-001  0.294070855373382E+000  0.629599022005094E+001
  0.307801199577980E-001  0.288325489802994E+000  0.770335660356086E+001
  0.307801199577980E-001  0.113950570479760E+000  0.768323533623558E+001
  0.307801199577980E-001  0.103817655233568E+000  0.768204784160758E+001
  0.307801199577980E-001 -0.791416217722718E-001  0.633976082067131E+001
  0.307801199577980E-001 -0.150962943203222E+000  0.634852140289057E+001
  0.307801199577980E-001 -0.256248319866045E+000  0.636158109189528E+001
  0.307801199577980E-001 -0.262667248808907E+000  0.636238595248006E+001
  0.307801199577980E-001 -0.333163327213146E+000  0.762870684826084E+001
  0.307801199577980E-001 -0.339036916663595E+000  0.637204098323377E+001
  0.307801199577980E-001 -0.381685054283964E+000  0.637749793195625E+001
  0.307801199577980E-001 -0.384609075006694E+000  0.637787382195963E+001
  0.307801199577980E-001 -0.391205002221096E+000  0.637872257964030E+001
  0.307801199577980E-001 -0.404749797964276E+000  0.761953084324342E+001
  0.307801199577980E-001 -0.436635554664367E+000  0.761539966254288E+001
  0.307801199577980E-001 -0.470174009279389E+000  0.761102421549353E+001
  0.307801199577980E-001 -0.487672818051473E+000  0.760872882510684E+001
  0.307801199577980E-001 -0.525467842421283E+000  0.760374131763263E+001
  0.307801199577980E-001 -0.527826502039112E+000  0.760342869759229E+001
  0.307801199577980E-001 -0.601905128492901E+000  0.640647357864597E+001
  0.307801199577980E-001 -0.714726030114885E+000  0.642188040286996E+001
  0.307801199577980E-001 -0.745478244823013E+000  0.757384833730917E+001
  0.307801199577980E-001 -0.757450277881799E+000  0.642782311393845E+001
  0.307801199577980E-001 -0.795312349904393E+000  0.756685841038083E+001
  0.307801199577980E-001 -0.812070368480597E+000  0.643551158165354E+001
  0.307801199577980E-001 -0.814113224534725E+000  0.643580117203363E+001
  0.307801199577980E-001 -0.819211148555787E+000  0.756347550934824E+001
  0.307801199577980E-001 -0.832008282960350E+000  0.756165568467748E+001
  0.307801199577980E-001 -0.846677186502940E+000  0.644043759636327E+001
  0.307801199577980E-001 -0.852019289951424E+000  0.755879812724450E+001
  0.307801199577980E-001 -0.865847242878776E+000  0.644318506257143E+001
  0.307801199577980E-001 -0.888324404789904E+000  0.644642387277105E+001
  0.307801199577980E-001 -0.897308658160942E+000  0.644772375743797E+001
  0.307801199577980E-001 -0.929559572615562E+000  0.754758460696562E+001
  0.307801199577980E-001 -0.930995252796931E+000  0.754737481943973E+001
  0.307801199577980E-001 -0.942131123192063E+000  0.754574486135323E+001
  0.307801199577980E-001 -0.954778453634653E+000  0.645611225347261E+001
  0.307801199577980E-001 -0.102105480272157E+001  0.646594975426582E+001
  0.307801199577980E-001 -0.105902875784582E+001  0.752833117658231E+001
  0.307801199577980E-001 -0.107182932251360E+001  0.647361065569105E+001
  0.307801199577980E-001 -0.111329027020207E+001  0.647995001185285E+001
  0.307801199577980E-001 -0.112874786175695E+001  0.648233333551109E+001
  0.307801199577980E-001 -0.113430020545653E+001  0.648319210480959E+001
  0.307801199577980E-001 -0.116641135940660E+001  0.751181306733917E+001
  0.307801199577980E-001 -0.116923015655134E+001  0.751137227961239E+001
  0.307801199577980E-001 -0.118704806937138E+001  0.750857717438434E+001
  0.307801199577980E-001 -0.120420500230836E+001  0.750587116248591E+001
  0.307801199577980E-001 -0.122423093381882E+001  0.750269422514405E+001
  0.307801199577980E-001 -0.123167233640679E+001  0.649849141624585E+001
  0.307801199577980E-001 -0.124047555956332E+001  0.649989766659807E+001
  0.307801199577980E-001 -0.124560223715157E+001  0.650071844069710E+001
  0.307801199577980E-001 -0.125568916915770E+001  0.749766270338348E+001
  0.307801199577980E-001 -0.126738251810994E+001  0.650422058281269E+001
  0.307801199577980E-001 -0.131518638934568E+001  0.748800472447393E+001
  0.307801199577980E-001 -0.135513199445973E+001  0.651858820715459E+001
  0.307801199577980E-001 -0.138780726900688E+001  0.652404908828422E+001
  0.307801199577980E-001 -0.139400887452180E+001  0.652509262641995E+001
  0.307801199577980E-001 -0.140088351590649E+001  0.652625210200029E+001
  0.307801199577980E-001 -0.141096713218540E+001  0.652795795499286E+001
  0.307801199577980E-001 -0.141698431104639E+001  0.747102117111311E+001
  0.307801199577980E-001 -0.142847847330939E+001  0.746906489708214E+001
  0.307801199577980E-001 -0.144103856959447E+001  0.653308216754008E+001
  0.307801199577980E-001 -0.144303480891660E+001  0.653342432127518E+001
  0.307801199577980E-001 -0.144814014991449E+001  0.746569948402147E+001
  0.307801199577980E-001 -0.145716756439751E+001  0.746414612257411E+001
  0.307801199577980E-001 -0.148129327540522E+001  0.745996903084811E+001
  0.307801199577980E-001 -0.149153142446121E+001  0.745818490316726E+001
  0.307801199577980E-001 -0.150486965289170E+001  0.654414992712350E+001
  0.307801199577980E-001 -0.150805139643475E+001  0.745529134625493E+001
  0.307801199577980E-001 -0.150890292044102E+001  0.745514169896157E+001
  0.307801199577980E-001 -0.151349359043145E+001  0.654566591704435E+001
  0.307801199577980E-001 -0.151493864886774E+001  0.745407956305624E+001
  0.307801199577980E-001 -0.157086517425387E+001  0.655588289210664E+001
  0.307801199577980E-001 -0.157271288985735E+001  0.744378414913898E+001
  0.307801199577980E-001 -0.158812287379071E+001  0.655900252427290E+001
  0.307801199577980E-001 -0.159018612257481E+001  0.744062302912151E+001
  0.307801199577980E-001 -0.160408751742331E+001  0.743809180615078E+001
  0.307801199577980E-001 -0.166399250973784E+001  0.742701244928706E+001
  0.307801199577980E-001 -0.166849832954402E+001  0.742616745614505E+001
  0.307801199577980E-001 -0.167123195613953E+001  0.742565399143184E+001
  0.307801199577980E-001 -0.169830228978859E+001  0.657946454722817E+001
  0.307801199577980E-001 -0.170119055512229E+001  0.741998564806981E+001
  0.307801199577980E-001 -0.171782556857897E+001  0.741680492131397E+001
  0.307801199577980E-001 -0.171928160335622E+001  0.741652536161342E+001
  0.307801199577980E-001 -0.174428171104575E+001  0.658830428756561E+001
  0.307801199577980E-001 -0.175783900622945E+001  0.740905279904613E+001
  0.307801199577980E-001 -0.176254987012096E+001  0.740813043770935E+001
  0.307801199577980E-001 -0.176701898618831E+001  0.659274652166733E+001
  0.307801199577980E-001 -0.178181485125750E+001  0.740433656426668E+001
  0.307801199577980E-001 -0.179497676764379E+001  0.659827602687769E+001
  0.307801199577980E-001 -0.184740921509634E+001  0.660885685613989E+001
  0.307801199577980E-001 -0.186047355570464E+001  0.661153807845370E+001
  0.307801199577980E-001 -0.187295663385035E+001  0.661411741165462E+001
  0.307801199577980E-001 -0.188843127544562E+001  0.661733901514149E+001
  0.307801199577980E-001 -0.190527779120863E+001  0.737912265404590E+001
  0.307801199577980E-001 -0.191983711013422E+001  0.662396210858118E+001
  0.307801199577980E-001 -0.193104947505328E+001  0.662635509183764E+001
  0.307801199577980E-001 -0.193300180860863E+001  0.737322666574992E+001
  0.307801199577980E-001 -0.194015012691933E+001  0.662830871264302E+001
  0.307801199577980E-001 -0.194138812378072E+001  0.737142473477041E+001
  0.307801199577980E-001 -0.198374385289595E+001  0.736218699167810E+001
  0.307801199577980E-001 -0.198428085544393E+001  0.736206835892295E+001
  0.307801199577980E-001 -0.199384264239835E+001  0.664005054435317E+001
  0.307801199577980E-001 -0.200989591427235E+001  0.664363629937856E+001
  0.307801199577980E-001 -0.201474286262904E+001  0.735527394413823E+001
  0.307801199577980E-001 -0.201728711561136E+001  0.664529942922746E+001
  0.307801199577980E-001 -0.202302496213962E+001  0.735340407391801E+001
  0.307801199577980E-001 -0.202424371202098E+001  0.664687192198747E+001
  0.307801199577980E-001 -0.202485329004220E+001  0.664701004688882E+001
  0.307801199577980E-001 -0.203336184877438E+001  0.735105631684999E+001
  0.307801199577980E-001 -0.207250395835919E+001  0.665797982505894E+001
  0.307801199577980E-001 -0.207603372697892E+001  0.665880645216013E+001
  0.307801199577980E-001 -0.207827434279665E+001  0.734066778326798E+001
  0.307801199577980E-001 -0.208301040151252E+001  0.733955377948446E+001
  0.307801199577980E-001 -0.208934168855840E+001  0.666194118376407E+001
  0.307801199577980E-001 -0.208981188155982E+001  0.666205247100384E+001
  0.307801199577980E-001 -0.210037401151158E+001  0.666456208985517E+001
  0.307801199577980E-001 -0.211336465051481E+001  0.733232527638116E+001
  0.307801199577980E-001 -0.211942562066991E+001  0.666913698590353E+001
  0.307801199577980E-001 -0.213869652300395E+001  0.667382981478444E+001
  0.307801199577980E-001 -0.214230083698480E+001  0.667471504878551E+001
  0.307801199577980E-001 -0.214306611271380E+001  0.667490331381268E+001
  0.307801199577980E-001 -0.214447030744793E+001  0.667524904278430E+001
  0.307801199577980E-001 -0.216348519156706E+001  0.732003250265161E+001
  0.307801199577980E-001 -0.219563472696012E+001  0.668810758731485E+001
  0.307801199577980E-001 -0.221357454620639E+001  0.730725641736367E+001
  0.307801199577980E-001 -0.224361804621147E+001  0.729933183260447E+001
  0.307801199577980E-001 -0.224600719842262E+001  0.729869262069319E+001
  0.307801199577980E-001 -0.225340416709269E+001  0.729670484773484E+001
  0.307801199577980E-001 -0.226359283629597E+001  0.670605514191123E+001
  0.307801199577980E-001 -0.226377395593619E+001  0.670610443954630E+001
  0.307801199577980E-001 -0.226873272908159E+001  0.670745735908909E+001
  0.307801199577980E-001 -0.228188290962184E+001  0.671107584409626E+001
  0.307801199577980E-001 -0.228755505682389E+001  0.671265069286257E+001
  0.307801199577980E-001 -0.229039728089778E+001  0.728655692010583E+001
  0.307801199577980E-001 -0.230060610789158E+001  0.728369253804344E+001
  0.307801199577980E-001 -0.230944508603743E+001  0.728118893939520E+001
  0.307801199577980E-001 -0.232215184104681E+001  0.727755024560734E+001
  0.307801199577980E-001 -0.232579982456429E+001  0.672350323424333E+001
  0.307801199577980E-001 -0.232590094312742E+001  0.727646750713926E+001
  0.307801199577980E-001 -0.232619519786355E+001  0.672361765297687E+001
  0.307801199577980E-001 -0.232786604137714E+001  0.727589829065045E+001
  0.307801199577980E-001 -0.233194693487308E+001  0.727471243842333E+001
  0.307801199577980E-001 -0.233693209790014E+001  0.672674316524529E+001
  0.307801199577980E-001 -0.233937708055914E+001  0.672745991026141E+001
  0.307801199577980E-001 -0.234074032646269E+001  0.727213963542666E+001
  0.307801199577980E-001 -0.234320554282942E+001  0.727141397633776E+001
  0.307801199577980E-001 -0.234620714895358E+001  0.672947220185051E+001
  0.307801199577980E-001 -0.237359533303477E+001  0.726230360294632E+001
  0.307801199577980E-001 -0.237982272488771E+001  0.726039738366994E+001
  0.307801199577980E-001 -0.238522522323360E+001  0.725873228960995E+001
  0.307801199577980E-001 -0.238818600048714E+001  0.674218480780559E+001
  0.307801199577980E-001 -0.239749743969094E+001  0.725490948011723E+001
  0.307801199577980E-001 -0.239763892949528E+001  0.725486507152794E+001
  0.307801199577980E-001 -0.240083379436598E+001  0.674613975044204E+001
  0.307801199577980E-001 -0.241008997201633E+001  0.674907364052063E+001
  0.307801199577980E-001 -0.241196728778448E+001  0.674967287929857E+001
  0.307801199577980E-001 -0.241472016082035E+001  0.675055419892705E+001
  0.307801199577980E-001 -0.241703237094758E+001  0.724870314443644E+001
  0.307801199577980E-001 -0.241717268918572E+001  0.724865800436437E+001
  0.307801199577980E-001 -0.244840002974589E+001  0.723839972450664E+001
  0.307801199577980E-001 -0.244889640228722E+001  0.676176690188341E+001
  0.307801199577980E-001 -0.245417873138553E+001  0.676354739083170E+001
  0.307801199577980E-001 -0.245776358294230E+001  0.676476339542194E+001
  0.307801199577980E-001 -0.246013122541397E+001  0.676556997347194E+001
  0.307801199577980E-001 -0.246481864629050E+001  0.676717506577322E+001
  0.307801199577980E-001 -0.246636499504727E+001  0.676770700786158E+001
  0.307801199577980E-001 -0.246833784438679E+001  0.676838743923894E+001
  0.307801199577980E-001 -0.247851165271938E+001  0.722807141199432E+001
  0.307801199577980E-001 -0.247982770599364E+001  0.677239068462560E+001
  0.307801199577980E-001 -0.248227097142686E+001  0.722674893158709E+001
  0.307801199577980E-001 -0.248400802382719E+001  0.722613524623958E+001
  0.307801199577980E-001 -0.248465825544947E+001  0.722590509629548E+001
  0.307801199577980E-001 -0.248537684724556E+001  0.722565047716523E+001
  0.307801199577980E-001 -0.248691683091179E+001  0.677489615627827E+001
  0.307801199577980E-001 -0.250720775845924E+001  0.721777325834617E+001
  0.307801199577980E-001 -0.251034544724115E+001  0.721661754740925E+001
  0.307801199577980E-001 -0.251749451952099E+001  0.721396100177562E+001
  0.307801199577980E-001 -0.251896213280877E+001  0.721341155581360E+001
  0.307801199577980E-001 -0.252348080628958E+001  0.721171089815560E+001
  0.307801199577980E-001 -0.253253165474096E+001  0.679173726054421E+001
  0.307801199577980E-001 -0.253379550527803E+001  0.679222331083661E+001
  0.307801199577980E-001 -0.253581493961511E+001  0.679300231144825E+001
  0.307801199577980E-001 -0.254708437088316E+001  0.679740450631152E+001
  0.307801199577980E-001 -0.255035133662107E+001  0.679869868469180E+001
  0.307801199577980E-001 -0.255128215135435E+001  0.679906894419357E+001
  0.307801199577980E-001 -0.255479955806418E+001  0.719952569787853E+001
  0.307801199577980E-001 -0.255641483586791E+001  0.719887699632013E+001
  0.307801199577980E-001 -0.255795519361181E+001  0.719825640576358E+001
  0.307801199577980E-001 -0.256469706122406E+001  0.680448298383943E+001
  0.307801199577980E-001 -0.257011145407174E+001  0.719328890488775E+001
  0.307801199577980E-001 -0.258254202141497E+001  0.718807368231039E+001
  0.307801199577980E-001 -0.259092526581333E+001  0.681552672043341E+001
  0.307801199577980E-001 -0.259229097063868E+001  0.718388006444962E+001
  0.307801199577980E-001 -0.259590530750671E+001  0.718230080691843E+001
  0.307801199577980E-001 -0.259773131937725E+001  0.681850228016908E+001
  0.307801199577980E-001 -0.260778206324019E+001  0.717701215575704E+001
  0.307801199577980E-001 -0.260805021020801E+001  0.682310907380280E+001
  0.307801199577980E-001 -0.261329056386687E+001  0.682549514853310E+001
  0.307801199577980E-001 -0.262510757323876E+001  0.683099934412558E+001
  0.307801199577980E-001 -0.262714936279659E+001  0.683196864769713E+001
  0.307801199577980E-001 -0.263096471253178E+001  0.716620493193374E+001
  0.307801199577980E-001 -0.263297236148713E+001  0.716523575752919E+001
  0.307801199577980E-001 -0.263518863292094E+001  0.683584077200220E+001
  0.307801199577980E-001 -0.263903700063013E+001  0.716227295924880E+001
  0.307801199577980E-001 -0.264292107081217E+001  0.683965330663142E+001
  0.307801199577980E-001 -0.266072992712439E+001  0.684879932187890E+001
  0.307801199577980E-001 -0.266137156882121E+001  0.715086080469357E+001
  0.307801199577980E-001 -0.266308352845863E+001  0.714995022124293E+001
  0.307801199577980E-001 -0.266888942380755E+001  0.685317995506411E+001
  0.307801199577980E-001 -0.267065904830253E+001  0.714585261628020E+001
  0.307801199577980E-001 -0.267313855902254E+001  0.714448620681774E+001
  0.307801199577980E-001 -0.268075290008274E+001  0.714020688068332E+001
  0.307801199577980E-001 -0.268830966577217E+001  0.713582667956126E+001
  0.307801199577980E-001 -0.268979798487082E+001  0.686505276651649E+001
  0.307801199577980E-001 -0.269314127850880E+001  0.713295047515062E+001
  0.307801199577980E-001 -0.269382906569772E+001  0.686746403170253E+001
  0.307801199577980E-001 -0.270007779448099E+001  0.712870892077562E+001
  0.307801199577980E-001 -0.270085457764655E+001  0.687177480364321E+001
  0.307801199577980E-001 -0.270238566402184E+001  0.687273363696291E+001
  0.307801199577980E-001 -0.270514383239633E+001  0.687447940320102E+001
  0.307801199577980E-001 -0.270580223299422E+001  0.687489973571128E+001
  0.307801199577980E-001 -0.270837048495294E+001  0.712344697570906E+001
  0.307801199577980E-001 -0.270993649994612E+001  0.687757208891431E+001
  0.307801199577980E-001 -0.272087604860399E+001  0.688494233781470E+001
  0.307801199577980E-001 -0.272673982457489E+001  0.688909435779816E+001
  0.307801199577980E-001 -0.273157950815545E+001  0.689264213070616E+001
  0.307801199577980E-001 -0.273350370481804E+001  0.710591430797252E+001
  0.307801199577980E-001 -0.273550189855216E+001  0.710439410728503E+001
  0.307801199577980E-001 -0.273583563656832E+001  0.689586195914436E+001
  0.307801199577980E-001 -0.273700105277752E+001  0.689676112670229E+001
  0.307801199577980E-001 -0.273782940632357E+001  0.689740502745060E+001
  0.307801199577980E-001 -0.273798290880341E+001  0.689752479326374E+001
  0.307801199577980E-001 -0.274385196850087E+001  0.709778608512485E+001
  0.307801199577980E-001 -0.274569194562648E+001  0.690373099094752E+001
  0.307801199577980E-001 -0.274574954199668E+001  0.690377886570656E+001
  0.307801199577980E-001 -0.274660912345834E+001  0.690449621132725E+001
  0.307801199577980E-001 -0.274781254677709E+001  0.690550965171062E+001
  0.307801199577980E-001 -0.274787828634831E+001  0.709443467365568E+001
  0.307801199577980E-001 -0.275227052043997E+001  0.690936253460192E+001
  0.307801199577980E-001 -0.275336132118904E+001  0.708966951552193E+001
  0.307801199577980E-001 -0.275777341759455E+001  0.708564278480442E+001
  0.307801199577980E-001 -0.276019672795216E+001  0.708334840689442E+001
  0.307801199577980E-001 -0.276186859662199E+001  0.691827204918349E+001
  0.307801199577980E-001 -0.276207710453789E+001  0.691847640416345E+001
  0.307801199577980E-001 -0.276277836143054E+001  0.708083251558190E+001
  0.307801199577980E-001 -0.276793145832378E+001  0.707556057220786E+001
  0.307801199577980E-001 -0.277013265509740E+001  0.707319295450109E+001
  0.307801199577980E-001 -0.277054172043472E+001  0.692725552849440E+001
  0.307801199577980E-001 -0.277078793197259E+001  0.707247319703566E+001
  0.307801199577980E-001 -0.277097293190492E+001  0.692773130484506E+001
  0.307801199577980E-001 -0.277552781364546E+001  0.693296282209914E+001
  0.307801199577980E-001 -0.277700153384609E+001  0.706525479284167E+001
  0.307801199577980E-001 -0.277713796527045E+001  0.706508731797295E+001
  0.307801199577980E-001 -0.277822305493497E+001  0.706373966280573E+001
  0.307801199577980E-001 -0.277977353333480E+001  0.693823700079646E+001
  0.307801199577980E-001 -0.277979503879723E+001  0.706173513745532E+001
  0.307801199577980E-001 -0.278321375006881E+001  0.694286653000933E+001
  0.307801199577980E-001 -0.278397542749635E+001  0.705605680159238E+001
  0.307801199577980E-001 -0.278477784748420E+001  0.705489970679987E+001
  0.307801199577980E-001 -0.278498440753899E+001  0.694540212277070E+001
  0.307801199577980E-001 -0.278567715802816E+001  0.694642679662669E+001
  0.307801199577980E-001 -0.278699832840414E+001  0.705156259166801E+001
  0.307801199577980E-001 -0.278826938927307E+001  0.704955129786891E+001
  0.307801199577980E-001 -0.278829376925784E+001  0.704951192101838E+001
  0.307801199577980E-001 -0.278966974586535E+001  0.695276363619278E+001
  0.307801199577980E-001 -0.278998224015226E+001  0.695329587834225E+001
  0.307801199577980E-001  0.790505997989617E-002  0.702043313903975E+001
