  0.371973438413504E-001  0.189742474951661E+001  0.791063745756501E+001
  0.371973438413504E-001  0.237225078817648E+001  0.395143719987573E+001
  0.371973438413504E-001  0.244379645450876E+001  0.795743409795098E+001
  0.371973438413504E-001  0.248215117231767E+001  0.396063354447484E+001
  0.371973438413504E-001  0.293068695972148E+001  0.200271241221339E+001
  0.371973438413504E-001  0.243419590783645E+001  0.389752443370430E+001
  0.371973438413504E-001  0.140980624066190E+001  0.219897081055186E+001
  0.371973438413504E-001  0.131306249009486E+001  0.220869174005498E+001
  0.371973438413504E-001  0.992135545701593E+000  0.375816914415868E+001
  0.371973438413504E-001  0.311261744549210E+000  0.368255449816840E+001
  0.371973438413504E-001  0.197515589516295E+000  0.366908987301009E+001
  0.371973438413504E-001  0.100766139212722E-001  0.235370980042287E+001
  0.371973438413504E-001 -0.630073078144724E-001  0.363717940534180E+001
  0.371973438413504E-001 -0.362789704551214E+000  0.240164190394560E+001
  0.371973438413504E-001 -0.410607224065512E+000  0.240806959193537E+001
  0.371973438413504E-001 -0.444127619700749E+000  0.241261737794694E+001
  0.371973438413504E-001 -0.530900315396356E+000  0.357544305832865E+001
  0.371973438413504E-001 -0.782117127902569E+000  0.353938856437417E+001
  0.371973438413504E-001 -0.927877047592488E+000  0.248268149440867E+001
  0.371973438413504E-001 -0.928225616427246E+000  0.248273540115944E+001
  0.371973438413504E-001 -0.936559999784691E+000  0.351597399534908E+001
  0.371973438413504E-001 -0.955978882472240E+000  0.248704567196827E+001
  0.371973438413504E-001 -0.106253896995635E+001  0.349605698125218E+001
  0.371973438413504E-001 -0.116294345458869E+001  0.252040870409498E+001
  0.371973438413504E-001 -0.117807582146666E+001  0.347706040750347E+001
  0.371973438413504E-001 -0.118501497962616E+001  0.252410466791336E+001
  0.371973438413504E-001 -0.142183468353312E+001  0.343426399168794E+001
  0.371973438413504E-001 -0.162618106773045E+001  0.260517118518886E+001
  0.371973438413504E-001 -0.163255738989691E+001  0.339353472713160E+001
  0.371973438413504E-001 -0.164124933302979E+001  0.339176379434205E+001
  0.371973438413504E-001 -0.165758691408546E+001  0.338841325619547E+001
  0.371973438413504E-001 -0.166385074873141E+001  0.261287903176782E+001
  0.371973438413504E-001 -0.166945058987352E+001  0.261403799479446E+001
  0.371973438413504E-001 -0.166954399042764E+001  0.261405735481341E+001
  0.371973438413504E-001 -0.170069623039751E+001  0.262056968099736E+001
  0.371973438413504E-001 -0.171129261331846E+001  0.262281046447298E+001
  0.371973438413504E-001 -0.173165544400615E+001  0.337284566887797E+001
  0.371973438413504E-001 -0.178724277996028E+001  0.263927861298725E+001
  0.371973438413504E-001 -0.178940052086788E+001  0.336024253011434E+001
  0.371973438413504E-001 -0.179693946307100E+001  0.264143557099081E+001
  0.371973438413504E-001 -0.186488380256386E+001  0.334307048172617E+001
  0.371973438413504E-001 -0.187874258430008E+001  0.333982341054441E+001
  0.371973438413504E-001 -0.188527507901091E+001  0.266171794135618E+001
  0.371973438413504E-001 -0.195125355173849E+001  0.332230140484318E+001
  0.371973438413504E-001 -0.203468770963891E+001  0.330087992671466E+001
  0.371973438413504E-001 -0.204608025704250E+001  0.329783539533649E+001
  0.371973438413504E-001 -0.214837704734489E+001  0.273104194329438E+001
  0.371973438413504E-001 -0.216588219991624E+001  0.326369985183053E+001
  0.371973438413504E-001 -0.221441049681874E+001  0.324854191668820E+001
  0.371973438413504E-001 -0.221667961125539E+001  0.324781046394610E+001
  0.371973438413504E-001 -0.223598555641428E+001  0.324149756689408E+001
  0.371973438413504E-001 -0.228575825988365E+001  0.277559536042974E+001
  0.371973438413504E-001 -0.228578150003629E+001  0.277560364567079E+001
  0.371973438413504E-001 -0.237082811399692E+001  0.319169315481398E+001
  0.371973438413504E-001 -0.238617756075119E+001  0.318517654852020E+001
  0.371973438413504E-001 -0.240716671584118E+001  0.282412479052619E+001
  0.371973438413504E-001 -0.241952021777369E+001  0.282983675779342E+001
  0.371973438413504E-001 -0.242483435277521E+001  0.316764625673725E+001
  0.371973438413504E-001 -0.243226526603065E+001  0.316406194341510E+001
  0.371973438413504E-001 -0.247110869109830E+001  0.314387971805059E+001
  0.371973438413504E-001 -0.247293165588617E+001  0.285713748252163E+001
  0.371973438413504E-001 -0.247739023804250E+001  0.314034359891083E+001
  0.371973438413504E-001 -0.251874111436086E+001  0.288563136118539E+001
  0.371973438413504E-001 -0.212786926756570E+001  0.289634063605142E+001
  0.371973438413504E-001 -0.214822713814749E+001  0.291346674372740E+001
  0.371973438413504E-001 -0.215193300414962E+001  0.291696346658970E+001
  0.371973438413504E-001 -0.215224885838453E+001  0.291726833010743E+001
  0.371973438413504E-001 -0.215746184735938E+001  0.292247290172310E+001
  0.371973438413504E-001 -0.217194265272896E+001  0.293922564596720E+001
  0.371973438413504E-001 -0.217794620182123E+001  0.294772233504315E+001
  0.371973438413504E-001 -0.218120994901518E+001  0.295298133665969E+001
  0.371973438413504E-001 -0.218291458303912E+001  0.295597712800737E+001
  0.371973438413504E-001 -0.218872933150249E+001  0.303174355847002E+001
  0.371973438413504E-001 -0.218905202514135E+001  0.296908038612593E+001
  0.371973438413504E-001 -0.218935389690552E+001  0.303012844237352E+001
  0.371973438413504E-001 -0.219125656557011E+001  0.297543791430841E+001
  0.371973438413504E-001 -0.219306136939517E+001  0.301773492152538E+001
  0.371973438413504E-001 -0.219352502246422E+001  0.301550299811208E+001
  0.371973438413504E-001 -0.219372479607455E+001  0.301443534456843E+001
  0.371973438413504E-001 -0.219403685281138E+001  0.298741230382804E+001
  0.371973438413504E-001 -0.219420883716136E+001  0.301144257833362E+001
  0.371973438413504E-001 -0.219484285082824E+001  0.299456949245281E+001
  0.371973438413504E-001 -0.186239089413784E+001  0.300306931672147E+001
  0.371973438413504E-001 -0.186242941576986E+001  0.300180478364726E+001
