  0.101535505415781E-001  0.568559119251808E+000  0.791034523784165E+001
  0.101535505415781E-001  0.834327357289186E+001  0.556031842804646E+001
  0.101535505415781E-001  0.689438627550902E+000  0.392090671264219E+001
  0.101535505415781E-001  0.675532816285203E+001  0.834855904543962E+001
  0.101535505415781E-001  0.573696547601083E+001  0.171327024238094E+001
  0.101535505415781E-001  0.796582151005820E+000  0.606983219947023E+001
  0.101535505415781E-001  0.103444359833630E+001  0.204959483970546E+001
  0.101535505415781E-001  0.108386182788058E+001  0.204544414231456E+001
  0.101535505415781E-001  0.128464808155547E+001  0.602876229169594E+001
  0.101535505415781E-001  0.159203540600546E+001  0.799623524227040E+001
  0.101535505415781E-001  0.169186255057425E+001  0.800421959803250E+001
  0.101535505415781E-001  0.172612842370390E+001  0.800694564936411E+001
  0.101535505415781E-001  0.352830204652795E+001  0.814117804063396E+001
  0.101535505415781E-001  0.189577563954628E+001  0.802033479569604E+001
  0.101535505415781E-001  0.241486980654072E+001  0.806025381962396E+001
  0.101535505415781E-001  0.915318566161888E+000  0.212178353010150E+001
  0.101535505415781E-001  0.246789151735420E+000  0.218495431926011E+001
  0.101535505415781E-001  0.641749204932016E-001  0.220308018929506E+001
  0.101535505415781E-001  0.249931117829583E-001  0.379297673061722E+001
  0.101535505415781E-001 -0.204208811707343E-001  0.221161820389626E+001
  0.101535505415781E-001 -0.184521826627756E+000  0.377155019613415E+001
  0.101535505415781E-001 -0.221416224713355E+000  0.223228481748702E+001
  0.101535505415781E-001 -0.281951090855355E+000  0.376138099718750E+001
  0.101535505415781E-001 -0.293715550418812E+000  0.376014387411074E+001
  0.101535505415781E-001 -0.442911692682402E+000  0.225572362217662E+001
  0.101535505415781E-001 -0.459224773954074E+000  0.225747913592787E+001
  0.101535505415781E-001 -0.490091111868084E+000  0.226081218928057E+001
  0.101535505415781E-001 -0.764455528350628E+000  0.370887256462567E+001
  0.101535505415781E-001 -0.785452164296249E+000  0.229350099000234E+001
  0.101535505415781E-001 -0.832801764848071E+000  0.229888309459878E+001
  0.101535505415781E-001 -0.839619430154403E+000  0.229966144716261E+001
  0.101535505415781E-001 -0.916633250766325E+000  0.369148526903504E+001
  0.101535505415781E-001 -0.930235968971084E+000  0.368990973495067E+001
  0.101535505415781E-001 -0.942338805071858E+000  0.368850489366713E+001
  0.101535505415781E-001 -0.978088434233628E+000  0.368433840162430E+001
  0.101535505415781E-001 -0.989746437328320E+000  0.368297420701118E+001
  0.101535505415781E-001 -0.994759864572817E+000  0.231761329212577E+001
  0.101535505415781E-001 -0.109234425892339E+001  0.232915119737206E+001
  0.101535505415781E-001 -0.111316341012268E+001  0.366836146791646E+001
  0.101535505415781E-001 -0.114011792827087E+001  0.366512730277124E+001
  0.101535505415781E-001 -0.118438021168226E+001  0.234021794238861E+001
  0.101535505415781E-001 -0.120078906278465E+001  0.365778943999545E+001
  0.101535505415781E-001 -0.123336822693218E+001  0.234618482649458E+001
  0.101535505415781E-001 -0.129030034689872E+001  0.235318848038143E+001
  0.101535505415781E-001 -0.131587948200691E+001  0.364364002384405E+001
  0.101535505415781E-001 -0.136111249230829E+001  0.363799310234967E+001
  0.101535505415781E-001 -0.138006645255051E+001  0.236438803896796E+001
  0.101535505415781E-001 -0.150694528669841E+001  0.361943680189615E+001
  0.101535505415781E-001 -0.156196889486852E+001  0.238771071033692E+001
  0.101535505415781E-001 -0.156541685249628E+001  0.361183862334416E+001
  0.101535505415781E-001 -0.157516101732239E+001  0.361056321101381E+001
  0.101535505415781E-001 -0.163276374618476E+001  0.360296848841835E+001
  0.101535505415781E-001 -0.164658338181255E+001  0.239886785452359E+001
  0.101535505415781E-001 -0.167817564963852E+001  0.240308703023563E+001
  0.101535505415781E-001 -0.171562231518970E+001  0.359187298213783E+001
  0.101535505415781E-001 -0.172644808966112E+001  0.359040791243792E+001
  0.101535505415781E-001 -0.172701834840132E+001  0.240966936241555E+001
  0.101535505415781E-001 -0.183481597383288E+001  0.242446317094228E+001
  0.101535505415781E-001 -0.184136969638433E+001  0.357462513519127E+001
  0.101535505415781E-001 -0.186306659616768E+001  0.357159648531831E+001
  0.101535505415781E-001 -0.197035568164025E+001  0.244362217122477E+001
  0.101535505415781E-001 -0.200670812019044E+001  0.244887397250301E+001
  0.101535505415781E-001 -0.202143126092893E+001  0.354898469529346E+001
  0.101535505415781E-001 -0.211063864199093E+001  0.246417258870367E+001
  0.101535505415781E-001 -0.211244580879535E+001  0.353555753006360E+001
  0.101535505415781E-001 -0.214724863933164E+001  0.246966669431195E+001
  0.101535505415781E-001 -0.215020158438856E+001  0.247011232896688E+001
  0.101535505415781E-001 -0.218218470062640E+001  0.247496319622825E+001
  0.101535505415781E-001 -0.222525457657955E+001  0.248156729929300E+001
  0.101535505415781E-001 -0.229823730272952E+001  0.249295441134119E+001
  0.101535505415781E-001 -0.229844514442586E+001  0.350701279501305E+001
  0.101535505415781E-001 -0.231061153867012E+001  0.350508944873939E+001
  0.101535505415781E-001 -0.233968008600524E+001  0.350046416820212E+001
  0.101535505415781E-001 -0.236729754581421E+001  0.349602982781765E+001
  0.101535505415781E-001 -0.243013660766156E+001  0.251421060099131E+001
  0.101535505415781E-001 -0.245159913101383E+001  0.348224198951653E+001
  0.101535505415781E-001 -0.245813040694226E+001  0.348115728437208E+001
  0.101535505415781E-001 -0.246160488332610E+001  0.251942074942534E+001
  0.101535505415781E-001 -0.248831257299975E+001  0.347611257674537E+001
  0.101535505415781E-001 -0.250565234956111E+001  0.347319004795674E+001
  0.101535505415781E-001 -0.251747185973190E+001  0.252881245787057E+001
  0.101535505415781E-001 -0.252621618233374E+001  0.253029944832726E+001
  0.101535505415781E-001 -0.253087584480859E+001  0.253109375964304E+001
  0.101535505415781E-001 -0.255308942701766E+001  0.346510094505629E+001
  0.101535505415781E-001 -0.257113824238226E+001  0.346198601562592E+001
  0.101535505415781E-001 -0.258818710665061E+001  0.345902424810785E+001
  0.101535505415781E-001 -0.261702645879326E+001  0.345397022370212E+001
  0.101535505415781E-001 -0.264125657973597E+001  0.255031995301401E+001
  0.101535505415781E-001 -0.266519057829155E+001  0.344540173426742E+001
  0.101535505415781E-001 -0.266872974048788E+001  0.344476559999287E+001
  0.101535505415781E-001 -0.268185392351739E+001  0.255760134533173E+001
  0.101535505415781E-001 -0.270903501573622E+001  0.343745582050909E+001
  0.101535505415781E-001 -0.271981909724850E+001  0.256452079055905E+001
  0.101535505415781E-001 -0.272733496608916E+001  0.343409630595159E+001
  0.101535505415781E-001 -0.273446107516206E+001  0.256721896369047E+001
  0.101535505415781E-001 -0.274766934564699E+001  0.256966745171721E+001
  0.101535505415781E-001 -0.275781201244193E+001  0.257155715034048E+001
  0.101535505415781E-001 -0.277868076229037E+001  0.257547170241712E+001
  0.101535505415781E-001 -0.278561423750438E+001  0.342321970584364E+001
  0.101535505415781E-001 -0.279170256522073E+001  0.257793272221154E+001
  0.101535505415781E-001 -0.282261443849776E+001  0.341616689831777E+001
  0.101535505415781E-001 -0.283578181140168E+001  0.341362798211776E+001
  0.101535505415781E-001 -0.286237892183935E+001  0.259154857091598E+001
  0.101535505415781E-001 -0.289477300473238E+001  0.340205660877281E+001
  0.101535505415781E-001 -0.290696615650786E+001  0.339962308788885E+001
  0.101535505415781E-001 -0.292225907074155E+001  0.339654980279459E+001
  0.101535505415781E-001 -0.293315084988449E+001  0.260565362758920E+001
  0.101535505415781E-001 -0.294076897512751E+001  0.260720213672338E+001
  0.101535505415781E-001 -0.294529215624665E+001  0.339187555730820E+001
  0.101535505415781E-001 -0.295610920087817E+001  0.261033896105131E+001
  0.101535505415781E-001 -0.298537563623193E+001  0.338360539049649E+001
  0.101535505415781E-001 -0.300248709817699E+001  0.338002008066253E+001
  0.101535505415781E-001 -0.300272110017826E+001  0.262002918350674E+001
  0.101535505415781E-001 -0.300895158623536E+001  0.337865676227610E+001
  0.101535505415781E-001 -0.302564376481668E+001  0.337511357619314E+001
  0.101535505415781E-001 -0.302658808469720E+001  0.262508787181057E+001
  0.101535505415781E-001 -0.302964818406562E+001  0.262574141564344E+001
  0.101535505415781E-001 -0.302965163060524E+001  0.337425784763748E+001
  0.101535505415781E-001 -0.304273569567499E+001  0.262854948363600E+001
  0.101535505415781E-001 -0.305010378289178E+001  0.263013976673290E+001
  0.101535505415781E-001 -0.306516399865810E+001  0.263341173282580E+001
  0.101535505415781E-001 -0.307851595590341E+001  0.263633718299704E+001
  0.101535505415781E-001 -0.308654393036986E+001  0.263810751796162E+001
  0.101535505415781E-001 -0.309526375508085E+001  0.264004028475100E+001
  0.101535505415781E-001 -0.313028081981387E+001  0.335209127544553E+001
  0.101535505415781E-001 -0.315053361225199E+001  0.265254090966740E+001
  0.101535505415781E-001 -0.315445440809168E+001  0.265344482095861E+001
  0.101535505415781E-001 -0.316498966567822E+001  0.265588541020968E+001
  0.101535505415781E-001 -0.318266907697769E+001  0.333997962453454E+001
  0.101535505415781E-001 -0.318287922150795E+001  0.333993017220277E+001
  0.101535505415781E-001 -0.318590076216112E+001  0.266078166990963E+001
  0.101535505415781E-001 -0.318700295795555E+001  0.266104170737067E+001
  0.101535505415781E-001 -0.262411212668042E+001  0.324732970240033E+001
  0.101535505415781E-001 -0.262976928284050E+001  0.324549304817820E+001
  0.101535505415781E-001 -0.263764459365438E+001  0.324291312639214E+001
  0.101535505415781E-001 -0.264591706870212E+001  0.324017325197857E+001
  0.101535505415781E-001 -0.264711066226737E+001  0.323977534484497E+001
  0.101535505415781E-001 -0.265270191223163E+001  0.323790253466754E+001
  0.101535505415781E-001 -0.265576165783147E+001  0.323687139275410E+001
  0.101535505415781E-001 -0.265803771000233E+001  0.323610143658591E+001
  0.101535505415781E-001 -0.265972467798346E+001  0.323552913509999E+001
  0.101535505415781E-001 -0.270968399070021E+001  0.321790016853199E+001
  0.101535505415781E-001 -0.271028525753132E+001  0.321767930713160E+001
  0.101535505415781E-001 -0.271436312161905E+001  0.321617544379336E+001
  0.101535505415781E-001 -0.271637837223088E+001  0.321542836953698E+001
  0.101535505415781E-001 -0.273845551453346E+001  0.320706771750553E+001
  0.101535505415781E-001 -0.275284031202004E+001  0.320143354247765E+001
  0.101535505415781E-001 -0.275987216909231E+001  0.319862118442788E+001
  0.101535505415781E-001 -0.276257204783034E+001  0.319753074268440E+001
  0.101535505415781E-001 -0.277303883238852E+001  0.319324520375973E+001
  0.101535505415781E-001 -0.279300598213852E+001  0.318479438523976E+001
  0.101535505415781E-001 -0.279316768706275E+001  0.318472436771651E+001
  0.101535505415781E-001 -0.279903488709259E+001  0.318216569387096E+001
  0.101535505415781E-001 -0.280320728659515E+001  0.318032403085302E+001
  0.101535505415781E-001 -0.280500975983042E+001  0.317952259018139E+001
  0.101535505415781E-001 -0.280966053940104E+001  0.317743797692190E+001
  0.101535505415781E-001 -0.282542803494389E+001  0.317018059926819E+001
  0.101535505415781E-001 -0.283417771915396E+001  0.316601652596555E+001
  0.101535505415781E-001 -0.283947775296459E+001  0.316344259384863E+001
  0.101535505415781E-001 -0.284326239894373E+001  0.316157951023353E+001
  0.101535505415781E-001 -0.285381777841177E+001  0.315626604689574E+001
  0.101535505415781E-001 -0.286702823020663E+001  0.314934994183207E+001
  0.101535505415781E-001 -0.286951427070080E+001  0.314801229221310E+001
  0.101535505415781E-001 -0.288822259575327E+001  0.313752929374420E+001
  0.101535505415781E-001 -0.289022969929856E+001  0.313635677493449E+001
  0.101535505415781E-001 -0.289678581494374E+001  0.313245448866424E+001
  0.101535505415781E-001 -0.290643621935364E+001  0.312649160787072E+001
  0.101535505415781E-001 -0.291740713221151E+001  0.311935150105659E+001
  0.101535505415781E-001 -0.291895984425708E+001  0.311830615739331E+001
  0.101535505415781E-001 -0.292544804106922E+001  0.311383424523063E+001
  0.101535505415781E-001 -0.293039168719632E+001  0.311030526735787E+001
  0.101535505415781E-001 -0.293101117339706E+001  0.310985506003264E+001
  0.101535505415781E-001 -0.294264020376420E+001  0.310103212041737E+001
  0.101535505415781E-001 -0.295593379874029E+001  0.308989168014815E+001
  0.101535505415781E-001 -0.296167774345160E+001  0.308462554582423E+001
  0.101535505415781E-001 -0.296903945871487E+001  0.307735378829718E+001
  0.101535505415781E-001 -0.297495057700711E+001  0.307097766998969E+001
  0.101535505415781E-001 -0.297778139903759E+001  0.306771187571090E+001
  0.101535505415781E-001 -0.298080461034505E+001  0.306404048956009E+001
  0.101535505415781E-001 -0.298271414073755E+001  0.306160892338205E+001
  0.101535505415781E-001 -0.298381907564782E+001  0.306015704326720E+001
  0.101535505415781E-001 -0.298550062675547E+001  0.305787764402106E+001
  0.101535505415781E-001 -0.298581274245391E+001  0.305744460954414E+001
  0.101535505415781E-001 -0.298685229748873E+001  0.305597815967059E+001
  0.101535505415781E-001 -0.298764328255698E+001  0.305483608984225E+001
  0.101535505415781E-001 -0.299509369493605E+001  0.304260200427838E+001
  0.101535505415781E-001 -0.299605353486188E+001  0.304075973969990E+001
  0.101535505415781E-001 -0.299861617541300E+001  0.296462580188578E+001
  0.101535505415781E-001 -0.299897659113384E+001  0.296545050829768E+001
  0.101535505415781E-001 -0.299947821037650E+001  0.296663222665409E+001
  0.101535505415781E-001 -0.299949521461201E+001  0.296667301963301E+001
  0.101535505415781E-001 -0.300096129288789E+001  0.302959924148084E+001
  0.101535505415781E-001 -0.300111862458715E+001  0.302917091058504E+001
  0.101535505415781E-001 -0.300160046545054E+001  0.297218188564590E+001
  0.101535505415781E-001 -0.300313905906281E+001  0.302297112335636E+001
  0.101535505415781E-001 -0.300338678059826E+001  0.302209156089059E+001
  0.101535505415781E-001 -0.300365987665319E+001  0.297892058601875E+001
  0.101535505415781E-001 -0.300382451458569E+001  0.297955496088063E+001
  0.101535505415781E-001 -0.300394294750475E+001  0.298002375516913E+001
  0.101535505415781E-001 -0.300407026737057E+001  0.301945968085588E+001
  0.101535505415781E-001 -0.300467473702764E+001  0.298320821528603E+001
  0.101535505415781E-001 -0.300554335237870E+001  0.298804234229825E+001
  0.101535505415781E-001 -0.300558468725330E+001  0.298832215782879E+001
  0.101535505415781E-001 -0.300566504684769E+001  0.298888629392721E+001
  0.101535505415781E-001 -0.300634975943567E+001  0.299626363162996E+001
