  0.248430612776882E-001  0.133463232278426E+001  0.389762566522764E+001
  0.248430612776882E-001  0.145958655152982E+001  0.790869384914519E+001
  0.248430612776882E-001  0.154667041468203E+001  0.608367149472517E+001
  0.248430612776882E-001  0.186701059339267E+001  0.794388153820930E+001
  0.248430612776882E-001  0.664676753695553E+001  0.171327024238094E+001
  0.248430612776882E-001  0.223956434399839E+001  0.797494664380635E+001
  0.248430612776882E-001  0.246959170473255E+001  0.799364245882850E+001
  0.248430612776882E-001  0.514402340739329E+001  0.581036374932441E+001
  0.248430612776882E-001  0.263593048464859E+001  0.800694564936411E+001
  0.248430612776882E-001  0.267599360531734E+001  0.801012357663818E+001
  0.248430612776882E-001  0.453532630811501E+001  0.185202662377216E+001
  0.248430612776882E-001  0.445976727612154E+001  0.185730431548510E+001
  0.248430612776882E-001  0.389636989235370E+001  0.810254698131468E+001
  0.248430612776882E-001  0.435075357098767E+001  0.186496201183063E+001
  0.248430612776882E-001  0.192857849909752E+001  0.611012574947897E+001
  0.248430612776882E-001  0.113327619750524E+001  0.781524708738229E+001
  0.248430612776882E-001  0.104450534404569E+001  0.619351101871642E+001
  0.248430612776882E-001  0.886242293934263E+000  0.779063416882523E+001
  0.248430612776882E-001  0.785472469848945E+000  0.621962879534139E+001
  0.248430612776882E-001  0.728123831589994E+000  0.777446977664650E+001
  0.248430612776882E-001  0.623926098464966E+000  0.623636933165379E+001
  0.248430612776882E-001  0.507036580397755E+000  0.624871478468685E+001
  0.248430612776882E-001  0.499187940775940E+000  0.624955100612458E+001
  0.248430612776882E-001  0.402486405669454E+000  0.625993145804487E+001
  0.248430612776882E-001  0.361601954480671E+000  0.773563573499483E+001
  0.248430612776882E-001  0.271868309352715E+000  0.627418834992754E+001
  0.248430612776882E-001  0.227908206410783E+000  0.627904997752257E+001
  0.248430612776882E-001  0.770384273715732E-001  0.629599022005094E+001
  0.248430612776882E-001  0.712930618011849E-001  0.770335660356086E+001
  0.248430612776882E-001 -0.103081857522049E+000  0.768323533623558E+001
  0.248430612776882E-001 -0.113214772768241E+000  0.768204784160758E+001
  0.248430612776882E-001 -0.296174049774081E+000  0.633976082067131E+001
  0.248430612776882E-001 -0.367995371205031E+000  0.634852140289057E+001
  0.248430612776882E-001 -0.473280747867854E+000  0.636158109189528E+001
  0.248430612776882E-001 -0.479699676810716E+000  0.636238595248006E+001
  0.248430612776882E-001 -0.550195755214955E+000  0.762870684826084E+001
  0.248430612776882E-001 -0.556069344665404E+000  0.637204098323377E+001
  0.248430612776882E-001 -0.598717482285772E+000  0.637749793195625E+001
  0.248430612776882E-001 -0.601641503008502E+000  0.637787382195963E+001
  0.248430612776882E-001 -0.608237430222905E+000  0.637872257964030E+001
  0.248430612776882E-001 -0.621782225966085E+000  0.761953084324342E+001
  0.248430612776882E-001 -0.653667982666176E+000  0.761539966254288E+001
  0.248430612776882E-001 -0.687206437281198E+000  0.761102421549353E+001
  0.248430612776882E-001 -0.704705246053281E+000  0.760872882510684E+001
  0.248430612776882E-001 -0.742500270423092E+000  0.760374131763263E+001
  0.248430612776882E-001 -0.744858930040921E+000  0.760342869759229E+001
  0.248430612776882E-001 -0.818937556494709E+000  0.640647357864597E+001
  0.248430612776882E-001 -0.931758458116694E+000  0.642188040286996E+001
  0.248430612776882E-001 -0.962510672824822E+000  0.757384833730917E+001
  0.248430612776882E-001 -0.974482705883608E+000  0.642782311393845E+001
  0.248430612776882E-001 -0.101234477790620E+001  0.756685841038083E+001
  0.248430612776882E-001 -0.102910279648241E+001  0.643551158165354E+001
  0.248430612776882E-001 -0.103114565253653E+001  0.643580117203363E+001
  0.248430612776882E-001 -0.103624357655760E+001  0.756347550934824E+001
  0.248430612776882E-001 -0.104904071096216E+001  0.756165568467748E+001
  0.248430612776882E-001 -0.106370961450475E+001  0.644043759636327E+001
  0.248430612776882E-001 -0.106905171795323E+001  0.755879812724450E+001
  0.248430612776882E-001 -0.108287967088058E+001  0.644318506257143E+001
  0.248430612776882E-001 -0.110535683279171E+001  0.644642387277105E+001
  0.248430612776882E-001 -0.111434108616275E+001  0.644772375743797E+001
  0.248430612776882E-001 -0.114659200061737E+001  0.754758460696562E+001
  0.248430612776882E-001 -0.114802768079874E+001  0.754737481943973E+001
  0.248430612776882E-001 -0.115916355119387E+001  0.754574486135323E+001
  0.248430612776882E-001 -0.117181088163646E+001  0.645611225347261E+001
  0.248430612776882E-001 -0.123808723072337E+001  0.646594975426582E+001
  0.248430612776882E-001 -0.127606118584763E+001  0.752833117658231E+001
  0.248430612776882E-001 -0.128886175051541E+001  0.647361065569105E+001
  0.248430612776882E-001 -0.133032269820388E+001  0.647995001185285E+001
  0.248430612776882E-001 -0.134578028975876E+001  0.648233333551109E+001
  0.248430612776882E-001 -0.135133263345834E+001  0.648319210480959E+001
  0.248430612776882E-001 -0.138344378740840E+001  0.751181306733917E+001
  0.248430612776882E-001 -0.138626258455315E+001  0.751137227961239E+001
  0.248430612776882E-001 -0.140408049737319E+001  0.750857717438434E+001
  0.248430612776882E-001 -0.142123743031017E+001  0.750587116248591E+001
  0.248430612776882E-001 -0.144126336182063E+001  0.750269422514405E+001
  0.248430612776882E-001 -0.144870476440860E+001  0.649849141624585E+001
  0.248430612776882E-001 -0.145750798756512E+001  0.649989766659807E+001
  0.248430612776882E-001 -0.146263466515338E+001  0.650071844069710E+001
  0.248430612776882E-001 -0.147272159715951E+001  0.749766270338348E+001
  0.248430612776882E-001 -0.148441494611175E+001  0.650422058281269E+001
  0.248430612776882E-001 -0.153221881734749E+001  0.748800472447393E+001
  0.248430612776882E-001 -0.157216442246153E+001  0.651858820715459E+001
  0.248430612776882E-001 -0.160483969700869E+001  0.652404908828422E+001
  0.248430612776882E-001 -0.161104130252361E+001  0.652509262641995E+001
  0.248430612776882E-001 -0.161791594390830E+001  0.652625210200029E+001
  0.248430612776882E-001 -0.162799956018721E+001  0.652795795499286E+001
  0.248430612776882E-001 -0.163401673904820E+001  0.747102117111311E+001
  0.248430612776882E-001 -0.164551090131120E+001  0.746906489708214E+001
  0.248430612776882E-001 -0.165807099759628E+001  0.653308216754008E+001
  0.248430612776882E-001 -0.166006723691841E+001  0.653342432127518E+001
  0.248430612776882E-001 -0.166517257791630E+001  0.746569948402147E+001
  0.248430612776882E-001 -0.167419999239932E+001  0.746414612257411E+001
  0.248430612776882E-001 -0.169832570340703E+001  0.745996903084811E+001
  0.248430612776882E-001 -0.170856385246302E+001  0.745818490316726E+001
  0.248430612776882E-001 -0.172190208089351E+001  0.654414992712350E+001
  0.248430612776882E-001 -0.172508382443656E+001  0.745529134625493E+001
  0.248430612776882E-001 -0.172593534844283E+001  0.745514169896157E+001
  0.248430612776882E-001 -0.173052601843326E+001  0.654566591704435E+001
  0.248430612776882E-001 -0.173197107686955E+001  0.745407956305624E+001
  0.248430612776882E-001 -0.178789760225568E+001  0.655588289210664E+001
  0.248430612776882E-001 -0.178974531785915E+001  0.744378414913898E+001
  0.248430612776882E-001 -0.180515530179252E+001  0.655900252427290E+001
  0.248430612776882E-001 -0.180721855057662E+001  0.744062302912151E+001
  0.248430612776882E-001 -0.182111994542512E+001  0.743809180615078E+001
  0.248430612776882E-001 -0.188102493773965E+001  0.742701244928706E+001
  0.248430612776882E-001 -0.188553075754583E+001  0.742616745614505E+001
  0.248430612776882E-001 -0.188826438414134E+001  0.742565399143184E+001
  0.248430612776882E-001 -0.191533471779040E+001  0.657946454722817E+001
  0.248430612776882E-001 -0.191822298312410E+001  0.741998564806981E+001
  0.248430612776882E-001 -0.193485799658078E+001  0.741680492131397E+001
  0.248430612776882E-001 -0.193631403135803E+001  0.741652536161342E+001
  0.248430612776882E-001 -0.196131413904756E+001  0.658830428756561E+001
  0.248430612776882E-001 -0.197487143423125E+001  0.740905279904613E+001
  0.248430612776882E-001 -0.197958229812277E+001  0.740813043770935E+001
  0.248430612776882E-001 -0.198405141419011E+001  0.659274652166733E+001
  0.248430612776882E-001 -0.199884727925931E+001  0.740433656426668E+001
  0.248430612776882E-001 -0.201200919564560E+001  0.659827602687769E+001
  0.248430612776882E-001 -0.206444164309815E+001  0.660885685613989E+001
  0.248430612776882E-001 -0.207750598370645E+001  0.661153807845370E+001
  0.248430612776882E-001 -0.208998906185216E+001  0.661411741165462E+001
  0.248430612776882E-001 -0.210546370344743E+001  0.661733901514149E+001
  0.248430612776882E-001 -0.212231021921044E+001  0.737912265404590E+001
  0.248430612776882E-001 -0.213686953813602E+001  0.662396210858118E+001
  0.248430612776882E-001 -0.214808190305509E+001  0.662635509183764E+001
  0.248430612776882E-001 -0.215003423661044E+001  0.737322666574992E+001
  0.248430612776882E-001 -0.215718255492114E+001  0.662830871264302E+001
  0.248430612776882E-001 -0.215842055178253E+001  0.737142473477041E+001
  0.248430612776882E-001 -0.220077628089776E+001  0.736218699167810E+001
  0.248430612776882E-001 -0.220131328344574E+001  0.736206835892295E+001
  0.248430612776882E-001 -0.221087507040016E+001  0.664005054435317E+001
  0.248430612776882E-001 -0.222692834227416E+001  0.664363629937856E+001
  0.248430612776882E-001 -0.223177529063085E+001  0.735527394413823E+001
  0.248430612776882E-001 -0.223431954361317E+001  0.664529942922746E+001
  0.248430612776882E-001 -0.224005739014142E+001  0.735340407391801E+001
  0.248430612776882E-001 -0.224127614002279E+001  0.664687192198747E+001
  0.248430612776882E-001 -0.224188571804401E+001  0.664701004688882E+001
  0.248430612776882E-001 -0.225039427677619E+001  0.735105631684999E+001
  0.248430612776882E-001 -0.228953638636099E+001  0.665797982505894E+001
  0.248430612776882E-001 -0.229306615498073E+001  0.665880645216013E+001
  0.248430612776882E-001 -0.229530677079846E+001  0.734066778326798E+001
  0.248430612776882E-001 -0.230004282951433E+001  0.733955377948446E+001
  0.248430612776882E-001 -0.230637411656021E+001  0.666194118376407E+001
  0.248430612776882E-001 -0.230684430956163E+001  0.666205247100384E+001
  0.248430612776882E-001 -0.231740643951338E+001  0.666456208985517E+001
  0.248430612776882E-001 -0.233039707851662E+001  0.733232527638116E+001
  0.248430612776882E-001 -0.233645804867172E+001  0.666913698590353E+001
  0.248430612776882E-001 -0.235572895100576E+001  0.667382981478444E+001
  0.248430612776882E-001 -0.235933326498661E+001  0.667471504878551E+001
  0.248430612776882E-001 -0.236009854071561E+001  0.667490331381268E+001
  0.248430612776882E-001 -0.236150273544974E+001  0.667524904278430E+001
  0.248430612776882E-001 -0.238051761956887E+001  0.732003250265161E+001
  0.248430612776882E-001 -0.241266715496193E+001  0.668810758731485E+001
  0.248430612776882E-001 -0.243060697420820E+001  0.730725641736367E+001
  0.248430612776882E-001 -0.246065047421327E+001  0.729933183260447E+001
  0.248430612776882E-001 -0.246303962642443E+001  0.729869262069319E+001
  0.248430612776882E-001 -0.247043659509450E+001  0.729670484773484E+001
  0.248430612776882E-001 -0.248062526429777E+001  0.670605514191123E+001
  0.248430612776882E-001 -0.248080638393800E+001  0.670610443954630E+001
  0.248430612776882E-001 -0.248576515708340E+001  0.670745735908909E+001
  0.248430612776882E-001 -0.249891533762364E+001  0.671107584409626E+001
  0.248430612776882E-001 -0.250458748482570E+001  0.671265069286257E+001
  0.248430612776882E-001 -0.250742970889959E+001  0.728655692010583E+001
  0.248430612776882E-001 -0.251763853589339E+001  0.728369253804344E+001
  0.248430612776882E-001 -0.252647751403924E+001  0.728118893939520E+001
  0.248430612776882E-001 -0.253918426904862E+001  0.727755024560734E+001
  0.248430612776882E-001 -0.254283225256610E+001  0.672350323424333E+001
  0.248430612776882E-001 -0.254293337112923E+001  0.727646750713926E+001
  0.248430612776882E-001 -0.254322762586536E+001  0.672361765297687E+001
  0.248430612776882E-001 -0.254489846937895E+001  0.727589829065045E+001
  0.248430612776882E-001 -0.254897936287488E+001  0.727471243842333E+001
  0.248430612776882E-001 -0.255396452590195E+001  0.672674316524529E+001
  0.248430612776882E-001 -0.255640950856095E+001  0.672745991026141E+001
  0.248430612776882E-001 -0.255777275446449E+001  0.727213963542666E+001
  0.248430612776882E-001 -0.256023797083123E+001  0.727141397633776E+001
  0.248430612776882E-001 -0.256323957695539E+001  0.672947220185051E+001
  0.248430612776882E-001 -0.259062776103657E+001  0.726230360294632E+001
  0.248430612776882E-001 -0.259685515288952E+001  0.726039738366994E+001
  0.248430612776882E-001 -0.260225765123541E+001  0.725873228960995E+001
  0.248430612776882E-001 -0.260521842848895E+001  0.674218480780559E+001
  0.248430612776882E-001 -0.261452986769274E+001  0.725490948011723E+001
  0.248430612776882E-001 -0.261467135749709E+001  0.725486507152794E+001
  0.248430612776882E-001 -0.261786622236779E+001  0.674613975044204E+001
  0.248430612776882E-001 -0.262712240001814E+001  0.674907364052063E+001
  0.248430612776882E-001 -0.262899971578629E+001  0.674967287929857E+001
  0.248430612776882E-001 -0.263175258882216E+001  0.675055419892705E+001
  0.248430612776882E-001 -0.263406479894939E+001  0.724870314443644E+001
  0.248430612776882E-001 -0.263420511718753E+001  0.724865800436437E+001
  0.248430612776882E-001 -0.266543245774770E+001  0.723839972450664E+001
  0.248430612776882E-001 -0.266592883028903E+001  0.676176690188341E+001
  0.248430612776882E-001 -0.267121115938734E+001  0.676354739083170E+001
  0.248430612776882E-001 -0.267479601094410E+001  0.676476339542194E+001
  0.248430612776882E-001 -0.267716365341578E+001  0.676556997347194E+001
  0.248430612776882E-001 -0.268185107429231E+001  0.676717506577322E+001
  0.248430612776882E-001 -0.268339742304908E+001  0.676770700786158E+001
  0.248430612776882E-001 -0.268537027238860E+001  0.676838743923894E+001
  0.248430612776882E-001 -0.269554408072118E+001  0.722807141199432E+001
  0.248430612776882E-001 -0.269686013399545E+001  0.677239068462560E+001
  0.248430612776882E-001 -0.269930339942867E+001  0.722674893158709E+001
  0.248430612776882E-001 -0.270104045182900E+001  0.722613524623958E+001
  0.248430612776882E-001 -0.270169068345128E+001  0.722590509629548E+001
  0.248430612776882E-001 -0.270240927524737E+001  0.722565047716523E+001
  0.248430612776882E-001 -0.270394925891360E+001  0.677489615627827E+001
  0.248430612776882E-001 -0.272424018646104E+001  0.721777325834617E+001
  0.248430612776882E-001 -0.272737787524296E+001  0.721661754740925E+001
  0.248430612776882E-001 -0.273452694752280E+001  0.721396100177562E+001
  0.248430612776882E-001 -0.273599456081057E+001  0.721341155581360E+001
  0.248430612776882E-001 -0.274051323429139E+001  0.721171089815560E+001
  0.248430612776882E-001 -0.274956408274277E+001  0.679173726054421E+001
  0.248430612776882E-001 -0.275082793327984E+001  0.679222331083661E+001
  0.248430612776882E-001 -0.275284736761691E+001  0.679300231144825E+001
  0.248430612776882E-001 -0.276411679888497E+001  0.679740450631152E+001
  0.248430612776882E-001 -0.276738376462288E+001  0.679869868469180E+001
  0.248430612776882E-001 -0.276831457935616E+001  0.679906894419357E+001
  0.248430612776882E-001 -0.277183198606599E+001  0.719952569787853E+001
  0.248430612776882E-001 -0.277344726386972E+001  0.719887699632013E+001
  0.248430612776882E-001 -0.277498762161361E+001  0.719825640576358E+001
  0.248430612776882E-001 -0.278172948922587E+001  0.680448298383943E+001
  0.248430612776882E-001 -0.278714388207355E+001  0.719328890488775E+001
  0.248430612776882E-001 -0.279957444941678E+001  0.718807368231039E+001
  0.248430612776882E-001 -0.280795769381514E+001  0.681552672043341E+001
  0.248430612776882E-001 -0.280932339864048E+001  0.718388006444962E+001
  0.248430612776882E-001 -0.281293773550852E+001  0.718230080691843E+001
  0.248430612776882E-001 -0.281476374737906E+001  0.681850228016908E+001
  0.248430612776882E-001 -0.282481449124200E+001  0.717701215575704E+001
  0.248430612776882E-001 -0.282508263820982E+001  0.682310907380280E+001
  0.248430612776882E-001 -0.283032299186868E+001  0.682549514853310E+001
  0.248430612776882E-001 -0.284214000124056E+001  0.683099934412558E+001
  0.248430612776882E-001 -0.284418179079840E+001  0.683196864769713E+001
  0.248430612776882E-001 -0.284799714053359E+001  0.716620493193374E+001
  0.248430612776882E-001 -0.285000478948894E+001  0.716523575752919E+001
  0.248430612776882E-001 -0.285222106092275E+001  0.683584077200220E+001
  0.248430612776882E-001 -0.285606942863194E+001  0.716227295924880E+001
  0.248430612776882E-001 -0.285995349881398E+001  0.683965330663142E+001
  0.248430612776882E-001 -0.287776235512620E+001  0.684879932187890E+001
  0.248430612776882E-001 -0.287840399682301E+001  0.715086080469357E+001
  0.248430612776882E-001 -0.288011595646044E+001  0.714995022124293E+001
  0.248430612776882E-001 -0.288592185180936E+001  0.685317995506411E+001
  0.248430612776882E-001 -0.288769147630434E+001  0.714585261628020E+001
  0.248430612776882E-001 -0.289017098702435E+001  0.714448620681774E+001
  0.248430612776882E-001 -0.289778532808454E+001  0.714020688068332E+001
  0.248430612776882E-001 -0.290534209377398E+001  0.713582667956126E+001
  0.248430612776882E-001 -0.290683041287263E+001  0.686505276651649E+001
  0.248430612776882E-001 -0.291017370651061E+001  0.713295047515062E+001
  0.248430612776882E-001 -0.291086149369953E+001  0.686746403170253E+001
  0.248430612776882E-001 -0.291711022248280E+001  0.712870892077562E+001
  0.248430612776882E-001 -0.291788700564836E+001  0.687177480364321E+001
  0.248430612776882E-001 -0.291941809202365E+001  0.687273363696291E+001
  0.248430612776882E-001 -0.292217626039814E+001  0.687447940320102E+001
  0.248430612776882E-001 -0.292283466099603E+001  0.687489973571128E+001
  0.248430612776882E-001 -0.292540291295475E+001  0.712344697570906E+001
  0.248430612776882E-001 -0.292696892794793E+001  0.687757208891431E+001
  0.248430612776882E-001 -0.293790847660579E+001  0.688494233781470E+001
  0.248430612776882E-001 -0.294377225257670E+001  0.688909435779816E+001
  0.248430612776882E-001 -0.294861193615725E+001  0.689264213070616E+001
  0.248430612776882E-001 -0.295053613281985E+001  0.710591430797252E+001
  0.248430612776882E-001 -0.295253432655397E+001  0.710439410728503E+001
  0.248430612776882E-001 -0.295286806457013E+001  0.689586195914436E+001
  0.248430612776882E-001 -0.295403348077933E+001  0.689676112670229E+001
  0.248430612776882E-001 -0.295486183432538E+001  0.689740502745060E+001
  0.248430612776882E-001 -0.295501533680521E+001  0.689752479326374E+001
  0.248430612776882E-001 -0.296088439650268E+001  0.709778608512485E+001
  0.248430612776882E-001 -0.296272437362829E+001  0.690373099094752E+001
  0.248430612776882E-001 -0.296278196999848E+001  0.690377886570656E+001
  0.248430612776882E-001 -0.296364155146015E+001  0.690449621132725E+001
  0.248430612776882E-001 -0.296484497477890E+001  0.690550965171062E+001
  0.248430612776882E-001 -0.296491071435012E+001  0.709443467365568E+001
  0.248430612776882E-001 -0.296930294844178E+001  0.690936253460192E+001
  0.248430612776882E-001 -0.297039374919085E+001  0.708966951552193E+001
  0.248430612776882E-001 -0.297480584559636E+001  0.708564278480442E+001
  0.248430612776882E-001 -0.297722915595397E+001  0.708334840689442E+001
  0.248430612776882E-001 -0.297890102462380E+001  0.691827204918349E+001
  0.248430612776882E-001 -0.297910953253970E+001  0.691847640416345E+001
  0.248430612776882E-001 -0.297981078943234E+001  0.708083251558190E+001
  0.248430612776882E-001 -0.298496388632558E+001  0.707556057220786E+001
  0.248430612776882E-001 -0.298716508309921E+001  0.707319295450109E+001
  0.248430612776882E-001 -0.298757414843653E+001  0.692725552849440E+001
  0.248430612776882E-001 -0.298782035997440E+001  0.707247319703566E+001
  0.248430612776882E-001 -0.298800535990673E+001  0.692773130484506E+001
  0.248430612776882E-001 -0.299256024164726E+001  0.693296282209914E+001
  0.248430612776882E-001 -0.299403396184790E+001  0.706525479284167E+001
  0.248430612776882E-001 -0.299417039327226E+001  0.706508731797295E+001
  0.248430612776882E-001 -0.299525548293678E+001  0.706373966280573E+001
  0.248430612776882E-001 -0.299680596133661E+001  0.693823700079646E+001
  0.248430612776882E-001 -0.299682746679904E+001  0.706173513745532E+001
  0.248430612776882E-001 -0.300024617807061E+001  0.694286653000933E+001
  0.248430612776882E-001 -0.300100785549816E+001  0.705605680159238E+001
  0.248430612776882E-001 -0.300181027548601E+001  0.705489970679987E+001
  0.248430612776882E-001 -0.300201683554079E+001  0.694540212277070E+001
  0.248430612776882E-001 -0.300270958602997E+001  0.694642679662669E+001
  0.248430612776882E-001 -0.300403075640594E+001  0.705156259166801E+001
  0.248430612776882E-001 -0.300530181727487E+001  0.704955129786891E+001
  0.248430612776882E-001 -0.300532619725964E+001  0.704951192101838E+001
  0.248430612776882E-001 -0.300670217386716E+001  0.695276363619278E+001
  0.248430612776882E-001 -0.300701466815407E+001  0.695329587834225E+001
  0.248430612776882E-001 -0.250511193149076E+001  0.697137832543675E+001
  0.248430612776882E-001 -0.250603933011357E+001  0.697409987499730E+001
  0.248430612776882E-001 -0.250744922615441E+001  0.697889945240944E+001
  0.248430612776882E-001 -0.250831541604603E+001  0.701751121714681E+001
  0.248430612776882E-001 -0.250850562289322E+001  0.698338044433772E+001
  0.248430612776882E-001  0.538822483793620E-002  0.699615038335621E+001
  0.248430612776882E-001  0.534721369499633E-002  0.699712636720617E+001
