  0.124432799518599E-001  0.772158074493047E+000  0.791034523784165E+001
  0.124432799518599E-001  0.854687252813310E+001  0.556031842804646E+001
  0.124432799518599E-001  0.893037582792142E+000  0.392090671264219E+001
  0.124432799518599E-001  0.695892711809327E+001  0.834855904543962E+001
  0.124432799518599E-001  0.594056443125207E+001  0.171327024238094E+001
  0.124432799518599E-001  0.100018110624706E+001  0.606983219947023E+001
  0.124432799518599E-001  0.123804255357754E+001  0.204959483970546E+001
  0.124432799518599E-001  0.128746078312182E+001  0.204544414231456E+001
  0.124432799518599E-001  0.148824703679671E+001  0.602876229169594E+001
  0.124432799518599E-001  0.179563436124670E+001  0.799623524227040E+001
  0.124432799518599E-001  0.189546150581549E+001  0.800421959803250E+001
  0.124432799518599E-001  0.192972737894513E+001  0.800694564936411E+001
  0.124432799518599E-001  0.373190100176919E+001  0.814117804063396E+001
  0.124432799518599E-001  0.209937459478752E+001  0.802033479569604E+001
  0.124432799518599E-001  0.261846876178196E+001  0.806025381962396E+001
  0.124432799518599E-001  0.111891752140313E+001  0.212178353010150E+001
  0.124432799518599E-001  0.450388106976659E+000  0.218495431926011E+001
  0.124432799518599E-001  0.267773875734441E+000  0.220308018929506E+001
  0.124432799518599E-001  0.228592067024198E+000  0.379297673061722E+001
  0.124432799518599E-001  0.183178074070505E+000  0.221161820389626E+001
  0.124432799518599E-001  0.190771286134837E-001  0.377155019613415E+001
  0.124432799518599E-001 -0.178172694721157E-001  0.223228481748702E+001
  0.124432799518599E-001 -0.783521356141152E-001  0.376138099718750E+001
  0.124432799518599E-001 -0.901165951775722E-001  0.376014387411074E+001
  0.124432799518599E-001 -0.239312737441162E+000  0.225572362217662E+001
  0.124432799518599E-001 -0.255625818712835E+000  0.225747913592787E+001
  0.124432799518599E-001 -0.286492156626844E+000  0.226081218928057E+001
  0.124432799518599E-001 -0.560856573109389E+000  0.370887256462567E+001
  0.124432799518599E-001 -0.581853209055010E+000  0.229350099000234E+001
  0.124432799518599E-001 -0.629202809606832E+000  0.229888309459878E+001
  0.124432799518599E-001 -0.636020474913164E+000  0.229966144716261E+001
  0.124432799518599E-001 -0.713034295525085E+000  0.369148526903504E+001
  0.124432799518599E-001 -0.726637013729844E+000  0.368990973495067E+001
  0.124432799518599E-001 -0.738739849830619E+000  0.368850489366713E+001
  0.124432799518599E-001 -0.774489478992388E+000  0.368433840162430E+001
  0.124432799518599E-001 -0.786147482087081E+000  0.368297420701118E+001
  0.124432799518599E-001 -0.791160909331577E+000  0.231761329212577E+001
  0.124432799518599E-001 -0.888745303682148E+000  0.232915119737206E+001
  0.124432799518599E-001 -0.909564454881441E+000  0.366836146791646E+001
  0.124432799518599E-001 -0.936518973029628E+000  0.366512730277124E+001
  0.124432799518599E-001 -0.980781256441024E+000  0.234021794238861E+001
  0.124432799518599E-001 -0.997190107543414E+000  0.365778943999545E+001
  0.124432799518599E-001 -0.102976927169094E+001  0.234618482649458E+001
  0.124432799518599E-001 -0.108670139165749E+001  0.235318848038143E+001
  0.124432799518599E-001 -0.111228052676567E+001  0.364364002384405E+001
  0.124432799518599E-001 -0.115751353706705E+001  0.363799310234967E+001
  0.124432799518599E-001 -0.117646749730927E+001  0.236438803896796E+001
  0.124432799518599E-001 -0.130334633145717E+001  0.361943680189615E+001
  0.124432799518599E-001 -0.135836993962728E+001  0.238771071033692E+001
  0.124432799518599E-001 -0.136181789725504E+001  0.361183862334416E+001
  0.124432799518599E-001 -0.137156206208115E+001  0.361056321101381E+001
  0.124432799518599E-001 -0.142916479094353E+001  0.360296848841835E+001
  0.124432799518599E-001 -0.144298442657131E+001  0.239886785452359E+001
  0.124432799518599E-001 -0.147457669439728E+001  0.240308703023563E+001
  0.124432799518599E-001 -0.151202335994846E+001  0.359187298213783E+001
  0.124432799518599E-001 -0.152284913441988E+001  0.359040791243792E+001
  0.124432799518599E-001 -0.152341939316008E+001  0.240966936241555E+001
  0.124432799518599E-001 -0.163121701859164E+001  0.242446317094228E+001
  0.124432799518599E-001 -0.163777074114309E+001  0.357462513519127E+001
  0.124432799518599E-001 -0.165946764092644E+001  0.357159648531831E+001
  0.124432799518599E-001 -0.176675672639901E+001  0.244362217122477E+001
  0.124432799518599E-001 -0.180310916494920E+001  0.244887397250301E+001
  0.124432799518599E-001 -0.181783230568769E+001  0.354898469529346E+001
  0.124432799518599E-001 -0.190703968674969E+001  0.246417258870367E+001
  0.124432799518599E-001 -0.190884685355411E+001  0.353555753006360E+001
  0.124432799518599E-001 -0.194364968409040E+001  0.246966669431195E+001
  0.124432799518599E-001 -0.194660262914732E+001  0.247011232896688E+001
  0.124432799518599E-001 -0.197858574538516E+001  0.247496319622825E+001
  0.124432799518599E-001 -0.202165562133831E+001  0.248156729929300E+001
  0.124432799518599E-001 -0.209463834748828E+001  0.249295441134119E+001
  0.124432799518599E-001 -0.209484618918462E+001  0.350701279501305E+001
  0.124432799518599E-001 -0.210701258342888E+001  0.350508944873939E+001
  0.124432799518599E-001 -0.213608113076400E+001  0.350046416820212E+001
  0.124432799518599E-001 -0.216369859057297E+001  0.349602982781765E+001
  0.124432799518599E-001 -0.222653765242032E+001  0.251421060099131E+001
  0.124432799518599E-001 -0.224800017577259E+001  0.348224198951653E+001
  0.124432799518599E-001 -0.225453145170102E+001  0.348115728437208E+001
  0.124432799518599E-001 -0.225800592808486E+001  0.251942074942534E+001
  0.124432799518599E-001 -0.228471361775851E+001  0.347611257674537E+001
  0.124432799518599E-001 -0.230205339431987E+001  0.347319004795674E+001
  0.124432799518599E-001 -0.231387290449066E+001  0.252881245787057E+001
  0.124432799518599E-001 -0.232261722709250E+001  0.253029944832726E+001
  0.124432799518599E-001 -0.232727688956735E+001  0.253109375964304E+001
  0.124432799518599E-001 -0.234949047177642E+001  0.346510094505629E+001
  0.124432799518599E-001 -0.236753928714102E+001  0.346198601562592E+001
  0.124432799518599E-001 -0.238458815140937E+001  0.345902424810785E+001
  0.124432799518599E-001 -0.241342750355202E+001  0.345397022370212E+001
  0.124432799518599E-001 -0.243765762449473E+001  0.255031995301401E+001
  0.124432799518599E-001 -0.246159162305031E+001  0.344540173426742E+001
  0.124432799518599E-001 -0.246513078524664E+001  0.344476559999287E+001
  0.124432799518599E-001 -0.247825496827615E+001  0.255760134533173E+001
  0.124432799518599E-001 -0.250543606049498E+001  0.343745582050909E+001
  0.124432799518599E-001 -0.251622014200726E+001  0.256452079055905E+001
  0.124432799518599E-001 -0.252373601084792E+001  0.343409630595159E+001
  0.124432799518599E-001 -0.253086211992082E+001  0.256721896369047E+001
  0.124432799518599E-001 -0.254407039040575E+001  0.256966745171721E+001
  0.124432799518599E-001 -0.255421305720069E+001  0.257155715034048E+001
  0.124432799518599E-001 -0.257508180704913E+001  0.257547170241712E+001
  0.124432799518599E-001 -0.258201528226314E+001  0.342321970584364E+001
  0.124432799518599E-001 -0.258810360997949E+001  0.257793272221154E+001
  0.124432799518599E-001 -0.261901548325652E+001  0.341616689831777E+001
  0.124432799518599E-001 -0.263218285616044E+001  0.341362798211776E+001
  0.124432799518599E-001 -0.265877996659811E+001  0.259154857091598E+001
  0.124432799518599E-001 -0.269117404949114E+001  0.340205660877281E+001
  0.124432799518599E-001 -0.270336720126662E+001  0.339962308788885E+001
  0.124432799518599E-001 -0.271866011550031E+001  0.339654980279459E+001
  0.124432799518599E-001 -0.272955189464325E+001  0.260565362758920E+001
  0.124432799518599E-001 -0.273717001988627E+001  0.260720213672338E+001
  0.124432799518599E-001 -0.274169320100541E+001  0.339187555730820E+001
  0.124432799518599E-001 -0.275251024563693E+001  0.261033896105131E+001
  0.124432799518599E-001 -0.278177668099069E+001  0.338360539049649E+001
  0.124432799518599E-001 -0.279888814293575E+001  0.338002008066253E+001
  0.124432799518599E-001 -0.279912214493702E+001  0.262002918350674E+001
  0.124432799518599E-001 -0.280535263099412E+001  0.337865676227610E+001
  0.124432799518599E-001 -0.282204480957544E+001  0.337511357619314E+001
  0.124432799518599E-001 -0.282298912945596E+001  0.262508787181057E+001
  0.124432799518599E-001 -0.282604922882438E+001  0.262574141564344E+001
  0.124432799518599E-001 -0.282605267536400E+001  0.337425784763748E+001
  0.124432799518599E-001 -0.283913674043375E+001  0.262854948363600E+001
  0.124432799518599E-001 -0.284650482765054E+001  0.263013976673290E+001
  0.124432799518599E-001 -0.286156504341686E+001  0.263341173282580E+001
  0.124432799518599E-001 -0.287491700066218E+001  0.263633718299704E+001
  0.124432799518599E-001 -0.288294497512862E+001  0.263810751796162E+001
  0.124432799518599E-001 -0.289166479983961E+001  0.264004028475100E+001
  0.124432799518599E-001 -0.292668186457263E+001  0.335209127544553E+001
  0.124432799518599E-001 -0.294693465701075E+001  0.265254090966740E+001
  0.124432799518599E-001 -0.295085545285044E+001  0.265344482095861E+001
  0.124432799518599E-001 -0.296139071043698E+001  0.265588541020968E+001
  0.124432799518599E-001 -0.297907012173645E+001  0.333997962453454E+001
  0.124432799518599E-001 -0.297928026626671E+001  0.333993017220277E+001
  0.124432799518599E-001 -0.298230180691988E+001  0.266078166990963E+001
  0.124432799518599E-001 -0.298340400271432E+001  0.266104170737067E+001
  0.124432799518599E-001 -0.242051317143918E+001  0.324732970240033E+001
  0.124432799518599E-001 -0.242617032759926E+001  0.324549304817820E+001
  0.124432799518599E-001 -0.243404563841314E+001  0.324291312639214E+001
  0.124432799518599E-001 -0.244231811346088E+001  0.324017325197857E+001
  0.124432799518599E-001 -0.244351170702614E+001  0.323977534484497E+001
  0.124432799518599E-001 -0.244910295699039E+001  0.323790253466754E+001
  0.124432799518599E-001 -0.245216270259023E+001  0.323687139275410E+001
  0.124432799518599E-001 -0.245443875476109E+001  0.323610143658591E+001
  0.124432799518599E-001 -0.245612572274222E+001  0.323552913509999E+001
  0.124432799518599E-001 -0.250608503545897E+001  0.321790016853199E+001
  0.124432799518599E-001 -0.250668630229008E+001  0.321767930713160E+001
  0.124432799518599E-001 -0.251076416637781E+001  0.321617544379336E+001
  0.124432799518599E-001 -0.251277941698964E+001  0.321542836953698E+001
  0.124432799518599E-001 -0.253485655929222E+001  0.320706771750553E+001
  0.124432799518599E-001 -0.254924135677880E+001  0.320143354247765E+001
  0.124432799518599E-001 -0.255627321385107E+001  0.319862118442788E+001
  0.124432799518599E-001 -0.255897309258910E+001  0.319753074268440E+001
  0.124432799518599E-001 -0.256943987714728E+001  0.319324520375973E+001
  0.124432799518599E-001 -0.258940702689728E+001  0.318479438523976E+001
  0.124432799518599E-001 -0.258956873182151E+001  0.318472436771651E+001
  0.124432799518599E-001 -0.259543593185135E+001  0.318216569387096E+001
  0.124432799518599E-001 -0.259960833135391E+001  0.318032403085302E+001
  0.124432799518599E-001 -0.260141080458918E+001  0.317952259018139E+001
  0.124432799518599E-001 -0.260606158415980E+001  0.317743797692190E+001
  0.124432799518599E-001 -0.262182907970265E+001  0.317018059926819E+001
  0.124432799518599E-001 -0.263057876391272E+001  0.316601652596555E+001
  0.124432799518599E-001 -0.263587879772335E+001  0.316344259384863E+001
  0.124432799518599E-001 -0.263966344370249E+001  0.316157951023353E+001
  0.124432799518599E-001 -0.265021882317053E+001  0.315626604689574E+001
  0.124432799518599E-001 -0.266342927496539E+001  0.314934994183207E+001
  0.124432799518599E-001 -0.266591531545956E+001  0.314801229221310E+001
  0.124432799518599E-001 -0.268462364051203E+001  0.313752929374420E+001
  0.124432799518599E-001 -0.268663074405732E+001  0.313635677493449E+001
  0.124432799518599E-001 -0.269318685970250E+001  0.313245448866424E+001
  0.124432799518599E-001 -0.270283726411240E+001  0.312649160787072E+001
  0.124432799518599E-001 -0.271380817697027E+001  0.311935150105659E+001
  0.124432799518599E-001 -0.271536088901584E+001  0.311830615739331E+001
  0.124432799518599E-001 -0.272184908582798E+001  0.311383424523063E+001
  0.124432799518599E-001 -0.272679273195508E+001  0.311030526735787E+001
  0.124432799518599E-001 -0.272741221815582E+001  0.310985506003264E+001
  0.124432799518599E-001 -0.273904124852297E+001  0.310103212041737E+001
  0.124432799518599E-001 -0.275233484349905E+001  0.308989168014815E+001
  0.124432799518599E-001 -0.275807878821036E+001  0.308462554582423E+001
  0.124432799518599E-001 -0.276544050347363E+001  0.307735378829718E+001
  0.124432799518599E-001 -0.277135162176587E+001  0.307097766998969E+001
  0.124432799518599E-001 -0.277418244379635E+001  0.306771187571090E+001
  0.124432799518599E-001 -0.277720565510381E+001  0.306404048956009E+001
  0.124432799518599E-001 -0.277911518549631E+001  0.306160892338205E+001
  0.124432799518599E-001 -0.278022012040659E+001  0.306015704326720E+001
  0.124432799518599E-001 -0.278190167151423E+001  0.305787764402106E+001
  0.124432799518599E-001 -0.278221378721267E+001  0.305744460954414E+001
  0.124432799518599E-001 -0.278325334224749E+001  0.305597815967059E+001
  0.124432799518599E-001 -0.278404432731574E+001  0.305483608984225E+001
  0.124432799518599E-001 -0.279149473969481E+001  0.304260200427838E+001
  0.124432799518599E-001 -0.279245457962064E+001  0.304075973969990E+001
  0.124432799518599E-001 -0.279501722017176E+001  0.296462580188578E+001
  0.124432799518599E-001 -0.279537763589260E+001  0.296545050829768E+001
  0.124432799518599E-001 -0.279587925513526E+001  0.296663222665409E+001
  0.124432799518599E-001 -0.279589625937077E+001  0.296667301963301E+001
  0.124432799518599E-001 -0.279736233764665E+001  0.302959924148084E+001
  0.124432799518599E-001 -0.279751966934591E+001  0.302917091058504E+001
  0.124432799518599E-001 -0.279800151020930E+001  0.297218188564590E+001
  0.124432799518599E-001 -0.279954010382157E+001  0.302297112335636E+001
  0.124432799518599E-001 -0.279978782535702E+001  0.302209156089059E+001
  0.124432799518599E-001 -0.280006092141195E+001  0.297892058601875E+001
  0.124432799518599E-001 -0.280022555934446E+001  0.297955496088063E+001
  0.124432799518599E-001 -0.280034399226351E+001  0.298002375516913E+001
  0.124432799518599E-001 -0.280047131212933E+001  0.301945968085588E+001
  0.124432799518599E-001 -0.280107578178641E+001  0.298320821528603E+001
  0.124432799518599E-001 -0.280194439713746E+001  0.298804234229825E+001
  0.124432799518599E-001 -0.280198573201206E+001  0.298832215782879E+001
  0.124432799518599E-001 -0.280206609160646E+001  0.298888629392721E+001
  0.124432799518599E-001 -0.280275080419443E+001  0.299626363162996E+001
