  0.654568880782861E-001  0.226684370680461E+001  0.210030549818102E+001
  0.654568880782861E-001  0.248526148162092E+001  0.391891079032434E+001
  0.654568880782861E-001  0.339327851638772E+001  0.399482650052183E+001
  0.654568880782861E-001  0.342392080774172E+001  0.200271241221339E+001
  0.654568880782861E-001  0.282864922458898E+001  0.611280496626818E+001
  0.654568880782861E-001  0.241666229038765E+001  0.615076674676151E+001
  0.654568880782861E-001  0.171633961043751E+001  0.778047773165793E+001
  0.654568880782861E-001  0.167705391934860E+001  0.777644045427816E+001
  0.654568880782861E-001  0.126770156882357E+001  0.773305075060031E+001
  0.654568880782861E-001  0.108067215980383E+001  0.628765268477202E+001
  0.654568880782861E-001  0.981506914757188E+000  0.770112214221564E+001
  0.654568880782861E-001  0.824683743524162E+000  0.768299381469217E+001
  0.654568880782861E-001  0.821387163025335E+000  0.768260757249532E+001
  0.654568880782861E-001  0.590862477183844E+000  0.765503370012032E+001
  0.654568880782861E-001  0.445899197447831E+000  0.763708321555002E+001
  0.654568880782861E-001  0.343403835180565E+000  0.637592006475709E+001
  0.654568880782861E-001  0.306825892320481E+000  0.638062669195777E+001
  0.654568880782861E-001  0.852009688785889E-001  0.759005364753086E+001
  0.654568880782861E-001  0.583452979795220E-001  0.758640122750607E+001
  0.654568880782861E-001  0.523102593273559E-001  0.758557731636077E+001
  0.654568880782861E-001 -0.606825389991350E-001  0.643006847279341E+001
  0.654568880782861E-001 -0.114651721587701E+000  0.643769503248694E+001
  0.654568880782861E-001 -0.121583539818285E+000  0.756131790063472E+001
  0.654568880782861E-001 -0.233675500616582E+000  0.754510831203096E+001
  0.654568880782861E-001 -0.280392199173917E+000  0.753820850985104E+001
  0.654568880782861E-001 -0.374263069079999E+000  0.647593029004616E+001
  0.654568880782861E-001 -0.389028613837434E+000  0.752181086011112E+001
  0.654568880782861E-001 -0.639443009593134E+000  0.651810761532371E+001
  0.654568880782861E-001 -0.660119818327138E+000  0.652155253056207E+001
  0.654568880782861E-001 -0.673184636322400E+000  0.747625792395751E+001
  0.654568880782861E-001 -0.809366488578299E+000  0.745280516093721E+001
  0.654568880782861E-001 -0.812366620371110E+000  0.654772520224478E+001
  0.654568880782861E-001 -0.876437811085135E+000  0.744079598701699E+001
  0.654568880782861E-001 -0.904978149068190E+000  0.743558540849412E+001
  0.654568880782861E-001 -0.955204546779169E+000  0.742626098162890E+001
  0.654568880782861E-001 -0.998958274307989E+000  0.658203130732718E+001
  0.654568880782861E-001 -0.101453311783794E+001  0.658502306920766E+001
  0.654568880782861E-001 -0.103106127329780E+001  0.741177827555160E+001
  0.654568880782861E-001 -0.105128485360168E+001  0.659216967331054E+001
  0.654568880782861E-001 -0.115865116941952E+001  0.661380449920179E+001
  0.654568880782861E-001 -0.116056984623992E+001  0.661420215585684E+001
  0.654568880782861E-001 -0.116105766618413E+001  0.661430332467801E+001
  0.654568880782861E-001 -0.118552779561242E+001  0.738058731540333E+001
  0.654568880782861E-001 -0.124375954028808E+001  0.736814348493190E+001
  0.654568880782861E-001 -0.133166216014194E+001  0.734851858820039E+001
  0.654568880782861E-001 -0.917174614610920E+000  0.714773042624816E+001
  0.654568880782861E-001 -0.927276036563026E+000  0.714215502568367E+001
  0.654568880782861E-001 -0.937291464904904E+000  0.713640228294433E+001
  0.654568880782861E-001 -0.941652834268880E+000  0.713381989274465E+001
  0.654568880782861E-001 -0.952878636586620E+000  0.712693161672078E+001
  0.654568880782861E-001 -0.966813846557134E+000  0.711782190682580E+001
  0.654568880782861E-001 -0.967330455976195E+000  0.711747061003084E+001
  0.654568880782861E-001 -0.985082284750460E+000  0.710468548904760E+001
  0.654568880782861E-001 -0.989544442499346E+000  0.710121811289149E+001
  0.654568880782861E-001 -0.998435651203223E+000  0.709392823316072E+001
  0.654568880782861E-001 -0.100496847584797E+001  0.708818878070103E+001
  0.654568880782861E-001 -0.102002935700997E+001  0.707326336093583E+001
  0.654568880782861E-001 -0.102089277767784E+001  0.707231440208393E+001
  0.654568880782861E-001 -0.102439492322091E+001  0.706833029680796E+001
  0.654568880782861E-001 -0.104103384471785E+001  0.704479734392074E+001
  0.654568880782861E-001 -0.104598281671104E+001  0.703485636962511E+001
  0.654568880782861E-001 -0.104849110784554E+001  0.702852437417234E+001
  0.654568880782861E-001 -0.105010692579340E+001  0.702356075232808E+001
  0.654568880782861E-001 -0.105148408948493E+001  0.698170347411060E+001
  0.654568880782861E-001 -0.105207563839326E+001  0.701549564565575E+001
  0.654568880782861E-001 -0.105242397471519E+001  0.701357870475335E+001
