  0.231888788673874E-001  0.126303849354480E+001  0.389762566522764E+001
  0.231888788673874E-001  0.138799272229036E+001  0.790869384914519E+001
  0.231888788673874E-001  0.147507658544257E+001  0.608367149472517E+001
  0.231888788673874E-001  0.179541676415322E+001  0.794388153820930E+001
  0.231888788673874E-001  0.657517370771607E+001  0.171327024238094E+001
  0.231888788673874E-001  0.216797051475894E+001  0.797494664380635E+001
  0.231888788673874E-001  0.239799787549309E+001  0.799364245882850E+001
  0.231888788673874E-001  0.507242957815383E+001  0.581036374932441E+001
  0.231888788673874E-001  0.256433665540914E+001  0.800694564936411E+001
  0.231888788673874E-001  0.260439977607789E+001  0.801012357663818E+001
  0.231888788673874E-001  0.446373247887556E+001  0.185202662377216E+001
  0.231888788673874E-001  0.438817344688208E+001  0.185730431548510E+001
  0.231888788673874E-001  0.382477606311424E+001  0.810254698131468E+001
  0.231888788673874E-001  0.427915974174821E+001  0.186496201183063E+001
  0.231888788673874E-001  0.185698466985806E+001  0.611012574947897E+001
  0.231888788673874E-001  0.106168236826578E+001  0.781524708738229E+001
  0.231888788673874E-001  0.972911514806234E+000  0.619351101871642E+001
  0.231888788673874E-001  0.814648464694807E+000  0.779063416882523E+001
  0.231888788673874E-001  0.713878640609489E+000  0.621962879534139E+001
  0.231888788673874E-001  0.656530002350538E+000  0.777446977664650E+001
  0.231888788673874E-001  0.552332269225510E+000  0.623636933165379E+001
  0.231888788673874E-001  0.435442751158299E+000  0.624871478468685E+001
  0.231888788673874E-001  0.427594111536485E+000  0.624955100612458E+001
  0.231888788673874E-001  0.330892576429998E+000  0.625993145804487E+001
  0.231888788673874E-001  0.290008125241215E+000  0.773563573499483E+001
  0.231888788673874E-001  0.200274480113259E+000  0.627418834992754E+001
  0.231888788673874E-001  0.156314377171328E+000  0.627904997752257E+001
  0.231888788673874E-001  0.544459813211740E-002  0.629599022005094E+001
  0.231888788673874E-001 -0.300767438270899E-003  0.770335660356086E+001
  0.231888788673874E-001 -0.174675686761505E+000  0.768323533623558E+001
  0.231888788673874E-001 -0.184808602007696E+000  0.768204784160758E+001
  0.231888788673874E-001 -0.367767879013536E+000  0.633976082067131E+001
  0.231888788673874E-001 -0.439589200444487E+000  0.634852140289057E+001
  0.231888788673874E-001 -0.544874577107310E+000  0.636158109189528E+001
  0.231888788673874E-001 -0.551293506050172E+000  0.636238595248006E+001
  0.231888788673874E-001 -0.621789584454410E+000  0.762870684826084E+001
  0.231888788673874E-001 -0.627663173904860E+000  0.637204098323377E+001
  0.231888788673874E-001 -0.670311311525228E+000  0.637749793195625E+001
  0.231888788673874E-001 -0.673235332247958E+000  0.637787382195963E+001
  0.231888788673874E-001 -0.679831259462361E+000  0.637872257964030E+001
  0.231888788673874E-001 -0.693376055205540E+000  0.761953084324342E+001
  0.231888788673874E-001 -0.725261811905631E+000  0.761539966254288E+001
  0.231888788673874E-001 -0.758800266520653E+000  0.761102421549353E+001
  0.231888788673874E-001 -0.776299075292737E+000  0.760872882510684E+001
  0.231888788673874E-001 -0.814094099662547E+000  0.760374131763263E+001
  0.231888788673874E-001 -0.816452759280377E+000  0.760342869759229E+001
  0.231888788673874E-001 -0.890531385734165E+000  0.640647357864597E+001
  0.231888788673874E-001 -0.100335228735615E+001  0.642188040286996E+001
  0.231888788673874E-001 -0.103410450206428E+001  0.757384833730917E+001
  0.231888788673874E-001 -0.104607653512306E+001  0.642782311393845E+001
  0.231888788673874E-001 -0.108393860714566E+001  0.756685841038083E+001
  0.231888788673874E-001 -0.110069662572186E+001  0.643551158165354E+001
  0.231888788673874E-001 -0.110273948177599E+001  0.643580117203363E+001
  0.231888788673874E-001 -0.110783740579705E+001  0.756347550934824E+001
  0.231888788673874E-001 -0.112063454020161E+001  0.756165568467748E+001
  0.231888788673874E-001 -0.113530344374420E+001  0.644043759636327E+001
  0.231888788673874E-001 -0.114064554719269E+001  0.755879812724450E+001
  0.231888788673874E-001 -0.115447350012004E+001  0.644318506257143E+001
  0.231888788673874E-001 -0.117695066203117E+001  0.644642387277105E+001
  0.231888788673874E-001 -0.118593491540221E+001  0.644772375743797E+001
  0.231888788673874E-001 -0.121818582985683E+001  0.754758460696562E+001
  0.231888788673874E-001 -0.121962151003820E+001  0.754737481943973E+001
  0.231888788673874E-001 -0.123075738043333E+001  0.754574486135323E+001
  0.231888788673874E-001 -0.124340471087592E+001  0.645611225347261E+001
  0.231888788673874E-001 -0.130968105996283E+001  0.646594975426582E+001
  0.231888788673874E-001 -0.134765501508709E+001  0.752833117658231E+001
  0.231888788673874E-001 -0.136045557975486E+001  0.647361065569105E+001
  0.231888788673874E-001 -0.140191652744333E+001  0.647995001185285E+001
  0.231888788673874E-001 -0.141737411899822E+001  0.648233333551109E+001
  0.231888788673874E-001 -0.142292646269780E+001  0.648319210480959E+001
  0.231888788673874E-001 -0.145503761664786E+001  0.751181306733917E+001
  0.231888788673874E-001 -0.145785641379261E+001  0.751137227961239E+001
  0.231888788673874E-001 -0.147567432661265E+001  0.750857717438434E+001
  0.231888788673874E-001 -0.149283125954962E+001  0.750587116248591E+001
  0.231888788673874E-001 -0.151285719106008E+001  0.750269422514405E+001
  0.231888788673874E-001 -0.152029859364806E+001  0.649849141624585E+001
  0.231888788673874E-001 -0.152910181680458E+001  0.649989766659807E+001
  0.231888788673874E-001 -0.153422849439283E+001  0.650071844069710E+001
  0.231888788673874E-001 -0.154431542639896E+001  0.749766270338348E+001
  0.231888788673874E-001 -0.155600877535121E+001  0.650422058281269E+001
  0.231888788673874E-001 -0.160381264658694E+001  0.748800472447393E+001
  0.231888788673874E-001 -0.164375825170099E+001  0.651858820715459E+001
  0.231888788673874E-001 -0.167643352624814E+001  0.652404908828422E+001
  0.231888788673874E-001 -0.168263513176306E+001  0.652509262641995E+001
  0.231888788673874E-001 -0.168950977314776E+001  0.652625210200029E+001
  0.231888788673874E-001 -0.169959338942666E+001  0.652795795499286E+001
  0.231888788673874E-001 -0.170561056828765E+001  0.747102117111311E+001
  0.231888788673874E-001 -0.171710473055065E+001  0.746906489708214E+001
  0.231888788673874E-001 -0.172966482683573E+001  0.653308216754008E+001
  0.231888788673874E-001 -0.173166106615787E+001  0.653342432127518E+001
  0.231888788673874E-001 -0.173676640715575E+001  0.746569948402147E+001
  0.231888788673874E-001 -0.174579382163877E+001  0.746414612257411E+001
  0.231888788673874E-001 -0.176991953264648E+001  0.745996903084811E+001
  0.231888788673874E-001 -0.178015768170247E+001  0.745818490316726E+001
  0.231888788673874E-001 -0.179349591013297E+001  0.654414992712350E+001
  0.231888788673874E-001 -0.179667765367601E+001  0.745529134625493E+001
  0.231888788673874E-001 -0.179752917768229E+001  0.745514169896157E+001
  0.231888788673874E-001 -0.180211984767271E+001  0.654566591704435E+001
  0.231888788673874E-001 -0.180356490610900E+001  0.745407956305624E+001
  0.231888788673874E-001 -0.185949143149513E+001  0.655588289210664E+001
  0.231888788673874E-001 -0.186133914709861E+001  0.744378414913898E+001
  0.231888788673874E-001 -0.187674913103198E+001  0.655900252427290E+001
  0.231888788673874E-001 -0.187881237981607E+001  0.744062302912151E+001
  0.231888788673874E-001 -0.189271377466457E+001  0.743809180615078E+001
  0.231888788673874E-001 -0.195261876697910E+001  0.742701244928706E+001
  0.231888788673874E-001 -0.195712458678529E+001  0.742616745614505E+001
  0.231888788673874E-001 -0.195985821338079E+001  0.742565399143184E+001
  0.231888788673874E-001 -0.198692854702986E+001  0.657946454722817E+001
  0.231888788673874E-001 -0.198981681236355E+001  0.741998564806981E+001
  0.231888788673874E-001 -0.200645182582024E+001  0.741680492131397E+001
  0.231888788673874E-001 -0.200790786059749E+001  0.741652536161342E+001
  0.231888788673874E-001 -0.203290796828701E+001  0.658830428756561E+001
  0.231888788673874E-001 -0.204646526347071E+001  0.740905279904613E+001
  0.231888788673874E-001 -0.205117612736223E+001  0.740813043770935E+001
  0.231888788673874E-001 -0.205564524342957E+001  0.659274652166733E+001
  0.231888788673874E-001 -0.207044110849876E+001  0.740433656426668E+001
  0.231888788673874E-001 -0.208360302488505E+001  0.659827602687769E+001
  0.231888788673874E-001 -0.213603547233760E+001  0.660885685613989E+001
  0.231888788673874E-001 -0.214909981294590E+001  0.661153807845370E+001
  0.231888788673874E-001 -0.216158289109162E+001  0.661411741165462E+001
  0.231888788673874E-001 -0.217705753268688E+001  0.661733901514149E+001
  0.231888788673874E-001 -0.219390404844989E+001  0.737912265404590E+001
  0.231888788673874E-001 -0.220846336737548E+001  0.662396210858118E+001
  0.231888788673874E-001 -0.221967573229455E+001  0.662635509183764E+001
  0.231888788673874E-001 -0.222162806584989E+001  0.737322666574992E+001
  0.231888788673874E-001 -0.222877638416059E+001  0.662830871264302E+001
  0.231888788673874E-001 -0.223001438102198E+001  0.737142473477041E+001
  0.231888788673874E-001 -0.227237011013722E+001  0.736218699167810E+001
  0.231888788673874E-001 -0.227290711268519E+001  0.736206835892295E+001
  0.231888788673874E-001 -0.228246889963961E+001  0.664005054435317E+001
  0.231888788673874E-001 -0.229852217151362E+001  0.664363629937856E+001
  0.231888788673874E-001 -0.230336911987031E+001  0.735527394413823E+001
  0.231888788673874E-001 -0.230591337285263E+001  0.664529942922746E+001
  0.231888788673874E-001 -0.231165121938088E+001  0.735340407391801E+001
  0.231888788673874E-001 -0.231286996926225E+001  0.664687192198747E+001
  0.231888788673874E-001 -0.231347954728346E+001  0.664701004688882E+001
  0.231888788673874E-001 -0.232198810601564E+001  0.735105631684999E+001
  0.231888788673874E-001 -0.236113021560045E+001  0.665797982505894E+001
  0.231888788673874E-001 -0.236465998422019E+001  0.665880645216013E+001
  0.231888788673874E-001 -0.236690060003791E+001  0.734066778326798E+001
  0.231888788673874E-001 -0.237163665875378E+001  0.733955377948446E+001
  0.231888788673874E-001 -0.237796794579967E+001  0.666194118376407E+001
  0.231888788673874E-001 -0.237843813880108E+001  0.666205247100384E+001
  0.231888788673874E-001 -0.238900026875284E+001  0.666456208985517E+001
  0.231888788673874E-001 -0.240199090775608E+001  0.733232527638116E+001
  0.231888788673874E-001 -0.240805187791118E+001  0.666913698590353E+001
  0.231888788673874E-001 -0.242732278024522E+001  0.667382981478444E+001
  0.231888788673874E-001 -0.243092709422606E+001  0.667471504878551E+001
  0.231888788673874E-001 -0.243169236995507E+001  0.667490331381268E+001
  0.231888788673874E-001 -0.243309656468920E+001  0.667524904278430E+001
  0.231888788673874E-001 -0.245211144880833E+001  0.732003250265161E+001
  0.231888788673874E-001 -0.248426098420138E+001  0.668810758731485E+001
  0.231888788673874E-001 -0.250220080344766E+001  0.730725641736367E+001
  0.231888788673874E-001 -0.253224430345273E+001  0.729933183260447E+001
  0.231888788673874E-001 -0.253463345566388E+001  0.729869262069319E+001
  0.231888788673874E-001 -0.254203042433396E+001  0.729670484773484E+001
  0.231888788673874E-001 -0.255221909353723E+001  0.670605514191123E+001
  0.231888788673874E-001 -0.255240021317745E+001  0.670610443954630E+001
  0.231888788673874E-001 -0.255735898632285E+001  0.670745735908909E+001
  0.231888788673874E-001 -0.257050916686310E+001  0.671107584409626E+001
  0.231888788673874E-001 -0.257618131406515E+001  0.671265069286257E+001
  0.231888788673874E-001 -0.257902353813905E+001  0.728655692010583E+001
  0.231888788673874E-001 -0.258923236513285E+001  0.728369253804344E+001
  0.231888788673874E-001 -0.259807134327870E+001  0.728118893939520E+001
  0.231888788673874E-001 -0.261077809828808E+001  0.727755024560734E+001
  0.231888788673874E-001 -0.261442608180555E+001  0.672350323424333E+001
  0.231888788673874E-001 -0.261452720036869E+001  0.727646750713926E+001
  0.231888788673874E-001 -0.261482145510481E+001  0.672361765297687E+001
  0.231888788673874E-001 -0.261649229861840E+001  0.727589829065045E+001
  0.231888788673874E-001 -0.262057319211434E+001  0.727471243842333E+001
  0.231888788673874E-001 -0.262555835514140E+001  0.672674316524529E+001
  0.231888788673874E-001 -0.262800333780041E+001  0.672745991026141E+001
  0.231888788673874E-001 -0.262936658370395E+001  0.727213963542666E+001
  0.231888788673874E-001 -0.263183180007069E+001  0.727141397633776E+001
  0.231888788673874E-001 -0.263483340619485E+001  0.672947220185051E+001
  0.231888788673874E-001 -0.266222159027603E+001  0.726230360294632E+001
  0.231888788673874E-001 -0.266844898212897E+001  0.726039738366994E+001
  0.231888788673874E-001 -0.267385148047486E+001  0.725873228960995E+001
  0.231888788673874E-001 -0.267681225772840E+001  0.674218480780559E+001
  0.231888788673874E-001 -0.268612369693220E+001  0.725490948011723E+001
  0.231888788673874E-001 -0.268626518673654E+001  0.725486507152794E+001
  0.231888788673874E-001 -0.268946005160724E+001  0.674613975044204E+001
  0.231888788673874E-001 -0.269871622925759E+001  0.674907364052063E+001
  0.231888788673874E-001 -0.270059354502575E+001  0.674967287929857E+001
  0.231888788673874E-001 -0.270334641806161E+001  0.675055419892705E+001
  0.231888788673874E-001 -0.270565862818884E+001  0.724870314443644E+001
  0.231888788673874E-001 -0.270579894642698E+001  0.724865800436437E+001
  0.231888788673874E-001 -0.273702628698716E+001  0.723839972450664E+001
  0.231888788673874E-001 -0.273752265952849E+001  0.676176690188341E+001
  0.231888788673874E-001 -0.274280498862680E+001  0.676354739083170E+001
  0.231888788673874E-001 -0.274638984018356E+001  0.676476339542194E+001
  0.231888788673874E-001 -0.274875748265524E+001  0.676556997347194E+001
  0.231888788673874E-001 -0.275344490353177E+001  0.676717506577322E+001
  0.231888788673874E-001 -0.275499125228853E+001  0.676770700786158E+001
  0.231888788673874E-001 -0.275696410162806E+001  0.676838743923894E+001
  0.231888788673874E-001 -0.276713790996064E+001  0.722807141199432E+001
  0.231888788673874E-001 -0.276845396323490E+001  0.677239068462560E+001
  0.231888788673874E-001 -0.277089722866812E+001  0.722674893158709E+001
  0.231888788673874E-001 -0.277263428106846E+001  0.722613524623958E+001
  0.231888788673874E-001 -0.277328451269074E+001  0.722590509629548E+001
  0.231888788673874E-001 -0.277400310448683E+001  0.722565047716523E+001
  0.231888788673874E-001 -0.277554308815306E+001  0.677489615627827E+001
  0.231888788673874E-001 -0.279583401570050E+001  0.721777325834617E+001
  0.231888788673874E-001 -0.279897170448242E+001  0.721661754740925E+001
  0.231888788673874E-001 -0.280612077676225E+001  0.721396100177562E+001
  0.231888788673874E-001 -0.280758839005003E+001  0.721341155581360E+001
  0.231888788673874E-001 -0.281210706353085E+001  0.721171089815560E+001
  0.231888788673874E-001 -0.282115791198223E+001  0.679173726054421E+001
  0.231888788673874E-001 -0.282242176251930E+001  0.679222331083661E+001
  0.231888788673874E-001 -0.282444119685637E+001  0.679300231144825E+001
  0.231888788673874E-001 -0.283571062812443E+001  0.679740450631152E+001
  0.231888788673874E-001 -0.283897759386234E+001  0.679869868469180E+001
  0.231888788673874E-001 -0.283990840859562E+001  0.679906894419357E+001
  0.231888788673874E-001 -0.284342581530545E+001  0.719952569787853E+001
  0.231888788673874E-001 -0.284504109310918E+001  0.719887699632013E+001
  0.231888788673874E-001 -0.284658145085307E+001  0.719825640576358E+001
  0.231888788673874E-001 -0.285332331846532E+001  0.680448298383943E+001
  0.231888788673874E-001 -0.285873771131300E+001  0.719328890488775E+001
  0.231888788673874E-001 -0.287116827865624E+001  0.718807368231039E+001
  0.231888788673874E-001 -0.287955152305459E+001  0.681552672043341E+001
  0.231888788673874E-001 -0.288091722787994E+001  0.718388006444962E+001
  0.231888788673874E-001 -0.288453156474798E+001  0.718230080691843E+001
  0.231888788673874E-001 -0.288635757661851E+001  0.681850228016908E+001
  0.231888788673874E-001 -0.289640832048146E+001  0.717701215575704E+001
  0.231888788673874E-001 -0.289667646744928E+001  0.682310907380280E+001
  0.231888788673874E-001 -0.290191682110813E+001  0.682549514853310E+001
  0.231888788673874E-001 -0.291373383048002E+001  0.683099934412558E+001
  0.231888788673874E-001 -0.291577562003785E+001  0.683196864769713E+001
  0.231888788673874E-001 -0.291959096977304E+001  0.716620493193374E+001
  0.231888788673874E-001 -0.292159861872839E+001  0.716523575752919E+001
  0.231888788673874E-001 -0.292381489016220E+001  0.683584077200220E+001
  0.231888788673874E-001 -0.292766325787140E+001  0.716227295924880E+001
  0.231888788673874E-001 -0.293154732805343E+001  0.683965330663142E+001
  0.231888788673874E-001 -0.294935618436566E+001  0.684879932187890E+001
  0.231888788673874E-001 -0.294999782606247E+001  0.715086080469357E+001
  0.231888788673874E-001 -0.295170978569990E+001  0.714995022124293E+001
  0.231888788673874E-001 -0.295751568104881E+001  0.685317995506411E+001
  0.231888788673874E-001 -0.295928530554380E+001  0.714585261628020E+001
  0.231888788673874E-001 -0.296176481626380E+001  0.714448620681774E+001
  0.231888788673874E-001 -0.296937915732400E+001  0.714020688068332E+001
  0.231888788673874E-001 -0.297693592301344E+001  0.713582667956126E+001
  0.231888788673874E-001 -0.297842424211209E+001  0.686505276651649E+001
  0.231888788673874E-001 -0.298176753575007E+001  0.713295047515062E+001
  0.231888788673874E-001 -0.298245532293899E+001  0.686746403170253E+001
  0.231888788673874E-001 -0.298870405172225E+001  0.712870892077562E+001
  0.231888788673874E-001 -0.298948083488781E+001  0.687177480364321E+001
  0.231888788673874E-001 -0.299101192126311E+001  0.687273363696291E+001
  0.231888788673874E-001 -0.299377008963760E+001  0.687447940320102E+001
  0.231888788673874E-001 -0.299442849023549E+001  0.687489973571128E+001
  0.231888788673874E-001 -0.299699674219421E+001  0.712344697570906E+001
  0.231888788673874E-001 -0.299856275718738E+001  0.687757208891431E+001
  0.231888788673874E-001 -0.300950230584525E+001  0.688494233781470E+001
  0.231888788673874E-001 -0.301536608181615E+001  0.688909435779816E+001
  0.231888788673874E-001 -0.302020576539671E+001  0.689264213070616E+001
  0.231888788673874E-001 -0.302212996205930E+001  0.710591430797252E+001
  0.231888788673874E-001 -0.302412815579343E+001  0.710439410728503E+001
  0.231888788673874E-001 -0.302446189380959E+001  0.689586195914436E+001
  0.231888788673874E-001 -0.302562731001879E+001  0.689676112670229E+001
  0.231888788673874E-001 -0.302645566356483E+001  0.689740502745060E+001
  0.231888788673874E-001 -0.302660916604467E+001  0.689752479326374E+001
  0.231888788673874E-001 -0.303247822574214E+001  0.709778608512485E+001
  0.231888788673874E-001 -0.303431820286775E+001  0.690373099094752E+001
  0.231888788673874E-001 -0.303437579923794E+001  0.690377886570656E+001
  0.231888788673874E-001 -0.303523538069961E+001  0.690449621132725E+001
  0.231888788673874E-001 -0.303643880401836E+001  0.690550965171062E+001
  0.231888788673874E-001 -0.303650454358958E+001  0.709443467365568E+001
  0.231888788673874E-001 -0.304089677768124E+001  0.690936253460192E+001
  0.231888788673874E-001 -0.304198757843031E+001  0.708966951552193E+001
  0.231888788673874E-001 -0.304639967483581E+001  0.708564278480442E+001
  0.231888788673874E-001 -0.304882298519343E+001  0.708334840689442E+001
  0.231888788673874E-001 -0.305049485386326E+001  0.691827204918349E+001
  0.231888788673874E-001 -0.305070336177916E+001  0.691847640416345E+001
  0.231888788673874E-001 -0.305140461867180E+001  0.708083251558190E+001
  0.231888788673874E-001 -0.305655771556504E+001  0.707556057220786E+001
  0.231888788673874E-001 -0.305875891233867E+001  0.707319295450109E+001
  0.231888788673874E-001 -0.305916797767598E+001  0.692725552849440E+001
  0.231888788673874E-001 -0.305941418921386E+001  0.707247319703566E+001
  0.231888788673874E-001 -0.305959918914618E+001  0.692773130484506E+001
  0.231888788673874E-001 -0.306415407088672E+001  0.693296282209914E+001
  0.231888788673874E-001 -0.306562779108736E+001  0.706525479284167E+001
  0.231888788673874E-001 -0.306576422251172E+001  0.706508731797295E+001
  0.231888788673874E-001 -0.306684931217624E+001  0.706373966280573E+001
  0.231888788673874E-001 -0.306839979057606E+001  0.693823700079646E+001
  0.231888788673874E-001 -0.306842129603849E+001  0.706173513745532E+001
  0.231888788673874E-001 -0.307184000731007E+001  0.694286653000933E+001
  0.231888788673874E-001 -0.307260168473762E+001  0.705605680159238E+001
  0.231888788673874E-001 -0.307340410472547E+001  0.705489970679987E+001
  0.231888788673874E-001 -0.307361066478025E+001  0.694540212277070E+001
  0.231888788673874E-001 -0.307430341526943E+001  0.694642679662669E+001
  0.231888788673874E-001 -0.307562458564540E+001  0.705156259166801E+001
  0.231888788673874E-001 -0.307689564651433E+001  0.704955129786891E+001
  0.231888788673874E-001 -0.307692002649910E+001  0.704951192101838E+001
  0.231888788673874E-001 -0.307829600310661E+001  0.695276363619278E+001
  0.231888788673874E-001 -0.307860849739353E+001  0.695329587834225E+001
  0.231888788673874E-001 -0.257670576073022E+001  0.697137832543675E+001
  0.231888788673874E-001 -0.257763315935303E+001  0.697409987499730E+001
  0.231888788673874E-001 -0.257904305539386E+001  0.697889945240944E+001
  0.231888788673874E-001 -0.257990924528548E+001  0.701751121714681E+001
  0.231888788673874E-001 -0.258009945213268E+001  0.698338044433772E+001
  0.231888788673874E-001 -0.699323233641117E+000  0.700239836975540E+001
  0.231888788673874E-001  0.529941389420532E-002  0.700078089519606E+001
  0.231888788673874E-001  0.529599506896378E-002  0.700025056988766E+001
