  0.949905825052675E-001  0.283518054949027E+001  0.791063745756501E+001
  0.949905825052675E-001  0.331000658815014E+001  0.395143719987573E+001
  0.949905825052675E-001  0.338155225448242E+001  0.795743409795098E+001
  0.949905825052675E-001  0.341990697229132E+001  0.396063354447484E+001
  0.949905825052675E-001  0.386844275969514E+001  0.200271241221339E+001
  0.949905825052675E-001  0.337195170781011E+001  0.389752443370430E+001
  0.949905825052675E-001  0.234756204063556E+001  0.219897081055186E+001
  0.949905825052675E-001  0.225081829006852E+001  0.220869174005498E+001
  0.949905825052675E-001  0.192989134567525E+001  0.375816914415868E+001
  0.949905825052675E-001  0.124901754452287E+001  0.368255449816840E+001
  0.949905825052675E-001  0.113527138948995E+001  0.366908987301009E+001
  0.949905825052675E-001  0.947832413894932E+000  0.235370980042287E+001
  0.949905825052675E-001  0.874748492159187E+000  0.363717940534180E+001
  0.949905825052675E-001  0.574966095422446E+000  0.240164190394560E+001
  0.949905825052675E-001  0.527148575908147E+000  0.240806959193537E+001
  0.949905825052675E-001  0.493628180272910E+000  0.241261737794694E+001
  0.949905825052675E-001  0.406855484577304E+000  0.357544305832865E+001
  0.949905825052675E-001  0.155638672071091E+000  0.353938856437417E+001
  0.949905825052675E-001  0.987875238117142E-002  0.248268149440867E+001
  0.949905825052675E-001  0.953018354641322E-002  0.248273540115944E+001
  0.949905825052675E-001  0.119580018896870E-002  0.351597399534908E+001
  0.949905825052675E-001 -0.182230824985803E-001  0.248704567196827E+001
  0.949905825052675E-001 -0.124783169982691E+000  0.349605698125218E+001
  0.949905825052675E-001 -0.225187654615032E+000  0.252040870409498E+001
  0.949905825052675E-001 -0.240320021492998E+000  0.347706040750347E+001
  0.949905825052675E-001 -0.247259179652505E+000  0.252410466791336E+001
  0.949905825052675E-001 -0.484078883559458E+000  0.343426399168794E+001
  0.949905825052675E-001 -0.688425267756795E+000  0.260517118518886E+001
  0.949905825052675E-001 -0.694801589923247E+000  0.339353472713160E+001
  0.949905825052675E-001 -0.703493533056133E+000  0.339176379434205E+001
  0.949905825052675E-001 -0.719831114111800E+000  0.338841325619547E+001
  0.949905825052675E-001 -0.726094948757753E+000  0.261287903176782E+001
  0.949905825052675E-001 -0.731694789899858E+000  0.261403799479446E+001
  0.949905825052675E-001 -0.731788190453981E+000  0.261405735481341E+001
  0.949905825052675E-001 -0.762940430423849E+000  0.262056968099736E+001
  0.949905825052675E-001 -0.773536813344803E+000  0.262281046447298E+001
  0.949905825052675E-001 -0.793899644032495E+000  0.337284566887797E+001
  0.949905825052675E-001 -0.849486979986622E+000  0.263927861298725E+001
  0.949905825052675E-001 -0.851644720894220E+000  0.336024253011434E+001
  0.949905825052675E-001 -0.859183663097341E+000  0.264143557099081E+001
  0.949905825052675E-001 -0.927128002590198E+000  0.334307048172617E+001
  0.949905825052675E-001 -0.940986784326419E+000  0.333982341054441E+001
  0.949905825052675E-001 -0.947519279037255E+000  0.266171794135618E+001
  0.949905825052675E-001 -0.101349775176483E+001  0.332230140484318E+001
  0.949905825052675E-001 -0.109693190966525E+001  0.330087992671466E+001
  0.949905825052675E-001 -0.110832445706884E+001  0.329783539533649E+001
  0.949905825052675E-001 -0.121062124737123E+001  0.273104194329438E+001
  0.949905825052675E-001 -0.122812639994258E+001  0.326369985183053E+001
  0.949905825052675E-001 -0.127665469684508E+001  0.324854191668820E+001
  0.949905825052675E-001 -0.127892381128173E+001  0.324781046394610E+001
  0.949905825052675E-001 -0.129822975644062E+001  0.324149756689408E+001
  0.949905825052675E-001 -0.134800245990999E+001  0.277559536042974E+001
  0.949905825052675E-001 -0.134802570006263E+001  0.277560364567079E+001
  0.949905825052675E-001 -0.143307231402326E+001  0.319169315481398E+001
  0.949905825052675E-001 -0.144842176077753E+001  0.318517654852020E+001
  0.949905825052675E-001 -0.146941091586752E+001  0.282412479052619E+001
  0.949905825052675E-001 -0.148176441780003E+001  0.282983675779342E+001
  0.949905825052675E-001 -0.148707855280155E+001  0.316764625673725E+001
  0.949905825052675E-001 -0.149450946605699E+001  0.316406194341510E+001
  0.949905825052675E-001 -0.153335289112464E+001  0.314387971805059E+001
  0.949905825052675E-001 -0.153517585591251E+001  0.285713748252163E+001
  0.949905825052675E-001 -0.153963443806884E+001  0.314034359891083E+001
  0.949905825052675E-001 -0.158098531438720E+001  0.288563136118539E+001
  0.949905825052675E-001 -0.119011346759205E+001  0.289634063605142E+001
  0.949905825052675E-001 -0.121047133817383E+001  0.291346674372740E+001
  0.949905825052675E-001 -0.121417720417596E+001  0.291696346658970E+001
  0.949905825052675E-001 -0.121449305841087E+001  0.291726833010743E+001
  0.949905825052675E-001 -0.121970604738572E+001  0.292247290172310E+001
  0.949905825052675E-001 -0.123418685275530E+001  0.293922564596720E+001
  0.949905825052675E-001 -0.124019040184757E+001  0.294772233504315E+001
  0.949905825052675E-001 -0.124345414904152E+001  0.295298133665969E+001
  0.949905825052675E-001 -0.124515878306546E+001  0.295597712800737E+001
  0.949905825052675E-001 -0.125097353152883E+001  0.303174355847002E+001
  0.949905825052675E-001 -0.125129622516769E+001  0.296908038612593E+001
  0.949905825052675E-001 -0.125159809693186E+001  0.303012844237352E+001
  0.949905825052675E-001 -0.125350076559645E+001  0.297543791430841E+001
  0.949905825052675E-001 -0.125530556942151E+001  0.301773492152538E+001
  0.949905825052675E-001 -0.125576922249056E+001  0.301550299811208E+001
  0.949905825052675E-001 -0.125596899610089E+001  0.301443534456843E+001
  0.949905825052675E-001 -0.125628105283772E+001  0.298741230382804E+001
  0.949905825052675E-001 -0.125645303718770E+001  0.301144257833362E+001
  0.949905825052675E-001 -0.125708705085458E+001  0.299456949245281E+001
