  0.551787085497277E-001  0.162269918707908E+002  0.902864264911564E+000  0.950767162885647E+000 -0.998504843045694E+000 -0.111943940366651E+002  0.170143922120695E+001
  0.551787085497277E-001  0.144497094052482E+002 -0.197971492613230E+001 -0.982139372629234E+000  0.588819101885186E+000 -0.101212765957856E+002 -0.122634374266198E+000
  0.551787085497277E-001  0.113937184312756E+002 -0.468580450536770E+000  0.114748385231456E+001  0.486177220552555E+000 -0.940398187426437E+001 -0.276478522296578E+000
  0.551787085497277E-001  0.112963687356431E+002 -0.136022761999710E+001  0.546364032744293E-001 -0.494548362720103E+000 -0.100816670825650E+002 -0.503139482327342E-001
  0.551787085497277E-001  0.111043142404046E+002 -0.288641706160547E+000 -0.472868562990669E-001 -0.174307243265510E+000 -0.917725065461774E+001 -0.105928245839448E+001
  0.551787085497277E-001  0.110880608229305E+002  0.227031719940499E+000 -0.797510188462503E+000  0.574858222982101E+000 -0.106825472375760E+002  0.644031738558283E+000
  0.551787085497277E-001  0.110863318760423E+002 -0.951569871649262E+000  0.392545956217113E+000 -0.398784088896356E+000 -0.995880635533242E+001 -0.822583326906546E+000
  0.551787085497277E-001  0.108816178752321E+002 -0.993756250623143E+000  0.212179908796024E+000 -0.597394772548654E-002 -0.954972261599933E+001 -0.675925538237870E+000
  0.551787085497277E-001  0.107239125368772E+002  0.559279221906479E-001 -0.110238356551461E+001 -0.525626721932234E+000 -0.100481090495737E+002  0.193782907845659E+000
  0.551787085497277E-001  0.106610170843138E+002 -0.907195955494501E+000  0.266592736898744E+000 -0.121792788682590E+000 -0.989711906456123E+001 -0.743059616035275E+000
  0.551787085497277E-001  0.106323304986346E+002  0.272986625932667E+000  0.787739443257131E+000  0.650824887723658E+000 -0.946327774809160E+001  0.190384421664639E+000
  0.551787085497277E-001  0.104747025548768E+002  0.811128222793151E+000  0.736490552854335E+000  0.257407687923212E+000 -0.100275088027767E+002  0.133994188465920E+000
  0.551787085497277E-001  0.103805572654044E+002 -0.445558918735010E+000 -0.114848803961202E+000 -0.847013875169445E+000 -0.104516891419502E+002  0.240838846195345E+000
  0.551787085497277E-001  0.103647789026785E+002  0.510293915476311E+000 -0.737113590144197E+000 -0.133639376635195E+000 -0.104073390938277E+002 -0.433442759008081E+000
  0.551787085497277E-001  0.102015363072438E+002 -0.163202429840453E+000 -0.124570525890007E+000 -0.100068809073385E+000 -0.913201808059779E+001 -0.454523648683086E+000
  0.551787085497277E-001  0.996542801907326E+001  0.295048029164704E-001 -0.635340771166220E+000  0.602739753837760E+000 -0.100906542670899E+002  0.922565600902203E-003
  0.551787085497277E-001  0.996467913771738E+001 -0.115589828532606E+000 -0.279458800633442E+000 -0.661095653262521E+000 -0.984672711928837E+001 -0.472541571964555E+000
  0.551787085497277E-001  0.990822566821270E+001 -0.291391451733567E+000 -0.726169736118358E+000 -0.155419767771406E+000 -0.996258656351672E+001 -0.284699495828079E+000
  0.551787085497277E-001  0.948793276547507E+001 -0.215266647434767E+000  0.481654213392915E-001  0.330692142821860E-001 -0.954815477744030E+001  0.211258415298623E+000
  0.551787085497277E-001  0.942921390326678E+001  0.386175601429940E+000 -0.233227590560148E+000 -0.886277511550446E-001 -0.100251789687389E+002  0.166772324863047E+000
