  0.858881685789971E-001  0.175825950077707E+002  0.283199339722748E+001 -0.570932390261788E+000 -0.972913612000355E-001  0.189441188192561E-001 -0.101929631854316E+002
  0.858881685789971E-001  0.189929205557223E+002 -0.204924874979493E+001 -0.683630814286580E+000 -0.195568766449802E+001  0.108910554109358E+001 -0.964517810920565E+001
  0.858881685789971E-001  0.193413387413248E+002 -0.115557758895895E+001  0.269950917755436E+001  0.552394491949016E+000 -0.584433159073782E+000 -0.906056279969702E+001
  0.858881685789971E-001  0.209983753197493E+002  0.121008819318225E+001 -0.474405576724301E+000 -0.663055906750927E-001 -0.101681540806011E+001 -0.130135205152401E+002
  0.858881685789971E-001  0.195712371197123E+002 -0.141643139804521E+001 -0.475946615182636E+000 -0.259380507842630E+001  0.801566866945741E+000 -0.108824480011526E+002
  0.858881685789971E-001  0.160119307279615E+002 -0.128264890168706E+001 -0.193897710317146E+001 -0.328270583565811E+000 -0.113585590115395E+001 -0.101406939233644E+002
  0.858881685789971E-001  0.160081266422190E+002  0.114809291438679E+001 -0.191249859846664E+001 -0.410370755110563E-001 -0.440318477140806E+000 -0.112835141908417E+002
  0.858881685789971E-001  0.155942371613383E+002 -0.325867170131282E+000  0.963819197899113E+000  0.227622818060360E+001  0.442701892723889E-001 -0.104319032190793E+002
  0.858881685789971E-001  0.155834152722389E+002  0.225372923229889E+001  0.574546558644279E+000  0.631190052067524E+000  0.988272779601118E-003 -0.923434414969157E+001
  0.858881685789971E-001  0.154096119366445E+002  0.434827081383013E+000 -0.677215996056049E-001 -0.102018368563245E+001  0.806406983722610E+000 -0.120821860682978E+002
  0.858881685789971E-001  0.153150881449486E+002  0.183551825747217E+001  0.145614593366021E+001 -0.671751218614972E+000  0.982243904723390E-002 -0.957003676988200E+001
  0.858881685789971E-001  0.151140000570639E+002 -0.110807482212403E+001  0.819856774236769E+000 -0.152515969659672E+001  0.108962551368641E+001 -0.928500075305585E+001
  0.858881685789971E-001  0.149462541965887E+002 -0.500563561452537E+000 -0.155137759578622E+000 -0.133170218513040E+001 -0.855931922085844E-001 -0.119239231680624E+002
  0.858881685789971E-001  0.145885636295674E+002 -0.901936074895303E+000 -0.157025963601228E+000  0.127274213217743E+001 -0.112531699724749E+001 -0.870585102025902E+001
  0.858881685789971E-001  0.139154104555868E+002 -0.172444383197629E+000  0.250401295813909E+000 -0.194818653065829E+001  0.866780744493028E+000 -0.970530077700125E+001
  0.858881685789971E-001  0.134527660896111E+002  0.143842703038376E+001 -0.405574009068509E+000  0.804804907765750E+000 -0.917043230096830E+000 -0.926437853921765E+001
  0.858881685789971E-001  0.134458339971193E+002  0.900342414823847E+000 -0.636324002626104E+000  0.122127310467177E+001 -0.481305655541775E+000 -0.111479376440262E+002
  0.858881685789971E-001  0.134028233298770E+002 -0.319593586740012E-001  0.276419785162147E+000  0.100103295630256E+001  0.546346546390708E+000 -0.116838786094126E+002
  0.858881685789971E-001  0.133335475188969E+002  0.681083666955708E+000 -0.372622227225449E+000  0.131535932748748E+001 -0.108641388848396E+001 -0.107943390987071E+002
  0.858881685789971E-001  0.131629011836432E+002  0.457749707008830E-001  0.286871423032267E-001  0.332095973629876E+000  0.147342983793899E+001 -0.112997362534338E+002
  0.858881685789971E-001  0.128914888468850E+002  0.124193391649108E+000  0.128701313897139E+001 -0.137290332864396E+001  0.203112195075533E+000 -0.103227360885212E+002
  0.858881685789971E-001  0.127176969299636E+002 -0.592974472936554E+000  0.135055140731198E+001  0.544323562865735E+000 -0.190838523176041E+000 -0.899005134509160E+001
  0.858881685789971E-001  0.124273658379722E+002 -0.505770598627379E+000 -0.443019829063800E+000  0.833089426258645E+000 -0.754910808334138E+000 -0.876631376847183E+001
  0.858881685789971E-001  0.124246858295082E+002  0.497902105821289E+000  0.928122602139169E+000  0.619578314282933E+000 -0.283532512601596E+000 -0.112890750376323E+002
  0.858881685789971E-001  0.124075817831962E+002  0.112858294085525E+001  0.323815159511767E+000  0.417036135996838E+000  0.124695883967685E+001 -0.966711075016612E+001
  0.858881685789971E-001  0.123610578917979E+002 -0.861935016706681E+000  0.109144024462042E+001  0.862181681307064E+000  0.370122022844015E-001 -0.107019769401124E+002
  0.858881685789971E-001  0.116063859272693E+002 -0.104146311972465E+001  0.614479481967038E+000 -0.703723372918986E+000  0.171663573414087E+000 -0.106558011617005E+002
  0.858881685789971E-001  0.113228898608870E+002  0.109324554025444E+001  0.370838566462496E+000 -0.397430660474846E+000  0.613267586064261E+000 -0.105164776986236E+002
  0.858881685789971E-001  0.112668388369882E+002 -0.214140715070442E+000 -0.767286866284408E+000 -0.393313494933381E+000 -0.113490117605010E+001 -0.100131125596842E+002
  0.858881685789971E-001  0.108991683844007E+002 -0.508610390302948E-001 -0.851995064214442E+000  0.821432927984056E+000  0.329142452871658E+000 -0.104452120934545E+002
  0.858881685789971E-001  0.108554018175253E+002 -0.411831416029436E+000 -0.948635891243249E+000 -0.753081918366057E+000 -0.152935133388226E+000 -0.992267092849029E+001
  0.858881685789971E-001  0.107217334889730E+002 -0.346164977285142E-001  0.832310918700891E+000  0.684071681683790E+000 -0.715065204737897E-001 -0.939556543656855E+001
  0.858881685789971E-001  0.105773444953904E+002  0.343413501458656E-002  0.703059073953298E+000  0.656624661012643E+000 -0.540393571093318E-001 -0.106779226438360E+002
  0.858881685789971E-001  0.105423973831511E+002  0.462868314114587E+000 -0.205388546253026E+000  0.711006863088095E+000  0.512333377859818E+000 -0.105732052603854E+002
  0.858881685789971E-001  0.998248931542184E+001  0.431680051371536E+000 -0.350442135135189E+000  0.690079248373948E+000  0.179673411085446E-002 -0.100879433297928E+002
