  0.113978711273887E+000  0.209635128741948E+002  0.937565948530296E+001 -0.142642794782411E+000 -0.129875069805941E+001  0.255773431031171E+001 -0.177065561843546E+001
  0.113978711273887E+000  0.167002476076794E+002  0.105864292681989E+002  0.163735037584891E+001  0.981292659490180E+000  0.177418148436469E+001  0.612692021090496E+000
  0.113978711273887E+000  0.197429440196313E+002  0.107889610312990E+002  0.260135764317971E+001 -0.654072898555981E+000 -0.126473546698470E+001 -0.106614747238465E+001
  0.113978711273887E+000  0.167326508155534E+002  0.115497048185081E+002  0.195327985438644E+001 -0.720516615325785E+000  0.655267311393850E+000  0.614702226371264E+000
  0.113978711273887E+000  0.136981679061939E+002  0.963018952459315E+001  0.188688148515024E+001 -0.220302476977537E+000  0.860416627941241E+000  0.151165777950879E+000
  0.113978711273887E+000  0.161534600935880E+002  0.880987194361521E+001  0.110012641477211E+001 -0.128425448838655E+000 -0.205954401390080E+001 -0.281384436960678E+000
  0.113978711273887E+000  0.159209113439133E+002  0.857464905123702E+001 -0.259956555931225E+000  0.114689611600763E+001 -0.119789276490696E+001 -0.137186205451771E+001
  0.113978711273887E+000  0.157599562063863E+002  0.107659365583923E+002 -0.296320416370307E+000 -0.611620383368532E+000 -0.898376521869245E+000 -0.217139273400783E+001
  0.113978711273887E+000  0.154936128909800E+002  0.118464468233442E+002  0.576370875822853E+000 -0.273956501584721E+000  0.126405366687035E+001  0.943278571531053E+000
  0.113978711273887E+000  0.154715258413586E+002  0.892790615982645E+001 -0.916271191410679E+000 -0.155458822657616E+001  0.131350295884003E+001 -0.388803078529435E+000
  0.113978711273887E+000  0.137068260808319E+002  0.100628235454594E+002 -0.752999142483617E-001 -0.103719323284933E+001  0.141910784493936E+001 -0.119087656623109E+001
  0.113978711273887E+000  0.146260918815354E+002  0.102361303080810E+002  0.101418108252575E+001  0.468717778954115E+000  0.202765556126734E+001 -0.145953168842169E+000
  0.113978711273887E+000  0.138623018619641E+002  0.104805094046357E+002 -0.452276857412265E+000  0.127184618877568E+001 -0.383662532727698E-001 -0.161814961883314E+001
  0.113978711273887E+000  0.145166162814084E+002  0.101551593119460E+002  0.755495134230472E+000 -0.506080153922156E+000 -0.210280366195589E+001 -0.233416530055678E+000
  0.113978711273887E+000  0.139068156843790E+002  0.921992782033645E+001  0.180888490512374E+001 -0.767022720537568E+000  0.194438876030873E+000  0.459045549515182E+000
  0.113978711273887E+000  0.140369109909651E+002  0.923659141899755E+001 -0.327367377182703E+000  0.320380937437122E+000 -0.140581589996879E+001 -0.144173551945166E+001
  0.113978711273887E+000  0.139991754929087E+002  0.115451350953735E+002  0.204563921951689E+000 -0.137006581594230E+001 -0.115312510942481E+000 -0.700088554790945E+000
  0.113978711273887E+000  0.134954192043703E+002  0.995939668632438E+001 -0.129084713193275E+001  0.101044170382765E+001  0.102513385546878E+000  0.126751626978620E+001
  0.113978711273887E+000  0.134656210324251E+002  0.881440625387754E+001 -0.600631801951366E+000  0.791598669331322E+000  0.135848328604206E+001  0.194266096567546E+000
  0.113978711273887E+000  0.134589216800288E+002  0.878066651340266E+001 -0.132224959993609E+001 -0.369596879186268E+000 -0.943063288045998E+000  0.919128584527300E-001
  0.113978711273887E+000  0.134231508264303E+002  0.900165446691015E+001 -0.127522016258906E+001 -0.656396999452667E+000  0.787960055694477E+000  0.747761430945005E+000
  0.113978711273887E+000  0.133091758373653E+002  0.983516586595189E+001 -0.381856854390215E+000 -0.170569409304012E+001 -0.101311667594987E+001 -0.104918150034770E+000
  0.113978711273887E+000  0.131564469703603E+002  0.934637913685876E+001  0.852722439476850E-002 -0.857750859651844E+000 -0.194860705137501E-001  0.167441107492952E+001
  0.113978711273887E+000  0.131341368029611E+002  0.990643957313431E+001 -0.123840747655564E+001 -0.118575154272555E+001 -0.929957743083278E+000 -0.362652332756355E+000
  0.113978711273887E+000  0.123609913119513E+002  0.109581155613611E+002  0.175747012285683E+000 -0.777985150479189E+000 -0.334541378996960E-001  0.127135890485191E+001
  0.113978711273887E+000  0.122807927360614E+002  0.103901780194164E+002 -0.137507595325957E+000 -0.338263462301569E-001  0.106628495436657E+001  0.133497279103314E+001
  0.113978711273887E+000  0.121784133167959E+002  0.102650380622711E+002  0.475144586273466E+000  0.859128262697787E+000 -0.120747014077423E+001  0.704936110441487E+000
  0.113978711273887E+000  0.119281625283485E+002  0.106217220223308E+002  0.726870201048179E+000  0.138889695237921E+000 -0.105413268476298E+001  0.832713978236200E+000
  0.113978711273887E+000  0.118113021419291E+002  0.102054765605327E+002  0.103276421015107E+001  0.416464294270213E+000 -0.314073937931404E+000 -0.111400598395849E+001
  0.113978711273887E+000  0.117700168853767E+002  0.954492660493366E+001 -0.101384873140820E+001  0.947534796166323E+000 -0.397776291342872E+000 -0.538147136343170E+000
  0.113978711273887E+000  0.117024000533042E+002  0.105100846048138E+002  0.102268724262195E+001 -0.517621888570446E+000 -0.220047511740269E+000 -0.943708585325680E+000
  0.113978711273887E+000  0.116814668116831E+002  0.972061353412556E+001 -0.642645835611631E+000  0.140817980438412E+001 -0.379334255624997E-002 -0.134336373966669E+000
  0.113978711273887E+000  0.115013773423360E+002  0.915404704457494E+001  0.550806898019111E+000 -0.115837537590672E+000  0.940544150383900E+000 -0.628431169385344E+000
  0.113978711273887E+000  0.114731777191850E+002  0.944712625905325E+001 -0.125939182766899E+001 -0.562226424912900E+000  0.190580917414628E+000 -0.199086913576643E+000
  0.113978711273887E+000  0.113990779966601E+002  0.972442188142298E+001  0.823935312388357E-002  0.247263382526498E+000 -0.108967234777566E+001 -0.940827546572528E+000
  0.113978711273887E+000  0.112296963028889E+002  0.969422928057904E+001 -0.996942725008971E+000 -0.209457740245405E+000 -0.937437406600445E+000  0.173951156351933E+000
  0.113978711273887E+000  0.112210953591854E+002  0.997482178809804E+001  0.375396728089399E+000  0.129009973787675E+001  0.314879402842379E+000  0.355874991141320E+000
  0.113978711273887E+000  0.111516903881018E+002  0.101420825139991E+002 -0.125300391834351E+000 -0.999237629492242E+000 -0.774770704887949E+000 -0.572426363588448E+000
  0.113978711273887E+000  0.110916891190064E+002  0.101778992506000E+002  0.149507609485731E+000  0.112221338541693E+001 -0.539944947349461E+000 -0.545343643700321E+000
  0.113978711273887E+000  0.110761093004309E+002  0.104453724127698E+002  0.529872237445446E+000 -0.267079539598505E+000 -0.811784833260617E+000  0.822968224373369E+000
  0.113978711273887E+000  0.110659853477111E+002  0.104303089092628E+002 -0.126415534526672E+001 -0.679780673351615E-005  0.234723769343475E+000 -0.195576771028563E+000
  0.113978711273887E+000  0.108617557365739E+002  0.100332662819859E+002  0.326980981849530E+000  0.504188630677355E+000 -0.868331773393699E+000  0.745748585335150E+000
  0.113978711273887E+000  0.102767682534969E+002  0.103973356060124E+002  0.392963624301309E+000  0.412874497947371E+000 -0.600315750029338E+000  0.494209041633574E+000
  0.113978711273887E+000  0.102535163034262E+002  0.105406991272468E+002 -0.122461424941406E+000  0.876852168063849E-001  0.578697492740432E+000 -0.643583047651923E+000
  0.113978711273887E+000  0.101598711265117E+002  0.106061081895907E+002 -0.234046538036402E+000 -0.176549108782098E+000  0.245294180747905E+000 -0.676019269021729E+000
