  0.682936107070240E-001  0.226991476927931E+002 -0.803065060525682E+000 -0.115488331091970E+002  0.227139973089243E+001 -0.228548590505702E+001  0.288552091400874E+000
  0.682936107070240E-001  0.143223793567749E+002 -0.166808108874079E+001 -0.114367236562393E+002  0.393555771555285E+000  0.770627392116126E-001  0.354259552611808E+000
  0.682936107070240E-001  0.158606093577709E+002 -0.340926160809829E-003 -0.102729384398195E+002 -0.730636236012899E+000  0.244985795321018E+001 -0.247174467290122E+000
  0.682936107070240E-001  0.153099925696702E+002 -0.123149072800138E+001 -0.116736033962992E+002  0.101724853118498E+001 -0.309596499648777E-001 -0.875977409664110E+000
  0.682936107070240E-001  0.152773343673263E+002  0.139084371493183E+000 -0.114484160715686E+002  0.733060403151313E-001  0.192364758049825E+001 -0.514685988739046E+000
  0.682936107070240E-001  0.143967949526661E+002 -0.126797145038880E+001 -0.100663841820980E+002  0.239739615653313E+000 -0.350525001320975E+000  0.184794705068106E+001
  0.682936107070240E-001  0.143712991034110E+002 -0.107164624789726E+001 -0.101138711770345E+002  0.614316387363417E+000 -0.135975711042775E+000 -0.190385068427018E+001
  0.682936107070240E-001  0.143576735111148E+002  0.345477125471767E+000 -0.110010755628080E+002 -0.939329887922355E+000  0.148764968652201E+001  0.975366200070141E+000
  0.682936107070240E-001  0.143473956510111E+002 -0.348958598323321E-001 -0.109312226280519E+002 -0.193593289569665E+001 -0.549919076246454E+000  0.489254379515273E+000
  0.682936107070240E-001  0.136452726053551E+002  0.138577695428012E+000 -0.990368954562841E+001  0.183194671112464E+001  0.749591505067386E+000 -0.713786813514652E+000
  0.682936107070240E-001  0.135254962212961E+002  0.429995376569607E+000 -0.102465568556777E+002 -0.526735012015273E+000  0.855707501480580E-001 -0.195080815462023E+001
  0.682936107070240E-001  0.132554951359638E+002  0.166232458602641E+001 -0.104337676215377E+002  0.212182020421182E+000 -0.796915716937093E+000  0.659193867859351E+000
  0.682936107070240E-001  0.128643212486519E+002  0.384627243297430E+000 -0.105809073478069E+002 -0.931132406451411E+000 -0.148584869265949E+001 -0.338807552691158E+000
  0.682936107070240E-001  0.127187206504827E+002  0.385708435485668E+000 -0.877365742979120E+001  0.673603088620574E+000 -0.821432409346706E+000  0.864960055494194E+000
  0.682936107070240E-001  0.126966783696527E+002 -0.939437293307769E+000 -0.871346305468315E+001 -0.239821238968588E+000  0.950696287133141E+000  0.907504317024106E-001
  0.682936107070240E-001  0.126790888883667E+002 -0.133224295376856E+001 -0.102962743059720E+002 -0.607969257137619E+000 -0.269761270957503E-001  0.112102608132785E+001
  0.682936107070240E-001  0.121974634831310E+002  0.821647785519943E+000 -0.939852310286496E+001 -0.320745615135735E+000  0.128466092259463E+001  0.466869547279259E+000
  0.682936107070240E-001  0.114833747128146E+002  0.501420116887687E+000 -0.104948134531798E+002  0.110757762685062E+001  0.642114208578633E+000 -0.398356671014668E+000
  0.682936107070240E-001  0.109763508641759E+002 -0.491515175555165E+000 -0.109211582298068E+002 -0.130392217593489E+000  0.746615663711850E+000  0.349869690425628E+000
  0.682936107070240E-001  0.106494966266222E+002 -0.560008765603847E+000 -0.104972967460516E+002 -0.791269932802265E-001  0.441184719595228E+000  0.835638908571724E+000
  0.682936107070240E-001  0.105154583060683E+002  0.193490052850514E+000 -0.104665160274902E+002 -0.560692685628332E+000  0.855397386577543E+000 -0.157849272673062E+000
  0.682936107070240E-001  0.104211456048279E+002  0.346755244586113E+000 -0.100413830964496E+002  0.138654154736727E+000  0.101788322889169E+001  0.233446503886192E+000
  0.682936107070240E-001  0.102556122863624E+002 -0.133837194652884E+000 -0.980814414414522E+001 -0.941263050759012E+000 -0.281182818014301E+000  0.215559695552543E+000
  0.682936107070240E-001  0.974818489630717E+001  0.720367558707764E+000 -0.986714494646910E+001 -0.111671191983135E+000  0.849679115252826E-001  0.502959070428517E-001
