  0.137375151594421E+000  0.265884278412796E+002 -0.258300880594348E+000 -0.220691932015185E+001  0.810703443730945E+001  0.304342363009503E+001  0.121146229154228E+001
  0.137375151594421E+000  0.213415129304573E+002  0.960891306829851E+000 -0.299526174169661E+001  0.940757552109174E+001  0.165904546472937E+000  0.137066827199287E+001
  0.137375151594421E+000  0.136890534665100E+002  0.742162220734819E+000  0.106581127898671E+000  0.105305045059959E+002 -0.148622688403753E+001 -0.120299561679803E+001
  0.137375151594421E+000  0.164548618902657E+002 -0.608852898483718E-001  0.685868730193860E+000  0.125695335639307E+002  0.396434828400693E+000 -0.178017738738852E+000
  0.137375151594421E+000  0.189136859109933E+002 -0.196427963575300E+001 -0.611860820288982E+000  0.120496138211412E+002 -0.344260116633983E+000 -0.108263594268344E+001
  0.137375151594421E+000  0.184980305501531E+002 -0.565830471239082E-001 -0.153222428711799E+001  0.108580990942052E+002  0.617500810087762E+000 -0.241662802369653E+001
  0.137375151594421E+000  0.178750801122164E+002 -0.124740252068732E+001 -0.853290002528354E+000  0.124507770852945E+002 -0.598255173692280E+000  0.193288200580398E+000
  0.137375151594421E+000  0.166995478983103E+002 -0.189348444373316E+000 -0.475645405350711E+000  0.922863490265949E+001  0.177970884341720E+001 -0.186700388336854E+001
  0.137375151594421E+000  0.172850262903277E+002 -0.778027860851473E+000  0.866483550563359E+000  0.113919999380844E+002  0.149785196628215E+001  0.159946726196593E+001
  0.137375151594421E+000  0.171012477023752E+002 -0.305934557815419E+000 -0.501448650585324E+000  0.102940933447642E+002  0.271596117466547E+001  0.322303691825041E+000
  0.137375151594421E+000  0.170301879105035E+002  0.247099035332489E+001  0.122152893589730E+001  0.986858066693587E+001 -0.420915500012363E+000  0.220080466520940E+000
  0.137375151594421E+000  0.168581551173562E+002 -0.143483605922398E+000  0.229735028973860E+001  0.112689389867876E+002 -0.502814393008919E+000 -0.712274820818749E+000
  0.137375151594421E+000  0.160596826701368E+002  0.183694290897975E+000  0.926813721608873E+000  0.118300191264474E+002 -0.789907493107698E+000 -0.141585529634497E+001
  0.137375151594421E+000  0.159789578539150E+002 -0.178106264952334E+000 -0.201391374146398E+001  0.958494315789999E+001 -0.149245351223649E+001  0.549829477051233E+000
  0.137375151594421E+000  0.158934289327257E+002  0.100158871687783E+001  0.185302819832923E+001  0.107893803114198E+002 -0.111115278301010E+001 -0.639819002414335E+000
  0.137375151594421E+000  0.158358813046947E+002  0.608669095783192E+000 -0.137238705751767E+001  0.110917776486802E+002 -0.304471633590794E+000  0.176292094520014E+001
  0.137375151594421E+000  0.152523383414532E+002  0.672320005785167E+000  0.114642605596151E+001  0.854646598180220E+001  0.424850874726687E+000 -0.141541043857455E+001
  0.137375151594421E+000  0.152337123681173E+002  0.178884702236375E+001  0.125016528127503E+000  0.116538576883029E+002 -0.240017218835483E+000  0.189395659532366E+000
  0.137375151594421E+000  0.148116681411652E+002  0.150365960122668E+001  0.121204188476094E+001  0.972599913805476E+001 -0.912731505125564E-001  0.134493041529709E+001
  0.137375151594421E+000  0.145283649446837E+002 -0.218681162681164E+001  0.546871355099285E+000  0.103592768652694E+002  0.290612413417811E+000 -0.210311202031676E+000
  0.137375151594421E+000  0.143987512356384E+002  0.248175182115290E+000  0.143934523352343E+001  0.111063466759529E+002  0.132681163022527E+001 -0.302701522648903E+000
  0.137375151594421E+000  0.137718639023057E+002 -0.153717514237600E+001  0.228005491372414E+000  0.102700412915509E+002  0.100184862767841E+001  0.104449110857906E+001
  0.137375151594421E+000  0.137705549148854E+002  0.610825077115898E+000  0.108259641647307E+001  0.113841255385851E+002  0.943879989606458E+000  0.478888677775714E+000
  0.137375151594421E+000  0.136413319997351E+002  0.114731479780509E+001 -0.986963771600564E+000  0.942305579666755E+001 -0.127798309005988E+001 -0.442054910317658E+000
  0.137375151594421E+000  0.132309670826117E+002 -0.792438052764155E+000 -0.249982117056895E+000  0.827379923325604E+001 -0.199407968005843E+000 -0.575847201466217E+000
  0.137375151594421E+000  0.132293736237832E+002  0.543594188555929E+000 -0.474659912205595E+000  0.107700796441922E+002 -0.929819540958938E+000 -0.143582888273685E+001
  0.137375151594421E+000  0.129869358568849E+002  0.694467211068279E+000  0.733488422988380E+000  0.112623012778170E+002  0.827660373158963E+000 -0.706282055311561E+000
  0.137375151594421E+000  0.129287061887502E+002  0.899402843738649E+000 -0.930506758052822E+000  0.973413871085607E+001  0.590134721740071E+000  0.128281383673851E+001
  0.137375151594421E+000  0.127959784911942E+002 -0.701546928428471E+000 -0.614283896627292E+000  0.855006942638947E+001 -0.195498483180913E+000  0.772374284584799E+000
  0.137375151594421E+000  0.126669651717686E+002  0.829618563473744E-001  0.129735097272619E+001  0.880106257483676E+001 -0.544895010610112E+000  0.230686153972975E+000
  0.137375151594421E+000  0.124547580633132E+002  0.338233825134765E+000  0.540340514981352E-001  0.105314892835842E+002 -0.156347296586460E+001  0.648939410519624E+000
  0.137375151594421E+000  0.123882011042831E+002 -0.609442273577734E+000  0.130413327028581E+001  0.932609134780456E+001  0.794329168479784E+000  0.203766045613101E+000
  0.137375151594421E+000  0.123332603818914E+002 -0.146128842396394E+001  0.601509264571817E+000  0.104725058384357E+002 -0.402048331933855E-001  0.649476404883238E+000
  0.137375151594421E+000  0.122772055846552E+002  0.600251494241476E+000 -0.112950989850204E+001  0.105362661998912E+002  0.592964635942714E+000  0.901408502750456E+000
  0.137375151594421E+000  0.122521689394885E+002 -0.987444262286239E+000 -0.117293232029795E+000  0.113142016746502E+002 -0.584966259316687E+000 -0.683239917417211E-001
  0.137375151594421E+000  0.121142919747359E+002  0.620013745108849E-002 -0.125308642855830E+001  0.103946766999447E+002 -0.808179547624825E+000  0.738727774534993E+000
  0.137375151594421E+000  0.120593529990683E+002 -0.306172179260798E+000  0.948505260219576E-001  0.869159543400065E+001  0.248575698655252E+000 -0.996753357201108E+000
  0.137375151594421E+000  0.120223095802698E+002  0.117477590256712E+000  0.736847941618777E-001  0.980989758609299E+001 -0.314662160750153E+000  0.163662537311952E+001
  0.137375151594421E+000  0.118362567507405E+002 -0.797325927407812E+000  0.105843447344405E+001  0.995394884363775E+001 -0.520369423646173E+000 -0.786100631938531E+000
  0.137375151594421E+000  0.117898049829306E+002  0.106475474220143E+001  0.652801631599324E+000  0.971081227876840E+001 -0.935813833466028E+000 -0.284938503202426E+000
  0.137375151594421E+000  0.117558948945857E+002 -0.214271210051621E+000  0.121016992989595E+001  0.942022821528592E+001  0.423710748310810E-001 -0.847440571087247E+000
  0.137375151594421E+000  0.116294178176816E+002  0.419700808083775E+000  0.896659049540119E+000  0.106099233229441E+002  0.839700074190489E+000 -0.618695071695115E+000
  0.137375151594421E+000  0.115882924324067E+002 -0.665147388226281E+000  0.215812070064814E+000  0.943877675939538E+001  0.121056076471602E+001  0.359836507104951E+000
  0.137375151594421E+000  0.115571368622171E+002 -0.333808235712318E+000  0.325159532102177E+000  0.994017218996080E+001 -0.102006685057050E+001 -0.105189311440716E+001
  0.137375151594421E+000  0.115380093651737E+002  0.718818072328958E+000 -0.520216789341703E+000  0.923096150757586E+001 -0.518692365295905E+000  0.837160158787455E+000
  0.137375151594421E+000  0.115256187232420E+002  0.873738183560945E+000 -0.738346329748708E+000  0.921137198071985E+001 -0.587179635203846E+000 -0.246871623192391E+000
  0.137375151594421E+000  0.115154382917891E+002 -0.703751961531722E-001  0.725277335250667E+000  0.103496016582416E+002 -0.114351293002592E+001 -0.604342566677829E+000
  0.137375151594421E+000  0.113656826196222E+002  0.114893128992350E+001  0.552146163082881E+000  0.967022497768571E+001 -0.134688453555043E-002 -0.665308510213620E+000
  0.137375151594421E+000  0.113640117981242E+002 -0.493199438949190E+000  0.340682806769088E+000  0.113330387200458E+002 -0.152232342467599E+000  0.123081637278531E+000
  0.137375151594421E+000  0.112897948398421E+002 -0.218070192486536E+000  0.318987251172373E-001  0.105448256160931E+002  0.221893664819078E+000 -0.130604962380535E+001
  0.137375151594421E+000  0.111577384026567E+002  0.120151614745222E+001  0.707493987334409E+000  0.101442718344181E+002 -0.131219976672270E-001 -0.563713302848399E-001
  0.137375151594421E+000  0.111310427946144E+002 -0.114646529394449E-001 -0.710463386412755E+000  0.104353270028702E+002  0.109468215837141E+001  0.221199397790770E+000
  0.137375151594421E+000  0.110795608003385E+002 -0.611000582754698E+000 -0.833537039065533E-001  0.103378697174052E+002  0.117561421022147E+001 -0.116966657625703E+000
  0.137375151594421E+000  0.110483756613628E+002  0.921381722515832E+000 -0.729115246446348E+000  0.103924354474298E+002  0.882366004974386E-001  0.562712830902711E+000
  0.137375151594421E+000  0.109862197743310E+002 -0.789048153607816E+000  0.162124295340320E+000  0.109644702237005E+002 -0.275188673605264E+000  0.376857463701164E+000
  0.137375151594421E+000  0.108976259775083E+002 -0.243294435724543E+000 -0.411238592855554E+000  0.109092368856221E+002  0.461379051455289E+000 -0.663587928955714E+000
  0.137375151594421E+000  0.108805049830865E+002  0.485243500523168E+000 -0.730826398249604E+000  0.949670843300308E+001  0.166513579399108E+000 -0.800326182457354E+000
  0.137375151594421E+000  0.108126936011896E+002 -0.685412521397367E+000 -0.182425096550432E+000  0.107450940224000E+002 -0.215216023474234E+000 -0.720247172730900E+000
  0.137375151594421E+000  0.107096289697688E+002  0.388163270657643E+000  0.381795000870312E+000  0.109404382677699E+002 -0.378277175585282E-001 -0.581335031322773E+000
  0.137375151594421E+000  0.106568476654302E+002  0.605891245586498E+000 -0.629291584099384E+000  0.101304654547394E+002 -0.820642599280745E+000  0.117791016007985E+000
  0.137375151594421E+000  0.106142667293090E+002  0.500808194919230E+000 -0.977498124258112E+000  0.102800463496758E+002 -0.103455621044759E+000 -0.359779019320754E+000
  0.137375151594421E+000  0.105091847351508E+002  0.578471604521546E+000  0.776954455419144E+000  0.102257334964007E+002 -0.299049047533373E-002  0.574932366144147E+000
  0.137375151594421E+000  0.101364067784584E+002 -0.365568730015355E+000 -0.771710873463157E+000  0.104257818259411E+002 -0.150545280991402E+000 -0.117852589682400E+000
  0.137375151594421E+000  0.100418504535040E+002  0.682391093141305E+000 -0.446029082697635E+000  0.969682752641201E+001 -0.299082899715181E+000  0.806315397537531E-001
  0.137375151594421E+000  0.992969557126369E+001 -0.348039462191849E-001 -0.104652409331933E+000  0.103740742213938E+002  0.704174563531296E+000  0.303897118659691E+000
  0.137375151594421E+000  0.986444445053775E+001  0.502669592174705E+000  0.640680237943627E-001  0.105481844016752E+002  0.313453639902278E+000 -0.139708143331035E+000
  0.137375151594421E+000  0.958219495224857E+001  0.198814682688287E+000 -0.182688268012953E+000  0.946794189953829E+001  0.177483125835380E+000  0.729469441210853E-001
  0.137375151594421E+000  0.954866051379519E+001  0.587955814652190E-001 -0.302426014807509E+000  0.981470912340004E+001  0.247180305166886E+000 -0.411006027574658E+000
  0.137375151594421E+000  0.949341070001333E+001  0.216790733182016E+000  0.698314854192787E-001  0.100217461896476E+002 -0.248145530429014E-001 -0.501060925247856E+000
  0.137375151594421E+000  0.931136009106103E+001 -0.167814290628243E+000  0.125038348978372E+000  0.101988410766570E+002 -0.109126301448725E-001  0.196269393684339E+000
