  0.112835056144952E+000  0.212184993688140E+002 -0.701248350294037E+000 -0.215255886692599E+001 -0.902837620079943E+000  0.131036238536524E+001  0.120908586186502E+002
  0.112835056144952E+000  0.199679004417479E+002  0.536927231792994E+000 -0.716273686021864E+000  0.206424322143298E+001 -0.223296780842784E+001  0.914564003285153E+001
  0.112835056144952E+000  0.164507943918286E+002 -0.407951813626227E+000  0.499184231468021E+000  0.193188953020857E+001  0.132818178750918E+001  0.111616950817637E+002
  0.112835056144952E+000  0.185568630676819E+002  0.163802108450568E+001  0.124861259275878E+001 -0.127432171091556E+000  0.200288670982243E+001  0.110476340606060E+002
  0.112835056144952E+000  0.178438309323952E+002  0.128047418323817E+000  0.222224898399689E+001 -0.157591000911761E+001 -0.982629384037622E+000  0.105006056820719E+002
  0.112835056144952E+000  0.165780890765548E+002  0.347395601561502E+000  0.149002505718033E+001 -0.258019164882221E+000 -0.117318486077881E+001  0.810134027206256E+001
  0.112835056144952E+000  0.175208217958044E+002 -0.146253659472406E+001  0.696836531614125E-001  0.158207042008997E+001 -0.105793474293561E+001  0.116016849337179E+002
  0.112835056144952E+000  0.173515458977041E+002  0.159269976293296E+001  0.774252971519928E+000  0.143215060832866E+000  0.901882417930075E+000  0.795253866520453E+001
  0.112835056144952E+000  0.173480703561962E+002  0.954613147153424E+000  0.112201652671212E+001 -0.170226393595141E+001 -0.174746357547887E+001  0.101927335516976E+002
  0.112835056144952E+000  0.170849759246636E+002 -0.845545164774968E+000  0.103773013635732E+001 -0.226640618019040E+001  0.807023653942174E+000  0.105620284507131E+002
  0.112835056144952E+000  0.168954356309876E+002  0.116124166286134E+001  0.511687496622997E+000  0.212732660175034E+001  0.787120224954819E+000  0.109750216849527E+002
  0.112835056144952E+000  0.168573384095772E+002  0.856431279517182E+000 -0.906633064388792E+000 -0.219565720378969E+001  0.105356798101052E+001  0.957387914814231E+001
  0.112835056144952E+000  0.162069388828745E+002 -0.214341910506492E+001 -0.424347864528073E+000 -0.443161865954508E+000 -0.142925646780800E+001  0.993619960396956E+001
  0.112835056144952E+000  0.159865217444392E+002  0.669058844890536E+000  0.275151452741241E+000 -0.130532622149829E+000 -0.219353863248164E+001  0.112021388667229E+002
  0.112835056144952E+000  0.158292676701331E+002 -0.479322967699751E+000 -0.594676743139892E+000  0.781452450246391E+000  0.883714045143911E+000  0.784016830370751E+001
  0.112835056144952E+000  0.154504402949070E+002  0.258689096015431E+000 -0.569948040271854E+000 -0.177521362310281E+001  0.145293226470986E+001  0.107790369518633E+002
  0.112835056144952E+000  0.154224698588223E+002  0.117512677013421E+001  0.128661314926683E+001  0.174584515884560E+001 -0.307755017129253E+000  0.976740650097138E+001
  0.112835056144952E+000  0.153717169684661E+002  0.779990149806054E-002  0.209890375460853E+001  0.122257971330904E+001 -0.275110823349152E+000  0.104544080834752E+002
  0.112835056144952E+000  0.149628352176054E+002  0.250176901103657E+000 -0.165477610290039E+001 -0.122858403070737E+001  0.608185677413921E+000  0.895440499510470E+001
  0.112835056144952E+000  0.145742660374705E+002  0.441200504487249E+000  0.184307799314769E+001  0.684839470105629E-001  0.105082796274020E+001  0.108272586494947E+002
  0.112835056144952E+000  0.145074143517749E+002 -0.139839490826566E+001 -0.435468166931564E+000 -0.176837971090976E+001 -0.100523155225503E+000  0.101887232607823E+002
  0.112835056144952E+000  0.144688745112473E+002 -0.389464292425792E+000  0.335219664968236E+000 -0.451366448649111E+000 -0.199063938456170E+000  0.121845082736819E+002
  0.112835056144952E+000  0.140201805468732E+002  0.112968769444299E+001  0.424544113720700E-001 -0.250956544521735E+000  0.394532664417042E-001  0.118676891613259E+002
  0.112835056144952E+000  0.139008422107808E+002  0.947677771260324E+000 -0.710013666441057E+000 -0.174273723145778E+001 -0.430594149701925E+000  0.102944485258809E+002
  0.112835056144952E+000  0.137593047563011E+002 -0.406172620972782E+000  0.726908873988414E+000  0.600585903428964E+000  0.124865531349064E+001  0.860117792559690E+001
  0.112835056144952E+000  0.135891727564512E+002  0.101030895257845E+001  0.675928536351407E+000 -0.125736014862895E+001  0.976066420014263E+000  0.937668333982597E+001
  0.112835056144952E+000  0.135750940771385E+002  0.295287934254254E+000 -0.199080319822770E+000 -0.863211170581977E+000  0.137927640769549E+001  0.112693872038870E+002
  0.112835056144952E+000  0.135373762244531E+002  0.372969473914971E+000  0.104729824693695E+001  0.847365639041570E+000  0.959431758913361E+000  0.878611647195586E+001
  0.112835056144952E+000  0.133166554408458E+002  0.180534824814565E+000  0.146193141236288E+001  0.425755928716860E+000 -0.947827886008412E+000  0.906309657966139E+001
  0.112835056144952E+000  0.132695348165800E+002  0.815681544775479E+000 -0.474207942563851E+000 -0.723405224165425E+000 -0.145849382570404E+000  0.116264540474632E+002
  0.112835056144952E+000  0.129927727245856E+002 -0.106714312685104E+001 -0.131998484401985E+001 -0.807021398754458E+000 -0.413058182329458E+000  0.968324717700631E+001
  0.112835056144952E+000  0.129646671354803E+002 -0.146832281324733E+001 -0.250753678011080E+000  0.375301723083794E-001 -0.828764665588594E+000  0.906824191565983E+001
  0.112835056144952E+000  0.128751288905695E+002  0.247365192562903E+000 -0.106025316929737E+001  0.406596603899921E+000 -0.735627313355920E-001  0.847366944494927E+001
  0.112835056144952E+000  0.128356319344789E+002 -0.129348243180075E+000  0.489275325039344E+000  0.133066348957640E+001  0.866554856917304E+000  0.906804364469819E+001
  0.112835056144952E+000  0.126091989038861E+002  0.332396850567342E+000  0.427366303947416E+000  0.101006881126528E+001 -0.140956941328894E+001  0.103457730664063E+002
  0.112835056144952E+000  0.125345250415962E+002 -0.102490081445553E+001 -0.467170174360348E+000 -0.601103798771305E-001 -0.537154054596215E+000  0.113357852829433E+002
  0.112835056144952E+000  0.122957498884099E+002  0.104303923260063E+001 -0.665309880090724E+000  0.616306824072389E+000 -0.633452287504511E+000  0.910854019881440E+001
  0.112835056144952E+000  0.120832464748479E+002  0.118756611538581E+001  0.323337910531848E+000 -0.243829828144825E+000 -0.848904977915367E+000  0.922610865531463E+001
  0.112835056144952E+000  0.117096207945014E+002  0.493926499216684E+000  0.653092320566756E+000  0.411509000238169E+000 -0.129627407174324E+001  0.100087390097941E+002
  0.112835056144952E+000  0.116711485636385E+002 -0.983156781232381E+000  0.646695469908487E+000 -0.404841603629713E+000 -0.112227413480070E-002  0.109659466655979E+002
  0.112835056144952E+000  0.113814647992776E+002  0.243784465448925E+000 -0.110007473522576E+001 -0.835262063588004E+000 -0.414889596501432E+000  0.977046114402961E+001
  0.112835056144952E+000  0.113765459427561E+002  0.368892403689081E+000 -0.140582913938779E+000  0.132769522985495E+001  0.916246702854551E-002  0.948187175782753E+001
  0.112835056144952E+000  0.113247431006091E+002  0.326464994324439E+000  0.516805965432667E+000  0.722998125959911E+000  0.875927356359561E+000  0.931318492563445E+001
  0.112835056144952E+000  0.113026563658439E+002 -0.329711404082353E+000 -0.632673074908006E+000  0.240977939371007E+000 -0.101539323044172E+001  0.928223093936050E+001
  0.112835056144952E+000  0.111512185647371E+002 -0.111737804328879E+001  0.610499158181312E-001 -0.377607387992782E+000  0.706101056199266E+000  0.102615461867676E+002
  0.112835056144952E+000  0.110319104896469E+002  0.809544167900576E+000  0.683399350840048E+000 -0.578402386677226E+000 -0.183769855586895E+000  0.105931340863189E+002
  0.112835056144952E+000  0.108250787633026E+002  0.767124758955546E-001  0.125731160678954E+001 -0.481608857270288E-001 -0.133990395094365E+000  0.101694203465899E+002
  0.112835056144952E+000  0.107458536639662E+002 -0.455481605067831E-001  0.647640728443704E+000  0.975036605472688E+000  0.387379886346984E+000  0.101849205924090E+002
  0.112835056144952E+000  0.107241237821757E+002  0.116124910368811E+000  0.341660584797673E+000  0.153521126623886E+000  0.117133938588811E+001  0.100944288455079E+002
  0.112835056144952E+000  0.107162489410913E+002  0.686186804388186E+000 -0.919304680646192E+000  0.652877966986551E-001 -0.501673598021455E-001  0.954821363203082E+001
  0.112835056144952E+000  0.105713593868639E+002  0.758977693837181E+000  0.274810824039776E+000 -0.755512412206016E+000  0.118884249991218E+000  0.103814098270522E+002
  0.112835056144952E+000  0.104451530351437E+002 -0.545827508996830E+000 -0.696975329671190E+000  0.161353117309929E+000 -0.136266845190569E+000  0.934619426296094E+001
  0.112835056144952E+000  0.104438823686519E+002 -0.647075410904250E+000  0.161891720553001E+000  0.257008225318458E+000  0.716955581016279E+000  0.952093529978413E+001
  0.112835056144952E+000  0.103989556637101E+002 -0.310263457061097E-001  0.710231650141388E+000  0.469747464257040E-001  0.674564411103205E+000  0.104969254764491E+002
  0.112835056144952E+000  0.102960671909210E+002 -0.962393468693179E-001  0.633567962294961E+000 -0.594952295037871E+000 -0.568906150959194E+000  0.101356062025566E+002
  0.112835056144952E+000  0.101951579450243E+002  0.396102753128055E+000 -0.492162157004728E+000  0.597134386207159E+000 -0.805382860872470E-001  0.950644580597715E+001
  0.112835056144952E+000  0.995732660998073E+001  0.570933234261446E-001 -0.663547846658474E-001  0.393220662197528E+000 -0.910134740699533E-001  0.922710108599846E+001
  0.112835056144952E+000  0.984221329523346E+001 -0.234945310582155E+000  0.630982458568923E-001  0.481496951775270E+000  0.283111989390925E+000  0.946928768387552E+001
  0.112835056144952E+000  0.971289421105890E+001  0.175017443278676E+000  0.350197948419407E+000 -0.634863595380182E-001 -0.257717836898408E+000  0.945246902445595E+001
  0.112835056144952E+000  0.957839424066898E+001 -0.867381233896154E-001  0.224201049068725E+000  0.570363586421308E+000 -0.343652059205510E-001  0.100687292374193E+002
  0.112835056144952E+000  0.936925657635874E+001 -0.323553934186016E+000  0.134439541559132E+000 -0.105926759940367E+000  0.612584654158184E-001  0.979472694381978E+001
