  0.137676532695788E+000  0.137795028547184E+002 -0.853964073277865E+000  0.126436571362496E+001  0.130112734670905E+001  0.106990734868867E+002 -0.283912158968050E+000
  0.137676532695788E+000  0.170353434676013E+002  0.123514617349582E+001  0.106224050509479E+001  0.205740898780382E+001  0.109626480817404E+002 -0.179983617628679E+000
  0.137676532695788E+000  0.224411466263473E+002  0.112123305462980E+001  0.192932698622051E+001 -0.612772302733646E+000  0.124092137197138E+002 -0.144654570252466E+001
  0.137676532695788E+000  0.227856710727915E+002  0.240956605000260E+001 -0.196413235669190E+001  0.462658125969895E+000  0.884090339779246E+001 -0.154107228968682E+001
  0.137676532695788E+000  0.171452352757395E+002 -0.958736543096208E+000  0.214280650085469E+001 -0.984423506668364E-001  0.948092511592554E+001 -0.147170814118759E+001
  0.137676532695788E+000  0.174197763619135E+002 -0.169524729563305E+001  0.492812730098116E+000 -0.839206798527307E+000  0.118557966092132E+002  0.982554906408424E+000
  0.137676532695788E+000  0.175101663736914E+002  0.215898607696267E+001  0.563988556099687E+000  0.239592230064837E+000  0.106003451565504E+002 -0.170987085068248E+001
  0.137676532695788E+000  0.178798056045244E+002 -0.925630919963098E+000 -0.169969900251808E+001 -0.173714421077016E+001  0.965092615356723E+001 -0.134355067416502E+001
  0.137676532695788E+000  0.155977375883480E+002  0.528780723818990E+000 -0.143265120759977E+001  0.198046195762435E+001  0.963525823016288E+001 -0.144870961619091E+000
  0.137676532695788E+000  0.155079745496137E+002  0.103906283476010E+001  0.462751783783645E+000  0.111198481717580E+001  0.805856875289093E+001 -0.138321757910326E+000
  0.137676532695788E+000  0.141654266147303E+002  0.381099545221630E+000  0.881241046461298E+000  0.503090524144397E+000  0.869561583165496E+001  0.144903433473269E+001
  0.137676532695788E+000  0.152377595413872E+002  0.124206560003208E+001 -0.552758641874703E+000 -0.913375465537612E+000  0.866204541142024E+001  0.125528001507337E+001
  0.137676532695788E+000  0.151958486994970E+002 -0.235723919408272E+000 -0.199081036285500E+001  0.922471600172528E+000  0.109859700023962E+002 -0.405562574294130E+000
  0.137676532695788E+000  0.150685398708428E+002  0.351125725225728E+000 -0.668272474159792E-001 -0.507789357431534E-001  0.889122125419335E+001 -0.212589524093165E+001
  0.137676532695788E+000  0.149714325560381E+002  0.660658328555940E+000  0.185442799220627E+001  0.402830713539743E+000  0.111317433971263E+002 -0.680851612256944E+000
  0.137676532695788E+000  0.149248702234262E+002 -0.119652270930652E+001 -0.109831081313580E+001  0.120687307202425E+001  0.111253558315312E+002  0.612015764260711E+000
  0.137676532695788E+000  0.142333667081633E+002 -0.288544948192296E+000  0.119135319781820E+001  0.236910823053151E+000  0.977738988811232E+001 -0.185356919132878E+001
  0.137676532695788E+000  0.145709366966820E+002  0.105548617750245E+001  0.427360158285325E+000  0.184222174980971E+001  0.108047332659652E+002 -0.208535330397233E+000
  0.137676532695788E+000  0.143267445792013E+002  0.965143117578194E+000  0.861001736440613E+000  0.907387925525157E+000  0.906654663675793E+001 -0.133035558812502E+001
  0.137676532695788E+000  0.142533613204545E+002  0.105209315036554E+000 -0.169693468454000E-001  0.175776223804525E+001  0.956060829152686E+001  0.133034802616913E+001
  0.137676532695788E+000  0.134662281800784E+002  0.416204374793367E+000 -0.175567066921499E+001 -0.809789176434975E+000  0.103884029234128E+002  0.463273058255979E+000
  0.137676532695788E+000  0.134571132981335E+002  0.248918141260432E+000  0.894868929224543E+000  0.267563710225986E+000  0.883353102579981E+001  0.140454160413466E+001
  0.137676532695788E+000  0.134305083356705E+002 -0.150083213002766E+000 -0.129682924441529E+001 -0.128287360714256E+001  0.906993571901393E+001 -0.161392952010779E+000
  0.137676532695788E+000  0.132800111096277E+002 -0.994841551825800E-001 -0.151722368904857E+001 -0.424434996283324E+000  0.890844228018649E+001 -0.638057705919998E+000
  0.137676532695788E+000  0.131717268066132E+002 -0.143147318941104E+000  0.260782315149967E+000 -0.110777334658893E+001  0.107255873004346E+002  0.146294367143330E+001
  0.137676532695788E+000  0.130865347745037E+002 -0.109760734464714E+001 -0.107784598876218E+001 -0.358367303495442E-001  0.903618921193022E+001 -0.774880685977543E+000
  0.137676532695788E+000  0.130705807252399E+002  0.134856414368507E+001  0.234555115643786E+000  0.188514169763799E+000  0.876454171827545E+001 -0.667577173967111E+000
  0.137676532695788E+000  0.130002578592395E+002 -0.395730883608714E+000 -0.445073506504357E+000  0.675837971020385E+000  0.946474090761237E+001 -0.164709438396905E+001
  0.137676532695788E+000  0.126768049969587E+002  0.141472686598819E+001 -0.802929267725034E+000 -0.879375050440338E+000  0.101737540977554E+002 -0.194373827379287E+000
  0.137676532695788E+000  0.123437074214995E+002  0.405504284934771E+000 -0.709987034348600E-001 -0.984585798502422E+000  0.113480566994192E+002  0.445175795614716E+000
  0.137676532695788E+000  0.123397828535687E+002  0.152647475594109E+001  0.619159536115738E+000 -0.211686736854610E+000  0.961956169480504E+001 -0.497362273613248E+000
  0.137676532695788E+000  0.122556512146140E+002  0.655779729325374E+000  0.676400253567266E+000  0.863020444983150E+000  0.102799309795691E+002  0.116427483197307E+001
  0.137676532695788E+000  0.122104655334616E+002  0.440572474767741E+000  0.123885795205809E+001  0.659862681021735E+000  0.913972830637816E+001  0.341644443628326E+000
  0.137676532695788E+000  0.121919295459319E+002 -0.826090277982047E+000 -0.752085768423001E-001  0.119837602014951E+001  0.980175780173334E+001 -0.916000917922638E+000
  0.137676532695788E+000  0.121563288175296E+002  0.114645274655708E+001 -0.486592238156405E+000 -0.101672651441239E+001  0.102534579284166E+002 -0.563776420732651E+000
  0.137676532695788E+000  0.121330397591577E+002 -0.818625694164787E+000  0.115390401613503E+001  0.511963029727696E-001  0.109645221095172E+002 -0.953307942164514E-001
  0.137676532695788E+000  0.119923061483004E+002 -0.235373116554172E-001 -0.291041634693201E+000  0.613391575650937E+000  0.104997693161649E+002  0.144625135561884E+001
  0.137676532695788E+000  0.119808622989422E+002 -0.185627583579382E+000  0.138481134891073E+000  0.102852211140665E+001  0.112910532472709E+002 -0.114743720735497E+000
  0.137676532695788E+000  0.119777544771829E+002 -0.128444323590671E-001 -0.637078574330580E+000 -0.312976241590420E+000  0.102778220849334E+002 -0.148566342660295E+001
  0.137676532695788E+000  0.118462210894395E+002  0.134545254026806E+001 -0.536179316652806E+000  0.376779806180664E+000  0.958934612024437E+001 -0.498503087622147E+000
  0.137676532695788E+000  0.118399227555988E+002 -0.124817196970490E+000 -0.701041419592023E+000 -0.139585645268940E+001  0.995802013641203E+001  0.439683378634456E+000
  0.137676532695788E+000  0.116830376471655E+002  0.405024046772056E-001  0.299298480705581E+000 -0.123734972834821E+001  0.994622116254244E+001 -0.931936573045519E+000
  0.137676532695788E+000  0.116632824228982E+002  0.188056722639416E+000 -0.132279662108682E+001 -0.676781597833390E+000  0.964314554064690E+001 -0.321500268797323E+000
  0.137676532695788E+000  0.116596982802797E+002  0.490904407431785E+000  0.875742598162674E+000 -0.502477832547768E+000  0.108577233407155E+002  0.688641714790947E+000
  0.137676532695788E+000  0.115124684500133E+002  0.406081177174137E+000  0.213364883050716E+000  0.839366994228520E+000  0.913110874475738E+001  0.808175511726809E+000
  0.137676532695788E+000  0.113565102780646E+002 -0.579757004434988E+000  0.535344234500535E+000 -0.886556518885335E+000  0.912989375572801E+001 -0.366875307740600E-001
  0.137676532695788E+000  0.113430596167542E+002 -0.665003296693762E+000  0.297579409144959E+000 -0.618527885483878E+000  0.101387467806678E+002 -0.110501763835698E+001
  0.137676532695788E+000  0.113107012921717E+002 -0.108417620120031E+001 -0.537482593070351E-001  0.886310548437521E+000  0.100073894314122E+002  0.396721637334139E+000
  0.137676532695788E+000  0.112629557403921E+002 -0.462686966607755E+000  0.343878398691515E+000 -0.288769422439657E+000  0.959111501987761E+001  0.122092756537162E+001
  0.137676532695788E+000  0.111163747227346E+002 -0.959319568674395E+000  0.331005051524741E+000 -0.267308470171059E-001  0.934643612719955E+001 -0.685033384368367E+000
  0.137676532695788E+000  0.109848205999185E+002 -0.736215145327471E+000 -0.822230136817808E+000 -0.504315665657515E+000  0.105681441863155E+002  0.154279842840310E-001
  0.137676532695788E+000  0.109739029522438E+002  0.498793997525908E-001 -0.130913473827636E+001  0.257573448696519E+000  0.996238208058092E+001 -0.208976884053271E-001
  0.137676532695788E+000  0.107440882736192E+002 -0.100359361235031E+001 -0.322782932891776E+000  0.633085369031647E+000  0.101460717773641E+002 -0.145533269157504E+000
  0.137676532695788E+000  0.104499334223425E+002 -0.270583419213068E+000  0.636412896565588E+000 -0.789078482133363E+000  0.964953890512965E+001 -0.191946603627514E+000
  0.137676532695788E+000  0.100766190196578E+002  0.386248058070748E-003 -0.808186716531964E+000  0.538078322494258E-001  0.101685877767581E+002 -0.450278412053279E+000
  0.137676532695788E+000  0.100383026841760E+002  0.407670153056863E+000  0.892878301098392E-001  0.711989310423576E+000  0.989911893284538E+001 -0.397044473532176E+000
  0.137676532695788E+000  0.960414695172430E+001 -0.496721723925887E+000 -0.219912399406894E-001  0.213969337509212E-002  0.990177686754441E+001 -0.397357738047731E+000
  0.137676532695788E+000  0.950417274902858E+001 -0.250354041751827E+000  0.281150717223049E+000 -0.339212212815276E+000  0.101643935294631E+002  0.175995417874965E+000
  0.137676532695788E+000  0.946252150269679E+001  0.577879049709367E-001  0.446337017704010E-001 -0.379177130706452E+000  0.993267229101710E+001 -0.345682288391728E+000
